-0.007950742,0.035869166,-0.008320212,-0.050343532,0.1325568,-0.010316092,-0.04039167,0.15838017,0.09053249,-0.021879787,0.049930368,-0.03564973,-0.04014946,0.0491955,-0.11874776,-0.065535754,-0.03128778,-0.14454666,-0.13479047,-0.14979436,0.080753565,0.11116097,-0.04630503,-0.008495431,0.070837505,0.0412654,-0.065874554,-0.06773211,-0.050898496,-0.007256076,0.0930991,-0.078386165,-0.009968617,0.08637483,0.0188406,-0.0062756776,-0.028110532,0.020816362,0.109762534,-0.043730758,-0.012453118,0.08562365,-0.07144892,-0.11885505,0.0851456,0.10953314,-0.035262816,-0.010631432,-0.081415035,0.08122015,0.06543978,-0.1020904,-0.055055518,0.12555659,-0.007838465,-0.02223713,-0.021892559,0.034707908,-0.027087126,-0.01415112,-0.0036654652,-0.048823018,0.0024222387,-0.03397279,-0.006379052,-0.011142487,0.078896195,-0.08295412,0.019058937,-0.034020927,-0.04922804,-0.09434718,0.076768786,0.01712277,0.09531393,0.035011273,0.13791919,-0.10666608,-0.03793653,-0.08549061,-0.07722991,-0.039764717,0.18622945,0.055071075,-0.16676548,-0.14757593,0.016418934,0.00437077,-0.0045436257,0.06349685,-0.011442706,0.107127674,-0.03014026,0.031412084,-0.18927364,-0.03169507,0.0018964852,-0.01173875,0.059245896,-0.056406148,-0.031117471,-0.15261221,0.05729925,0.13737224,0.13473764,-0.14427076,-0.03090226,-0.10714973,-0.09552197,0.11553617,-0.045165967,-0.07662021,0.16071446,-0.011649157,0.19322728,0.04339957,-0.03940066,-0.027489057,-0.056941696,0.08238034,-0.030458422,0.16019744,-0.101975724,-0.067669,-0.1033144,-0.043175086,-0.01281819,0.024744263,-0.0049011083,0.085925184,0.0802261,-0.038129006,0.068161026,0.17699642,-0.033388246,-0.01767571,-0.03699423,0.015703898,-0.10658509,-0.014652603,0.045502968,-0.08141397,0.15441754,0.09562498,-0.106362455,0.09405597,-0.015759842,0.059700865,0.07977003,0.14794974,-0.123195425,0.1277772,0.105127335,-0.004907702,-0.09967322,-0.044777635,0.09605496,-0.025794115,-0.036655672,-0.07861064,0.13141641,-0.028072536,-0.17650096,-0.021476515,-0.0558835,-0.03940841,0.078018054,-0.0058179903,0.062920645,-0.057901733,0.023590457,-0.00509307,0.006203581,-0.10244204,-0.014890342,0.02728979,0.005210837,-0.08275552,0.0010545321,-0.034030806,-0.057421513,-0.033757046,0.034657,-0.057096858,-0.04591117,-0.062126353,0.0047638034,0.08676913,-0.047080506,0.06105847,-0.09234078,-0.039701506,-0.02008328,0.13566776,-0.14716901,0.039171048,0.1812616,-0.031057945,-0.017755823,-0.04390362,-0.02840987,0.21393052,0.06661747,0.044027865,0.084729314,-0.026807204,0.084836796,-0.034167565,-0.15650482,0.09152916,-0.0029813235,-0.01545743,0.05575353,0.016199619,0.013949444,0.21882358,0.06880575,-0.012406539,-0.023329072,0.05639619,-0.012942113,0.03131788,0.028427055,-0.087989844,-0.08902742,-0.025481489,-0.010376933,-0.09629344,-0.041160904,-0.0969165,-0.037444912,-0.07763297,-0.05374085,-0.024554549,-0.06768546,-0.0036028875,0.0729814,0.017454214,0.09600057,0.04433364,-0.00848425,-0.0068057575,0.01606356,0.17527975,-0.10601546,-0.023048379,-0.0577024,-0.03486342,0.098720215,0.0958863,0.032123223,0.06933125,0.014502899,0.061734658,-0.046610463,0.12153792,0.22267549,0.17274074,-0.07191919,0.11727563,0.057060532,0.044767305,-0.1515369,-0.08459218,-0.11993816,-0.1383893,0.15016477,-0.048680864,-0.023310006,0.046295244,-0.023410788,-0.01975339,0.031127103,-0.08029869,-0.013475333,-0.11105076,0.08792032,0.098425254,0.030717928,-0.13764916,-0.029426344,0.07553887,-0.06625714,0.008415896,-0.10113802,-0.034790922,-0.048550054,0.046443556,0.08738366,-0.121880874,-0.06536956,0.02284843,-0.11079331,-0.022813464,0.0373331,0.0009920101,0.07906598,0.046132524,-0.05837862,-0.118272096,-0.019857578,-0.006195199,0.07306972,-0.0071938853,-0.008449447,0.230586,0.014785597,-0.014549699,0.031637833,-0.019016048,-0.07806129,-0.033315,-0.070751,-0.06353966,-0.047120795,0.012843283,-0.04002915,-0.083867975,0.01693963,-0.062060207,0.019065283,-0.28948042,-0.07809597,-0.06992817,-0.020510465,-0.024510544,-0.08440758,-0.031658035,-0.0630273,-0.042283818,-0.032389633,0.038720522,-0.08099952,0.08023071,0.05829823,0.033150807,0.00034408053,-0.06930717,0.09901934,-0.034639765,0.049597487,-0.010820995,-0.038221005,0.014939539,-0.022712076,0.02562001,-0.029770624,-0.098803535,-0.041371003,0.08977174,-0.084402986,-0.08229989,0.0074864016,0.02145893,0.06831954,-0.046758886,0.060928877,-0.012785246,0.11434487,0.025149556,0.10406792,0.09181864,-0.017465413,-0.012089211,0.007819261,-0.0065693054,-0.028398156,0.08221258,-0.045784283,0.088590756,0.14172384,-0.07717877,0.009484122,-0.029429039,0.02752537,0.023986591,-0.06323471,0.13205393,0.091968924,-0.047210854,0.09760773,0.019721193,0.013351728,0.035391193,0.11294616,0.03370183,-0.03969562,0.06864618,0.10667449,-0.01320278,0.14502037,0.09534306,0.027039893,-0.044630215,-0.016731605,0.08681331,0.024773354,-0.06255775,-0.014630139,-0.01526838,0.0052971523,-0.00037644472,0.20705874,-0.042318355,-0.053828,-0.058364224,-0.2573993,0.10724624,-0.08618645,0.121105686,0.07885266,0.12850766,0.21963973,0.06838952,-0.01830437,0.119877905,-0.014313653,0.12812144,-0.02099749,0.03119704,0.02656601,0.18176764,-0.018421164,0.086685695,-0.014584989,0.062995195,-0.11524984,-0.026836095,-0.03744779,0.04319534,-0.014669956,0.036052063,0.04264765,-0.080159746,-0.03647093,0.10450665,0.20036836,0.09005054,0.061637633,-0.11214434,-0.00072068843,-0.024362162,-0.026542874,0.050534133,0.018270615,0.03511057,0.03143168,-0.071651675,-0.004418568,0.101068266,-0.08677247,0.059042357,0.1350001,0.13572334,-0.029911365,-0.007928932,-0.08088922,0.009537819,-0.01475298,0.056925382,0.07323455,0.0009669014,-0.06523516,0.1065231,-0.010829157,-0.11059032,0.048379865,0.04082554,0.06072933,0.16774495,-0.18175057,0.028750358,0.048778478,0.19541086,-0.12448802,-0.06257884,0.13064203,-0.050685227,0.096709535,0.095200166,-0.071519434,-0.002891779,-0.03926201,-0.02449307,-0.031282514,0.020602753,-0.025481403,0.08995157,-0.1058348,-0.011554329,0.109277144,-0.046593122,0.044446085,0.0055545014,-0.17892694,-0.21305546,-0.1960918,-0.08264985,0.11220809,0.1141377,-0.036961883,0.11038638,-0.027082846,-0.01892572,-0.03552503,-0.03146411,-0.00596061,0.24529245,0.05684666,0.032964643,-0.017974367,0.01423099
