-0.11819548,0.19207731,-0.11820968,-0.08845056,-0.095714256,0.01993891,-0.30063885,-0.15270995,0.018379116,0.026812086,-0.047116093,-0.042075843,-0.12664999,-0.052559435,-0.10645669,-0.04898504,-0.019985924,-0.09256296,-0.026089078,0.3052648,0.104405224,0.022245165,-0.04139641,-0.05023061,-0.27747265,0.19148424,0.025653945,-0.032538533,-0.07221535,0.14560834,0.109532155,-0.0135875875,-0.010320865,-0.053304143,-0.059726495,0.24528998,0.3025194,0.17233409,-0.030646855,0.042789984,-0.18023191,-0.12912606,0.098702356,0.091290295,-0.09711972,-0.083935045,-0.07371002,0.1360539,0.20621964,0.1082385,0.32558417,-0.067132995,-0.018822059,-0.04066069,-0.011403048,0.016639054,0.020226117,-0.21199071,-0.073554546,0.22323693,0.16026555,-0.10435399,0.20874235,-0.03214744,-0.12225102,-0.004847529,0.23882182,-0.033608314,-0.06824705,-0.08560881,-0.11685585,-0.030070538,0.20094082,-0.19559245,-0.28304723,0.029791227,-0.012743558,0.11591182,0.13721743,0.094650745,-0.025169969,0.0016791327,0.29553038,0.30074367,-0.052566964,0.052377503,0.23933923,-0.083701976,0.021517785,-0.017585656,0.060408656,0.039511085,0.14070082,-0.12154059,0.014778255,0.107439056,-0.16472833,-0.07601275,-0.07403644,-0.07886337,-0.13576594,-0.049488705,-0.14990865,-0.029135916,-0.31490782,-0.071516186,-0.35872316,-0.12088295,-0.058185887,0.18411191,-0.016171413,-0.06323905,0.10980654,0.41087395,0.057915635,0.12684706,0.20851359,-0.23847613,0.23098291,0.20323089,-0.25789,0.051936485,0.0069288565,0.071940854,0.06680027,-0.050695237,-0.110158384,-0.30058685,-0.02821777,-0.13836534,-0.01994666,0.27298743,0.018979847,0.064534105,-0.045276847,-0.14745781,0.054410614,0.0037516688,-0.2917365,-0.009236982,-0.10419817,-0.22099473,-0.04494812,-0.04505976,-0.16948958,-0.12027532,-0.047786213,0.1734013,-0.14367908,0.035018545,-0.298942,-0.19015951,-0.08774086,-0.071512364,-0.023489408,-0.14337048,0.0654165,-0.046039373,-0.06830776,0.0653739,0.10565483,-0.20865445,0.0082785925,-0.101955764,0.2857059,0.16971622,-0.013015243,-0.038673066,-0.1803574,0.05403162,-0.015934445,0.09104227,0.048744544,0.19382252,-0.17285272,-0.017661003,-0.01310597,-0.06168935,-0.31221536,-0.11419271,-0.058438573,0.046849713,-0.0316284,0.09839664,-0.11456908,-0.15978055,0.07345511,0.03329705,0.024766615,0.003967906,-0.1062251,0.038113188,0.018006442,-0.19642004,-0.06563681,-0.15190654,-0.23248664,-0.22916593,0.05768722,0.06675847,0.12422617,-0.11259814,-0.07632997,0.23656327,0.16096163,0.17876135,0.14594147,0.20416418,-0.0745813,0.18920937,0.074567094,0.046719704,-0.08487783,0.27666116,-0.10016988,-0.027794382,-0.09043394,0.07332764,-0.24860774,-0.018296376,-0.1883768,-0.060758237,0.109347925,-0.07040136,-0.071072176,-0.22898836,-0.05218404,0.0032125432,0.04746092,0.15120362,-0.06420917,0.13628015,-0.011026326,-0.06585363,-0.015625099,-0.105671585,0.114401825,0.09349353,-0.23063435,-0.08412557,-0.11924009,-0.24205792,-0.082058415,0.07245906,-0.1309369,-0.07151535,0.09469172,0.10472861,0.04776195,-0.09404157,0.027934335,-0.006748035,0.21594708,-0.03614141,0.25078964,-0.24558625
