0.06834224,0.007149994,-0.06917904,0.0009793268,0.009514431,0.044779915,-0.07043678,0.06684876,0.0749485,-0.02175488,0.06489952,-0.058852736,0.0127918525,0.06181678,-0.05602589,-0.040382847,0.0392609,0.049172662,-0.024890603,0.05575026,0.028812157,-0.059112016,0.010630178,-0.041257363,-0.0037713856,-0.01344069,0.08091556,0.015235156,-0.056196705,0.054432753,0.043202035,0.05900883,-0.048407614,-0.03241422,0.047324184,-0.014047577,0.067251906,0.011198676,-0.011066616,0.0072633624,0.047099438,0.03585864,-0.052564003,0.02450471,-0.071637295,-0.0077330833,0.008492506,0.017697336,0.017565995,-0.0547797,0.066228196,-0.013980444,-0.009558146,0.057628334,-0.027167443,0.054306503,0.067631386,-0.066823296,0.0824152,-0.07269489,0.024600776,0.013651832,0.05297653,0.052833773,0.040237274,-0.04154411,0.045174822,-0.020574162,-0.080823526,-0.07701391,0.017894812,0.021666298,0.012219733,0.042409938,0.0140976785,0.004603333,0.051591672,0.045154292,-0.00017331648,-0.06638568,-0.06267682,0.02839774,-0.08043885,0.039511032,0.011978441,-0.020204373,-0.014424931,-0.065411,0.07827705,-0.000845195,-0.038866937,-0.0244961,-0.03715723,-0.057829544,0.066628285,0.0744117,0.063363165,0.056395806,0.017458895,-0.022501893,0.0028613622,-0.053969834,0.067149155,-0.020874277,-0.06705211,0.020272313,-0.018028125,-0.05027985,-0.012790295,-0.048156656,0.014261888,0.055496015,-0.016678248,0.0059076836,0.08180163,-0.02151716,-0.0031229905,0.06005471,-0.037671316,0.052301046,0.0057256413,-0.058504824,-0.028335392,0.004670281,0.008836661,-0.061636172,0.03424923,-0.07230575,0.043148875,-0.049343165,-0.04915665,-0.0147076445,0.009556659,0.031259317,-0.00787057,-0.03076527,-0.03289576,0.0048926845,-0.0068614944,0.05598576,0.013397263,0.06594201,0.010093741,-0.053004846,-0.06904764,-0.0055066533,-0.03377479,-0.019947177,-0.0689561,-0.022650564,0.029168574,0.016604116,0.0015613874,-0.0020684595,-0.06219882,-0.001569428,0.02949195,0.042450923,0.019349651,0.047912855,-0.07954695,0.022524938,-0.03266187,0.006249406,0.05094485,-0.009872839,-0.0153707545,-0.06624522,-0.0445656,0.048185952,-0.0714515,0.067323275,-0.02914459,0.070826635,-0.07089883,-0.043072686,-0.07037883,-0.07161388,0.031125056,-0.027359907,-0.033042632,0.029074172,0.024270989,0.018492911,-0.0076890686,-0.06010144,0.013688919,-0.008608513,-0.041253798,0.03512069,0.04756079,0.015186644,-0.014043616,0.069652125,-0.0343588,0.053588547,0.0061993804,0.0629591,-0.048988868,-0.07819448,0.024170041,-0.02505681,-0.011619315,-0.013661647,0.04976086,0.010009348,0.06600432,0.07183271,0.0013480452,-0.04002297,-0.05756661,0.020849273,0.013737192,0.038954854,0.049722344,0.0035950055,0.06860744,-0.054289054,0.025815746,0.014326289,0.033362772,-0.019954415,-0.024820888,0.041319445,-0.057598714,0.06631649,0.0040506744,0.019144306,-0.024315933,0.03662809,0.01781626,0.0060718134,0.07276902,-0.03486039,0.0614969,-0.06958437,0.0427504,-0.017348759,-0.01458884,0.021433532,-0.02173017,0.07917978,-0.04973225,-0.021483917,-0.018696146,0.05770439,0.07715015,0.047293443,-0.06320677,0.054113284,-0.0706074,-0.019655803,0.022008844,-0.016092472,0.02013795,0.048606448,-0.081357874,-0.057075903,0.02518186,-0.035143323,0.016460147,-0.025816347,0.030475346,0.011415275,-0.048227694,-0.047784455,0.06915644,0.067913584,-0.05396496,-0.020606665,0.03911336,0.041866895,0.0799601,0.040521115,-0.0015508631,-0.0822936,-0.06745748,-0.04502581,-0.037549146,-0.020577095,0.011688323,0.02283906,-0.07354788,0.0034241343,0.028400578,-0.011282634,-0.03550041,0.042149715,-0.03536231,-0.06659191,-0.07756739,-0.06630081,0.014145158,-0.033014238,0.05614174,-0.063027516,0.05739877,0.013454514,-0.070251815,-0.07771162,0.010950336,0.032591164,-0.07520566,0.01594353,0.06127472,0.06613264,-0.05468956,-0.040914945,0.07669374,-0.026195,-0.019021602,0.01767528,0.04137835,-0.032876704,0.08061045,-0.05070006,-0.05165152,0.07928537,-0.0020015428,-0.050409976,-0.048852324,0.035838697,-0.005734688,-0.07115739,-0.02565386,-0.0060339267,-0.044778656,-0.056192286,0.035141222,0.010999553,0.051532917,-0.012882291,0.058307342,0.07607722,0.064711854,-0.036891084,0.02087172,-0.008141798,0.015922204,0.079317264,-0.011910218,0.045725632,-0.01322455,0.05112155,0.043732833,0.02952,-0.068540044,-0.045334756,-0.031898163,0.046515778,-0.035308503,-0.05600316,0.037534002,-0.0082885595,0.055218503,-0.0036758438,0.06263948,-0.05177348,0.06683411,-0.038698915,-0.009035614,0.006287193,-0.0013714206,-0.03706718,0.0637682,0.055420768,-0.07336283,-0.049355417,-0.037817147,-0.03998054,0.033339743,0.016729692,-0.07703225,-0.0057748365,-0.0223195,0.07193328,0.00681924,0.015309325,-0.035552282,0.060313027,-0.05378392,-0.029343493,0.04558273,-0.05645812,0.069635235,-0.044206217,0.00010385653,-0.054568373,0.037174344,-0.018491168,0.076998286,-0.035446495,-0.061520126,-0.03825679,0.0719234,-0.022036731,-0.048277702,-0.05449133,-0.06384785,0.03880628,0.030915683,-0.018791419,0.023277689,0.061150562,-0.07861574,0.06326893,-0.026962135,0.024563365,0.06557714,-0.04763279,-0.0033538807,-0.014307366,-0.06338969,0.05858328,-0.05520627,-0.074013926,0.072385855,-0.063411355,0.081124194,-0.05498804,-0.04877203,-0.06285043,-0.029387962,0.037289403,-0.05986079,-0.00061232597,-0.022230765,-0.012455025,0.050485887,-0.021021383,0.023418223,0.010859292,0.043987095,0.001653683,0.02449973,0.0541269,0.022060601,0.06981823,-0.04650557,0.07279501,-0.050340835,-0.026370548,-0.0026185662,0.07006822,0.01459669,-0.020417597,0.068456754,-0.048932537,0.025501378,0.007978134,-0.04730899,-0.016947467,-0.014208264,0.048035707,-0.047255628,-0.07905203,-0.074832395,-0.05105777,-0.022743989,0.062912755,0.04036683,0.05003157,0.07498905,0.06494274,0.042388987,0.034357876,-0.017860793,0.023301896,-0.052479416,0.051321004,-0.05882198,-0.058022626,0.013588801,0.0049389214,0.04112263,-0.050953135,0.07138643,-0.01078268,0.046701826,0.021705117,0.026863607,0.055828128,0.015201747,-0.06054087,0.025345763,-0.012907766,-0.040549077,-0.026287556,-0.04959144,-0.04167017,0.05495917,0.05343937,0.055246823,-0.01623643,0.047546506,-0.051187783,-0.03360701,0.04399133,-0.059719708,0.028977577,0.0042855707,-0.046553306,-0.055526853,-0.014919384,0.006626028,0.08175363,0.007919625,-0.015983893,-0.00073879707,-0.005138769,0.03732588,-0.029915718
0.010460693,-0.05946249,0.0028421162,0.0034808258,-0.015922498,0.015916808,-0.015620507,0.021476919,0.06964019,-0.075206816,-0.07995227,0.06659185,0.021166375,-0.04304127,-0.054878216,0.0042642937,0.040689357,0.05634589,-0.045318387,-0.04147008,-0.0647516,-0.00014663694,-0.050290372,-0.041432302,0.060267285,-0.048856802,0.074191175,-0.05838491,-0.045587003,0.02821564,0.06140921,0.057924137,0.012019856,0.053733744,0.038629618,-0.057108752,0.02921181,0.003941132,0.07307077,0.046713814,0.056200173,-0.05133571,0.031754248,-0.021298796,0.059930004,-0.025532452,0.064994514,-0.01463778,-0.06322516,-0.049368586,-0.0044853804,0.070410736,-0.041180402,0.0033502416,0.021484729,0.054144297,0.047762897,-0.048531424,0.0427584,-0.008716352,0.022041854,-0.026978241,0.025267828,-0.0051242486,0.015701259,-0.04301904,0.0026670226,-0.04951844,0.022235477,-0.023737704,-0.010930001,-0.03673554,0.009096704,0.003597841,0.071738385,0.005729216,-0.050035834,0.023320217,-0.003159201,-0.020981325,0.06887971,0.005561858,0.016097836,0.061531983,-0.050281048,-0.058415968,0.030719027,-0.07369823,-0.06276072,0.027484119,-0.048947185,-0.05218557,-0.053403057,0.03500218,-0.045684338,0.058440812,-0.065599255,-0.045950174,0.05620535,0.021267708,0.063566335,-0.06334643,0.04757529,0.0052771564,-0.030181289,0.018638173,-0.013020201,0.011390131,-0.06867432,-0.075179264,0.049082354,-0.037494946,0.0677538,0.0063668313,-0.017767655,0.031586226,-0.015738765,0.0056352215,-0.0060597304,-0.020870736,0.027089203,-0.023966264,0.040211212,0.07423253,-0.016364496,-0.001148425,0.06507445,-0.079205565,0.010870211,0.011510756,-0.019747304,-0.07359577,-0.018020608,-0.015591982,-0.031528573,0.051668365,-0.034423336,0.03284154,0.056292146,0.016348818,-0.020618843,0.049377013,0.004380215,0.053279057,0.02592874,0.015962614,0.037160188,0.011735951,0.0056528104,0.03753395,-0.045342296,0.01270787,-0.05123623,-0.069683805,-0.06396601,-0.0020564853,0.08123002,-0.031483453,-0.07051201,0.036638003,0.04056446,0.052086942,0.0013396755,0.04354968,0.035027992,-0.019451983,-0.02693512,-0.036700387,0.02397799,0.067077115,0.062063064,0.023491137,0.049117364,0.003904734,-0.014557754,-0.038837895,-0.048719842,0.012061161,-0.017127907,0.020582356,0.041832797,0.0025445498,-0.051768918,-0.031080876,0.04621363,-0.06020317,0.02302568,-0.014723085,0.04211906,-0.014811609,0.014994289,0.029096656,-0.05805431,-0.0215484,0.0490979,0.05680365,0.04767124,7.288903e-05,-0.06930291,-0.059042495,-0.01312618,-0.062692426,0.035246704,-0.0703092,0.067415684,0.04820516,-0.0023705002,-0.019727286,0.011778286,0.050225887,-0.034737773,-0.046305813,0.05840011,0.0038866715,0.02420155,-0.035301946,-0.076562844,-0.009520853,0.023625787,0.00043794513,-0.011828665,-0.04486265,-0.0627785,0.031224038,0.040056143,0.07263728,0.025544586,0.010867198,-0.011186672,-0.0039434712,-0.0076761097,-0.08160843,-0.016835993,0.06348249,-0.014060581,0.018112263,0.033982113,-0.060254905,-0.016854199,-0.059046857,0.03814061,0.022888249,0.031254336,-0.055610646,0.022183828,-0.0032854476,-0.022623736,0.0057282816,-0.01065658,-0.02234863,0.07357419,-0.06067217,0.039422352,-0.04471677,0.009203259,0.00512327,0.04025637,-0.007826531,0.015972072,0.012185096,0.015895247,-0.023262037,-0.06460277,0.0007417149,0.060161747,-0.0706134,-0.03912948,-0.040354606,0.02574404,-0.022763556,-0.057915565,-0.014472454,0.020074015,0.001334218,0.08025088,-0.010133293,-0.011227856,-0.066039436,-0.053347785,0.013263851,-0.036756665,-0.037740376,-0.07543319,-0.038381316,-0.013856572,0.047125306,0.028592028,-0.012495382,-0.005678275,-0.07092535,0.03180234,0.064365946,0.04456079,0.02728599,0.025018418,0.06595333,0.06303619,-0.0159924,0.024361953,-0.044806227,-0.00062609673,-0.07921603,0.06325192,-0.0684311,0.017138124,0.048799455,-0.04786279,-0.058997836,-0.03811172,0.017208733,0.04780741,-0.06757792,0.021895736,-0.059016015,0.006985113,-0.045470294,0.020414434,-0.06735683,0.045762964,-0.025525942,-0.024958119,-0.039019838,0.036058262,0.02324878,0.05463761,-0.03715007,0.040425986,-0.013369667,-0.05968024,-0.0381302,0.020881496,0.01290219,0.068522826,-0.04645524,0.07888175,0.06536997,-0.07050867,0.016567469,0.07949607,-0.022232495,0.042652432,0.08206516,-0.0042172894,0.014978155,0.04087978,-0.0012376162,-0.013379492,-0.0135115525,-0.043112908,-0.05208768,0.059585042,-0.020738473,-0.041418158,-0.039533872,-0.06530847,0.06400471,0.024808168,-0.05333179,-0.017571254,0.045611814,-0.04329875,0.031831652,0.050786704,0.04980207,0.06481242,-0.0044249203,-0.04786341,0.009822623,-0.002919358,0.023428746,-0.05325789,-0.027055472,0.02997596,0.00018407463,-0.051788256,0.03210081,0.027726747,-0.00029774805,-0.054050405,0.045869257,-0.06953898,0.008493625,0.025230257,0.074357934,0.06568223,-0.033146035,0.05635287,0.006767851,0.0013924688,0.06829736,-0.057571802,-0.046939805,0.059663944,-0.06751689,0.060223177,-0.03301869,-0.027981678,0.01206614,0.053805068,0.0102159185,-0.07292012,-0.07661111,0.028307991,-0.02007074,0.041666724,0.05419054,-0.018936817,-0.064652555,-0.056649428,0.023821736,-0.0037146232,0.06531679,-0.011596595,-0.02597158,-0.063087314,0.051834732,0.012903478,-0.06349011,0.015617459,0.047867108,-0.050859626,-0.029508976,-0.030715825,0.011508485,0.02589272,0.059753634,-0.061862648,0.03251977,0.030831717,0.0057580406,0.0068985317,0.062073216,-0.055912625,-0.0009699357,-0.054012492,-0.04499975,-0.035676345,-0.06404012,0.0028223877,0.046130538,-0.02960419,-0.0057876036,0.055477716,-0.027948854,0.06113887,-0.052241217,-0.041108266,0.036432672,-0.034749083,0.04531987,0.0439514,-0.05729404,-0.05793829,0.080167964,-0.039807927,-0.0199541,-0.04999745,0.061443444,-0.022185525,0.011105493,-0.038143244,0.022998683,0.060449,-0.071589075,-0.055011038,0.04261414,0.034400344,-0.018884946,-0.022059351,0.04716574,-0.07083972,0.010629325,-0.051134013,0.0073269824,-0.026706789,-0.014752655,0.0021033736,0.0462865,-0.0056668636,-0.0044155493,0.067224205,0.0024212166,-0.06584672,-0.020052727,-0.017591963,-0.031638104,-0.051990066,0.04842319,0.016024591,-0.024911715,0.024768203,0.03734963,-0.056446247,-0.016057443,-0.020907465,-0.018703105,0.035466097,0.0035848604,-0.006364423,0.024800634,0.003419579,-0.046696622,-0.031721123,0.012682296,-0.0058350237,0.017047768,0.051860563,-0.0810862,-0.048874423,-0.025269981,0.044003777,-0.014953117
-0.058680482,-0.29731786,-0.06580818,0.099763714,-0.055920348,-0.030836778,-0.06535622,-0.1160553,0.026778864,-0.0050541386,-0.16956489,0.025245504,0.08966338,0.049980905,0.12671548,-0.12932059,-0.027084813,0.0033622147,0.06887038,0.09420515,0.106660336,-0.10847348,-0.006417793,0.02112961,-0.04987426,0.02511649,0.0012183653,-0.08436509,-0.014969179,-0.07140597,0.15748954,0.18236522,0.051608358,-0.12890089,-0.22236362,0.029477777,-0.05577097,0.0060655517,-0.026880264,-0.1038852,-0.12348405,-0.6714389,-0.006090068,-0.062085245,0.07926055,0.05317552,-0.18903968,0.024368504,-0.004790666,-0.07898712,0.09258052,-0.017765852,-0.029105835,-0.3199041,-0.005593807,0.0037837026,-0.077842094,-0.25786588,-0.0065304907,-0.28054073,-0.07830146,-0.33050093,-0.15779054,0.06392954,-0.043611333,-0.0020775704,-0.16708927,-0.16243662,-0.00025835715,0.09813068,0.022372637,-0.007886454,-0.16937268,-0.08699013,-0.091614015,0.11432173,-0.012820924,0.14841223,-0.0030014918,-0.023794325,-0.099551015,0.009294179,0.019001186,0.11879664,0.033014275,-0.31226575,-0.17944223,-0.3005407,0.05173556,0.17511424,0.06275462,-0.09840369,0.010280311,-0.39074704,0.09458534,0.1511148,-0.156378,0.06234982,0.06932853,-0.09882444,-0.018235365,0.071534485,0.02046829,0.14710948,0.04224359,-0.008270218,-0.077471465,-0.008190927,-0.11111112,0.2001455,-0.14402045,-0.6762466,-0.09501004,-0.07165828,-0.4771039,0.008654589,-0.42049924,-0.00065461046,-0.14667825,-0.055203903,-0.022094524,-0.064796746,-0.09277872,-0.0034483734,0.17011443,-0.0049322257,0.030535297,-0.17772275,-0.30796584,-0.016072083,0.06096407,-0.058110498,-0.14301139,-0.15004775,0.035054352,0.036811337,0.007276992,-0.19472116,-0.10695747,-0.17181121,0.07916049,0.10483874,-0.19496615,0.029454987,-0.047837947,-0.10367746,-0.028527841,-0.1564085,0.008181275,0.14350072,0.20242383,-0.009355022,0.30533305,-0.014984716,-0.248205,-0.17662467,-0.27456665,-0.121565364,-0.0769123,0.13352276,-0.20298894,-0.06908137,-0.036709994,-0.073047854,-0.08628384,-0.029979348,0.19430651,-0.17438123,0.19914968,0.15411009,-0.22917104,-0.16733982,0.019627687,0.25071737,-0.05223021,-0.20035821,0.058790028,-0.013249278,-0.0107702855,-0.11748118,-0.113745004,-0.013329409,0.22559644,-0.024259852,-0.20031019,-0.076866314,-0.0010560524,0.024912668,-0.17552778,0.16600853,-0.23054217,-0.15433384,-0.0032724412,-0.2905045,-0.14676434,-0.50856674,-0.19291955,-0.008958257,-0.059403304,-0.3640137,-0.027462529,0.012568297,-0.36265916,-0.15241422,-0.080432594,0.025078548,0.015884409,-0.015551887,0.044793256,-0.14978695,-0.1896113,0.033924147,0.12293342,-0.00831434,0.11273341,-0.18553223,-0.14742911,-0.3029757,0.06172567,-0.20604126,0.0025482578,-0.24647838,-0.037050627,-0.1757029,-0.102100775,-0.05744046,0.038945287,0.0023862135,-0.09850298,-0.096280865,-0.023649376,0.20206192,-0.06116012,-0.051334906,-0.111609675,-0.009072797,0.0063908827,0.048778627,-0.107256785,0.056959525,-0.058840316,-0.08139127,0.06627575,-0.062360622,-0.27693993,0.12759507,0.14554487,0.025452118,0.098688275,-0.08267274,0.15435146,-0.20691884,-0.25693887,-0.13072962,-0.36914816,0.06772675,-0.24551322,-0.11650832,0.21436884,0.08974625,-0.18802401,-0.0091547435,0.14771016,-0.587254,-0.037526652,-0.18520695,-0.104588024,-0.045219842,0.024514943,-0.08500527,-0.068939336,-0.060646158,0.093173034,-0.11812637,0.031868573,-0.24127021,-0.02804529,0.05958847,0.18846585,0.16149409,-0.11022666,-0.071247324,-0.054737467,0.10060812,0.09549031,0.030561458,-0.02639797,0.050227877,-0.15330079,0.122419715,-0.07451636,-0.15263642,0.07324308,0.013983308,-0.027808247,0.034407742,0.18547614,0.014040686,0.04822293,0.0758762,-0.01304359,-0.26078862,0.09583499,-0.017882822,-0.058312114,-0.012633623,-0.101176076,-0.07391419,-0.016181177,-0.08650645,0.06481089,-0.01684968,0.087412104,-0.09143056,-0.11550928,0.15007152,0.08357182,-0.014813177,0.17993237,-0.061278753,-0.16591783,-0.16119592,-0.027758848,-0.12852564,-0.29655382,-0.028763454,-0.17869543,-0.06943036,-0.08660457,0.07769013,-0.06461348,-0.1614637,0.2832738,-0.07281877,-0.020449204,0.1832834,0.0830939,-0.20432971,-0.19102445,-0.022837106,0.15663342,0.12115282,-0.0931853,-0.23410814,-0.042380553,-0.14804298,-0.08684567,-0.0818699,0.11505872,0.041711386,-0.156843,0.0019409448,-0.08996098,-0.032690212,0.0073207957,-0.05093328,-0.08426758,-0.017246552,-0.21005206,0.09170596,0.020650884,-0.06763385,-0.044172045,0.015318884,0.11477184,-0.059567228,-0.01260672,-0.03685436,-0.073184535,-0.12882225,-0.0434058,0.35117516,-0.005101787,0.04910605,-0.52037454,-0.1426178,-0.11474791,-0.22255042,0.12526636,-0.06711099,-0.31426734,-0.09879452,-0.21385163,0.12104722,-0.38887867,0.049953464,-0.05444486,0.15139961,-0.13872632,0.000118497584,-0.16687225,0.050167114,-0.10037674,0.10867859,-0.081882834,-0.0986323,0.003711034,0.10640051,-0.061339643,-0.0340932,-0.18861815,0.21510628,-0.023339963,-0.05231514,-0.14092198,-0.0050772917,-0.08510232,-0.13238896,-0.017419808,-0.19720724,0.042927932,0.08994732,0.22451302,-0.06057014,0.051469497,0.16863087,-0.08024446,-0.26650652,-0.0045958688,-0.31100708,0.2740741,2.6396185e-05,-0.022280106,-0.11771915,0.015766628,0.082862586,0.058830593,-0.08550376,-0.07623135,0.085778296,0.0059140176,-0.12131928,0.045852248,-0.028030703,-0.058271762,-0.10216901,-0.06878219,0.050145503,-0.005430934,-0.15261783,-0.096331716,0.017485319,-0.06885965,0.043305956,0.15574357,-0.060561154,0.10727868,-0.05019967,0.22704615,0.0980718,0.22977003,-0.23156032,0.017781422,-0.055673283,-0.03106253,-0.00026222787,-0.23875102,0.14923726,-0.3344808,-0.08944371,-0.35896716,-0.07537953,0.08969221,-0.030022005,0.043370724,-0.039021317,-0.0023878904,0.1521848,-0.120787196,-0.16382004,-0.19876574,-0.21460742,-0.5149378,0.03313849,-0.115612686,0.009343059,-0.11283351,-0.024984322,-0.1462289,-0.44107163,-0.039730888,-0.13332981,0.28251803,-0.08365246,0.050710987,-0.02672392,-0.01143811,-0.2645685,-0.20829803,-0.002236376,-0.18747406,-0.18134914,0.06492438,0.15414084,-0.17934977,0.068471245,0.061396275,0.030382814,0.035437565,-0.09107027,-0.08498172,0.16908678,0.2074751,0.10130574,-0.032552734,-0.02098779,0.0803513,-0.031936612,-0.15674148,-0.030535122,-0.06616862,-0.045554984
0.045350984,-0.06411871,0.04784538,0.077591695,0.072986424,0.06329731,0.00050611893,-0.05461558,0.0390393,-0.072741106,0.06153407,0.0652424,-0.011882607,0.053127185,-0.035545778,-0.064911924,-0.04149043,-0.063655205,0.06421677,-0.0428409,-0.0003520389,0.020050783,0.02106913,0.016388606,-0.03279344,-0.046856284,-0.06537789,0.05314956,0.048591886,-0.0581993,0.0030461387,0.063058786,-0.04325632,0.057222962,0.0211179,0.010902084,-0.017837018,-0.04418842,0.057655357,-0.045742467,-0.030635178,0.06098079,0.00052437844,0.05555997,-0.018724347,0.0007759487,0.00064104603,0.032129977,0.026539452,0.031427667,0.006436932,0.009088496,-0.023170743,0.026502637,-2.4419647e-05,-0.047702756,-0.060940396,0.0013331831,-0.07158379,-0.061536234,0.025118923,0.044465482,-0.014797056,0.071403675,-0.015277495,-0.013464926,-0.036394697,-0.034889195,0.059929408,-0.0010497991,0.046702154,-0.0132749425,-0.021800704,0.06418489,0.0074788067,0.011861188,-0.029943286,-0.04187574,-0.006510334,0.007292834,-0.0042795725,-0.043906324,0.044209365,-0.018080886,0.019101117,0.031954773,0.07298023,0.049590558,-0.019448314,0.032102726,-0.061282992,-0.04946134,0.0030896876,-0.009702951,0.010442088,-0.015412921,-0.04856356,0.04996779,-0.019591248,0.06167117,-0.020361485,-0.06943504,-0.024450675,0.04730365,0.014507363,-0.00037969707,-0.05183881,0.046605658,-0.024859168,0.03816224,0.045123056,0.07355023,-0.031040408,0.0008323642,-0.071929015,-0.035147138,-0.047688313,0.03963755,0.03590317,0.058863074,0.009588414,0.047957752,-0.048971035,0.043540616,0.0542455,0.040779583,-0.04388742,0.05508165,-0.048713107,-0.0796023,0.03080249,-0.048995223,0.060097635,-0.05870854,0.067820676,0.0052733324,0.007857631,-0.050918587,0.041042913,0.021071646,-3.1089083e-05,0.014433743,-0.003989756,-0.04711049,-0.060470562,0.014223458,0.0035133138,0.0048441375,0.020498624,0.03259833,0.014721442,0.075971805,-0.0047294707,-0.026727993,-0.061950613,-0.016563639,-0.0050383005,0.069677256,0.039853252,0.07153975,0.06906316,-0.05454012,-0.012308759,0.04290381,0.042738352,0.07324154,-0.06139956,0.047655974,-0.031474855,-0.07054237,0.049475644,0.010333479,0.01995298,0.058255993,0.0054127923,-0.0025884167,0.016855404,-0.041367263,0.028012818,0.05693854,0.00816628,-0.044212982,0.05162315,-0.017400082,-0.001509799,0.013987585,0.04037961,0.06845645,0.02012397,-0.018019294,-0.023710264,0.06393888,0.06293479,0.06973237,-0.029477498,0.01020284,-0.042051073,0.011618212,0.064985946,0.026208159,0.018563509,-0.0501295,-0.034169782,0.03835636,0.0009719196,0.012880169,0.012756698,0.07217888,-0.06893956,0.050056558,-0.046769623,-0.00647634,0.055297155,-0.04109809,0.07723287,0.047225434,0.010022201,0.0020922178,0.056464486,0.017901637,-0.06616532,-0.06358412,-0.007416938,0.0389114,-0.07743763,0.026972737,0.059864257,0.032046653,-0.0059320056,0.08208716,0.026295252,-0.05210105,0.017177003,-0.03191833,-0.03703364,-0.061578374,-0.050797783,-0.014892866,-0.04291772,-0.025286943,-0.07307908,0.0069314456,0.05589822,0.0019434376,-0.051721882,0.06317125,0.009705741,-0.004648779,-0.054884184,-0.018178385,0.005233057,0.012211464,-0.021853402,-0.023185324,-0.06575367,-0.056508318,-0.06759849,0.08231065,0.01263228,0.062033486,0.009048986,-0.008697979,0.001885109,-0.06274104,0.037180103,0.06917909,0.018942364,0.027107898,-0.013075839,-0.060737357,0.065814056,-0.04345611,0.0076900315,0.047755614,-0.014484687,0.06735725,0.04341216,0.01667662,0.055602,-0.047407966,-0.04001029,0.040819485,-0.0016019791,-0.043620232,0.015727717,0.049469385,0.032850362,-0.039054368,0.018658744,-0.07007865,-0.042263784,-0.05818232,0.076695405,-0.031287856,-0.041924994,0.002534251,0.04703962,0.07297655,0.011917832,-0.053717386,0.017019862,-0.007210745,0.010000797,0.04717855,-0.07361525,-0.062997036,-0.05253125,-0.011747756,0.024259688,0.060765453,-0.07040712,-0.014428839,-0.026764512,0.014761108,0.003955975,-0.014083493,0.012952373,-0.048979707,-0.07360321,-0.048185457,0.021643253,-0.052727886,0.0072132302,-0.065000035,0.030898465,0.024203308,0.049925357,-0.05442106,-0.037505664,0.04501688,-0.0282765,0.01604089,0.053039856,-0.066082045,-0.027526764,-0.019298583,-0.030094622,0.04817251,0.023031149,0.036423005,0.07103301,0.05767635,0.0008475669,0.0027934157,-0.014249324,-0.021465657,0.0022387952,-0.048134044,-0.06176536,-0.042264193,-0.013277378,-0.026352465,0.07015355,0.039279655,0.010167653,-0.027252784,-0.017882137,-0.01984709,-0.04514008,0.01258104,0.043325096,-0.072040915,-0.041818768,-0.013962779,-0.055692,0.025044365,0.06275026,-0.0025624859,0.06711158,0.009345369,-0.00015620106,0.010535991,0.015791312,-0.062481772,0.031420633,0.022027528,0.043983933,0.017825134,0.033189267,-0.057593588,-0.0126119265,0.036971994,2.650944e-05,0.0060863863,0.03287029,0.033945464,0.06673536,0.020704616,0.024010397,-0.029243037,-0.08130132,-0.035472877,0.07022698,0.026614157,-0.07677251,0.0784921,0.030714624,-0.020527024,0.021350661,-0.0001369972,-0.0561724,-0.046926968,-0.032230288,0.06310302,0.053527713,-0.046899583,0.022012934,-0.015937624,-0.026298761,0.025699232,-0.05867409,-0.021223206,-0.06568873,0.035347354,0.07457917,0.03015128,0.0017950088,0.009795697,-0.025656601,-0.034302697,0.030422758,0.06470692,-0.05091366,0.027720975,0.011270329,-0.06853402,0.06748323,0.0084949685,-0.06141467,-0.009393268,-0.037706736,0.0023349456,0.039174113,-0.027601346,0.0034472265,-0.044336338,0.06104082,-0.0021984098,0.052166257,-0.024689987,0.003983765,-0.049248956,0.06512235,-0.051932406,0.053387184,-0.025555223,-0.04665209,0.018843433,0.015593688,-0.025645277,0.02343584,0.040412325,0.050062254,-0.06925153,-0.001250357,0.0037961435,0.0685286,-0.033056855,-0.062846094,-0.03950357,0.014344883,-0.019675989,0.015155606,0.035631932,0.049929705,0.041240335,-0.011089683,-0.050344322,0.020308742,-0.010878912,-0.03722349,-0.015269219,-0.0531472,0.058855575,0.030492676,0.036961198,-0.006812513,-0.066556774,0.05931721,0.0638357,0.05807261,-0.0022418813,0.053128846,-0.045993663,0.03398725,0.018537868,0.037721682,0.03828003,0.071388595,-0.024340825,-0.003591524,-0.07842627,0.015377275,-0.035408285,-0.025964815,-0.029557109,0.063385,0.06819087,0.017704964,-0.013332439,-0.026719391,0.024008418,-0.012111106,0.046481326,-0.07427919,-0.07749035,0.038749803,-0.029677084,-0.06920282,0.038165785,-0.040867202,0.050583903
-0.06151072,0.04342478,-0.022133956,-0.056433734,-0.044438493,0.07843475,-0.07555951,0.03915813,0.022989675,0.048838273,-0.030264188,-0.033709288,-0.063420594,-0.015625859,0.0011342098,0.06549127,0.056118958,-0.048924904,-0.0037412597,-0.07604302,0.028261185,-0.042184424,0.031564094,0.011889193,-0.048481688,-0.0533268,0.05332359,-0.07159098,0.06330077,-0.048323844,-0.011111623,0.013440924,-0.0055253445,-0.050600234,-0.005962879,-0.055614572,-0.00029059066,0.0028680027,-0.04563511,-0.0039467677,-0.057077296,-0.05735159,0.05094421,-0.013872473,-0.06623684,0.06528656,0.033484474,0.04568053,0.022805184,-0.011551038,-0.010987974,0.058128767,-0.012443972,-0.057304263,0.053502433,0.021229975,0.07165837,0.036609843,0.06821984,0.07458598,0.004910759,0.0015403886,0.010414435,0.05646629,0.020768898,0.02044904,-0.07236143,0.048944328,0.00608461,0.03129014,0.012837261,0.014709526,0.044643413,-0.03910854,-0.07556156,0.07057431,0.07446371,0.010064622,-0.022808127,0.060006283,0.048955213,-0.031535346,-0.06956395,0.060595397,-0.047655694,0.0135335615,-0.00034949183,0.02222378,-0.0112531185,-0.028082544,0.07589315,-0.012918819,-0.014409641,0.047649294,0.009452953,0.013307205,0.065148816,-0.07374165,0.013734951,0.049256187,0.014129362,-0.06654669,-0.036559045,0.062400993,-0.031514555,0.028291203,-0.01746847,0.07222711,0.06259299,-0.00790948,-0.004620796,-0.033585187,-0.062552355,0.068120174,-0.037565686,-0.051357403,0.040121626,-0.01834905,-0.045019034,-0.041175835,0.05030634,-0.041505203,0.055311166,-0.045154784,-0.032650325,-0.003785886,0.06988717,-0.04541019,-0.033485826,0.004635667,-0.011340015,-0.026890969,-0.009316548,0.07225537,-0.06851044,-0.041836236,0.03644317,-0.07248551,-0.03349473,-0.04636666,0.058131527,-0.012137924,-0.000988096,0.07535392,-0.0032956917,-0.0017568434,-0.009008877,0.056915764,-0.018701063,0.0152655365,0.025622543,0.022619566,-0.009327872,-0.038822804,0.035930365,-0.038601797,0.021690208,-0.016746996,0.024160646,0.059792932,0.007545576,-0.042543553,0.06227881,0.020531766,-0.06548381,-0.008437885,-0.052335635,-0.030167429,-0.0006274062,0.023103073,-0.029625556,0.0011987456,0.050335687,-0.0688599,0.040781785,0.05622669,0.033363353,0.020044902,-0.010740939,0.050039258,-0.06384389,0.045284215,-0.048964802,-0.032569334,-0.030218981,-0.041132726,-0.06102731,0.049235284,-0.00024956174,0.04420718,0.02897723,-0.0110537335,0.041059464,-0.0026594943,-0.07214905,0.03489387,0.008258515,0.06569082,-0.011607231,0.0499615,-0.052568816,0.06689552,-0.029699368,-0.0038334115,-0.07086378,-0.02075032,0.015775139,0.04001846,-0.041614495,0.049929168,-0.019858047,-0.061061688,0.07258213,-0.032596704,0.051345255,-0.0151471365,0.07876296,-0.02655531,-0.07070345,0.051555894,-0.03150559,0.049742583,-0.027300281,0.040128786,-0.07206673,-0.0036839694,-0.03449017,-0.04317563,0.024883997,0.03844334,0.0716173,0.0669367,0.02103383,-0.0042666434,-0.055778213,0.0084008565,-0.015260723,-0.051865038,-0.07490951,0.008887602,-0.06402474,-0.07480201,0.040033866,-0.05928319,-0.06088329,0.0148753505,-0.06715783,0.060835853,-0.065312974,-0.012483291,-0.050022177,0.03965577,0.018315712,0.06798803,0.008106438,-0.05030247,0.06278439,0.021068225,-0.04598216,0.060017135,-0.014929,0.04639013,0.052673914,0.0052364003,-0.06630853,0.012682735,0.021216663,0.05910416,-0.06442657,0.07318107,0.033225194,0.023912914,0.002160216,-0.07105764,-0.0061948504,-0.04388132,-0.04400079,-0.078024015,-0.039521392,-0.0062717837,0.006586686,-0.01761908,-0.050732546,0.04254755,-0.026753232,0.035195436,-0.014503937,-0.061854176,-0.028284071,0.062231224,-0.052385397,-0.015938763,-0.0022065074,-0.038836084,-0.06233533,-0.030302765,0.074172914,-0.054246724,0.06640139,-0.013995076,-0.023620874,0.05731441,-0.011881293,-0.06854978,0.020888645,0.035113435,0.07568005,-0.017528113,0.035498034,-0.071168505,0.018846057,-0.0049068183,-0.01538833,-0.054960538,-0.06469146,-0.07584552,0.03632046,0.013721508,-0.0024916872,0.035129342,0.052057255,-0.030447496,0.010359272,0.0143048,-0.052165836,0.015821835,-0.065261394,-0.04486955,-0.016002998,0.060612187,-0.02290383,-0.023349235,-0.07255102,0.046146892,-0.07697736,0.045002278,0.03393185,0.044366587,-0.06526054,0.041311976,0.039749473,0.019990064,0.06493498,-0.0036620058,0.056575418,-0.025700437,0.023521416,-0.031731673,0.00795687,0.06682549,0.021461405,0.03310667,0.01142745,0.009220521,0.05677801,0.016308751,-0.055445783,-0.06635498,-0.059281725,-0.001015613,0.046711195,-0.05130345,0.058603905,-0.07880233,-0.028710986,0.033147156,0.032399565,0.06638079,-0.054917213,0.05312715,-0.056512125,-0.057819705,0.052652862,-0.041684765,-0.031084646,-0.030095553,-0.06626418,0.005762709,0.008523603,0.03617929,-0.041623056,0.07592849,0.012870497,0.03610841,0.04184077,0.078681536,-0.041446425,0.019074045,-0.07018993,-0.021047376,-0.053134084,-0.012434905,-0.07045016,-0.004430271,-0.053814754,0.04823433,-0.025819091,0.03141439,-0.031597853,-0.0400761,0.0270634,-0.043574248,0.05746055,-0.059871115,0.039582998,0.061802097,0.05898745,-0.009352983,0.004326433,-0.01756438,0.07576219,0.05143512,-0.059862338,0.028767522,-0.020598698,0.04074087,0.060638003,0.025316657,0.06974225,0.010439105,0.023245439,0.041160014,0.025553826,0.07257804,-0.051574647,-0.020609548,-0.017600318,0.030280568,-0.026444891,0.0017976365,-0.076638184,0.028034637,0.069581635,0.019176532,-0.06436087,-0.061289277,-0.037888892,-0.04135879,-0.054575693,-0.016136099,0.059366323,0.010179447,0.068645105,-0.06220733,0.0014511829,0.00087021885,0.07424446,0.06627212,0.027488276,0.045579053,-0.010668545,-0.043531276,-0.048123855,0.044940557,-0.07367997,0.058482032,-0.041307617,0.07122273,0.0314672,0.054791324,0.03445659,0.016381593,-0.0009901648,0.052735254,-0.059750333,-0.042520948,-0.065117694,-0.06410637,-0.038903225,0.014239534,0.061682552,0.053094234,-0.026901428,0.0051264875,0.0119025335,0.037692018,0.019681834,-0.024987714,-0.066871576,0.05041435,-0.072097905,-0.0360311,-0.009117156,0.07152764,-0.03405761,-0.03778042,-0.020634366,-0.073112674,-0.057631455,-0.0068619535,-0.031669114,0.006966788,-0.0010659184,-0.019878302,-0.020019922,0.0003243013,-0.006682583,-0.026259394,-0.08121387,0.0058383965,-0.007031638,-0.046258587,-0.02591165,-0.00036252246,-0.044524387,0.057076745,0.029027862,0.012614817,0.027018545,-0.0132084945,0.03437805,0.07793152
-0.03413388,-0.064258136,-0.03680127,-0.05116369,0.008606635,0.0049429005,0.008779369,-0.00879698,0.047600444,-0.044713654,0.06421586,-0.05909451,0.04134075,-0.0063804225,0.017188642,0.06813402,0.012681738,-0.070846565,0.030427337,0.060484327,0.01876731,0.03153493,0.05951278,-0.055777855,-0.0067886133,0.016650135,-0.024292454,-0.011515742,0.048833743,-0.025581686,0.012391831,-0.063031,-0.066993445,0.027994452,0.0614768,-0.06913702,0.07021868,0.07708292,-0.043915138,-0.035084426,0.06859402,0.029753901,0.055768993,-0.023356976,-0.07022354,-0.028882235,-0.010473837,0.018153958,0.07431399,-0.018308343,-0.048877344,0.05058576,0.010657917,-0.057447482,-0.069445185,-0.025891634,-0.061691266,-0.043045558,-0.07249155,-0.038570702,0.039759953,0.03347437,-0.035064418,0.06860957,-0.06313421,-0.021104818,0.04999539,-0.06801738,0.020986503,-0.076495774,0.075088225,-0.021434182,-0.056585684,0.07508787,-0.0022434676,-0.074524336,-0.024150737,0.045224216,-0.027038386,0.025320085,0.068260804,-0.031119553,-0.03493857,0.058562335,-0.03078511,0.00032662877,0.04294453,0.0008684891,0.06824221,-0.028103136,-0.03923596,-0.0360693,0.010831633,0.06580437,0.010391477,-0.07462119,0.036364548,-0.045227043,-0.042269245,0.034279026,0.025191255,0.01884291,0.04663603,0.03092021,-0.052292228,-0.0575208,0.05317988,0.03460291,0.023640363,0.060897812,0.02656633,0.03552331,-0.013800587,-0.015687922,0.03189675,-0.0024267004,-0.01891376,-0.0024052626,0.055908192,0.0682442,0.06646441,-0.049213175,0.028463403,-0.030537155,0.0363035,0.029846782,0.025587363,0.013331045,0.00910437,-0.08192004,0.008632649,0.049512062,0.0006728318,-0.0588338,-0.071874455,0.008691618,0.0046948134,0.06879192,0.016395373,-0.005076898,-0.050941736,-0.07128006,0.011810052,0.040032614,0.027525965,0.00033311464,-0.021855023,0.03631712,0.06481586,0.014085174,0.011920269,0.015080525,0.07836058,-0.061580192,0.059559584,0.06088199,0.016777724,0.050808955,-0.04960704,-0.021918504,-0.051829904,0.04341045,0.052602682,-0.08103007,-0.06741215,-0.054981552,-0.022473706,0.017724492,-0.027061256,0.0119436905,-0.031540565,0.027932396,0.074745536,0.018230123,-0.07682396,-0.04245712,-0.06589135,0.062174365,-0.060425602,0.040344305,0.056904767,-0.023076892,0.04594225,-0.039134305,0.011048829,0.049621254,0.072917774,-0.025318101,-0.021130057,-0.030600613,0.05180111,0.05658444,0.06186209,-0.04849986,0.028724484,-0.03975187,0.035669167,-0.032878213,-0.034059875,0.0057538603,-0.03319927,-0.025639039,-0.046342988,0.078462906,0.029136995,-0.0694059,-0.050646614,0.019812986,-0.012683034,0.029828878,-0.047129095,0.008503537,0.057096086,-0.02772113,0.031748116,-0.03286723,-0.029414346,-0.021684838,0.05200523,-0.014466926,0.059926588,-0.051475793,-0.018080968,-0.048717193,0.0078311805,-0.019181898,-0.066545986,-0.07236318,0.009625965,0.023868354,0.03539536,-0.01221702,-0.013470433,0.018763384,-0.003509816,-0.01989986,0.08141268,0.07304629,0.031475116,-0.036206726,0.0415671,0.023475802,-0.07239606,0.06296655,-0.048194233,0.04875635,0.03605472,-0.05084092,0.06058942,-0.033849534,0.0034026182,0.05153166,0.03772819,-0.033797234,0.034246765,-0.06969336,0.026468622,-0.042346586,-0.018071555,-0.06370228,0.050903905,0.065513134,0.08107322,0.035828404,-0.04552073,0.014800542,-0.06328763,0.05044954,0.057586234,0.057615377,-0.06606942,-0.01285055,-0.07245492,-0.04833939,0.047301006,-0.081304595,-0.038032126,-0.0030566093,-0.011828858,-0.030798426,0.011322469,-0.033145837,-0.072454624,-0.00926128,-0.074158765,-0.024024624,-0.06367442,-0.057939153,0.019015163,0.005741687,-0.04602092,0.0084384885,0.018836198,0.00094088144,0.0468511,-0.027575588,0.0034064674,-0.06720168,0.025098693,-0.06876018,-0.0410212,-0.038861595,-0.0301971,-0.032875497,0.0027448751,0.0060822,-0.030357806,0.06897437,0.0004363085,-0.029823672,0.058165498,0.04409337,0.057968218,0.044280294,-0.06310784,-0.031847764,-0.029629443,0.065699115,0.05433127,-0.062103137,-0.013869063,0.058720548,0.0046154433,0.0626804,0.04822519,0.006080912,-0.014788533,0.012643217,0.05510336,0.0023706357,-0.042480625,-0.0516257,0.06411371,0.062086552,0.016759608,0.06746351,-0.030271249,0.029936245,0.012580573,0.0036169032,0.0344687,-0.075352825,0.060620353,-0.00025978094,-0.014839132,0.038777914,-0.022671927,0.04631428,0.046336792,-0.009736405,-0.013821455,0.069225885,-0.0036665269,0.030862052,-0.009805837,0.013818823,-0.061635606,-0.04001856,0.028849198,-0.050753713,-0.042305417,-0.05155153,-0.07194411,0.040650483,0.0042214165,0.025408667,-0.068512835,-0.04464404,-0.012475474,0.071948685,0.044458743,-0.035878383,0.0045649335,0.035041507,0.034396768,-0.066431046,-0.021135284,0.021177242,0.02921925,-0.06585234,-0.0022082846,-0.07589184,-0.025461074,-0.04119017,0.026409838,0.031861164,0.009406027,-0.052951917,0.039796486,-0.06901148,-0.02122084,0.058358327,0.060563657,-0.04133246,-0.07879855,-0.005907561,0.05617181,-0.01148059,-0.07382293,-0.08020116,-0.022374272,-0.04693855,-0.046366833,0.0074446485,0.01984352,0.017295552,-0.070651114,-0.041133367,0.030852543,-0.012781471,-0.004549261,0.06611834,-0.028714139,0.029178264,-0.058308423,-0.06891221,0.014954753,-0.016971212,-0.060988635,0.01102323,0.01390507,0.014418574,0.06410249,-0.04185997,-0.064504616,0.027869558,-0.065240934,-0.036671992,0.00085376756,0.06036781,0.039102163,0.003899849,-0.010653756,0.068469234,0.04383262,0.03181026,-0.01009825,0.012822186,0.03221734,0.000827387,-0.030806446,0.070558615,0.05814978,0.03185389,-0.015494115,0.053892076,0.06801673,-0.027328825,-0.06366479,-0.053762395,-0.06920888,0.07272268,0.07206839,-0.0067061437,0.06645087,-0.031859875,-0.023999657,0.059444178,-0.04607704,-0.07103749,-0.05715445,-0.06014067,0.05543649,0.061876565,-0.02670696,0.04017524,0.049147345,-0.06281312,-0.057593428,-0.06566491,0.03568841,0.034415346,0.06146639,-0.06952439,-0.034847487,0.005666803,0.0696007,-0.0077897618,-0.038272522,-0.03238188,0.06594762,0.0077972696,-0.0007875461,-0.010598317,-0.06446925,-0.0176284,0.007124675,0.05761846,-0.066965714,-0.042842522,-0.050779272,-0.04929091,-0.033815913,0.06463254,0.052042905,0.052771773,0.029927997,-0.025586432,0.02069915,-0.0061650644,-0.028966822,-0.042625014,-0.07165477,-0.0022949486,0.06944484,0.048887845,0.004599374,0.07858857,-0.010028827,0.055689737,0.06437414,-0.04566283
0.040401116,-0.031607494,0.04955242,-0.18239306,-0.06792892,-0.029532075,-0.10247374,-0.19530612,0.15368967,-0.02434941,0.018313836,0.34809208,0.0384845,-0.24591754,0.113135144,-0.11880679,0.02588778,-0.02536409,-0.36659944,-0.21348469,-0.009457654,0.07303924,0.002752471,-0.035524335,0.07390384,0.0022886344,0.040307406,0.18816116,-0.09710054,-0.023865834,0.009813947,0.0027792058,-0.10352747,-0.009126311,0.004242171,0.07366046,-0.0077306046,0.05768654,-0.16398847,-0.13005573,0.24715538,-0.075460635,0.087700374,-0.025624601,0.17797239,0.022630772,0.12848954,0.033928152,-0.18370101,-0.043253332,-0.035553824,-0.08695266,-0.105288185,0.03834213,0.034336608,0.042453803,0.0055656997,-0.078950964,-0.048880145,0.0021749134,0.08338982,-0.21527882,-0.119671226,-0.0175653,0.0045115044,-0.05558694,-0.12685585,0.20683236,0.05569923,0.29330903,-0.020087289,-0.00569258,0.037847534,-0.19754577,-0.16887763,-0.053517703,0.18164684,0.06419632,-0.01462422,-0.13234651,-0.17368999,-0.070466556,-0.022129454,0.04152139,9.086271e-05,-0.24261935,0.115604624,0.0748225,0.2079082,0.03858449,-0.20370966,-0.11802299,-0.05742528,0.23362526,0.11017845,-0.16781944,0.17292334,-0.05605557,0.030517152,0.12234678,-0.062444247,0.10107283,0.15659945,0.07825503,0.00910491,-0.25049078,0.014051847,-0.009935651,0.057846416,-0.10308771,-0.08529702,-0.12660697,-0.18487051,-0.093026645,-0.060520634,-0.19069564,-0.09629301,-0.06538272,0.0031803055,-0.004173311,-0.09721286,0.14530846,0.13829012,-0.008908072,-0.031211864,0.14317241,-0.009121283,0.10195234,-0.08754151,0.06405805,-0.009734868,0.03458824,0.167219,0.041957423,0.018415825,-0.12026294,0.017614527,-0.08855015,0.1642816,-0.028662363,-0.034100592,0.08359308,-0.21133439,0.2771091,0.106849454,0.039869696,0.028707769,0.15674819,-0.07266965,0.15121199,-0.19048095,0.04777395,0.061066996,0.13155858,-0.28740984,0.02711474,0.04292665,0.056332182,-0.012515413,-0.13199155,-0.06993399,-0.07132945,0.11628703,-0.041225687,0.11757919,0.12294074,0.21314713,-0.054389913,0.0015954475,-0.042900674,-0.024109509,-0.22201079,0.08420063,0.1511846,-0.07578953,-0.03698006,0.19536641,-0.012163832,-0.027885165,-0.00149997,-0.062449005,0.034638163,-0.07824269,-0.028363504,0.17834133,-0.010868068,-0.13434519,-0.05369844,-0.2749076,0.07856692,-0.107012205,-0.07278651,-0.19955559,-0.12771088,0.18243936,0.05422438,0.1431543,-0.10842042,-0.06547203,0.028693961,0.042467948,0.074223,0.05591571,0.0644166,-0.010661127,-0.019919753,0.21045609,-0.060255066,-0.11847066,0.009617594,0.2012932,0.020798571,-0.29299137,0.044631973,0.13079026,-0.23697479,0.21988931,0.05858169,-0.05704632,0.10160011,-0.064016715,-0.11365408,-0.0026137384,0.04656278,0.016897414,-0.058801617,-0.012494867,0.0018526015,-0.07738351,0.06403201,-0.019499851,-0.01564657,-0.01011497,-0.0121623175,-0.031095047,0.0071858983,-0.0052752686,0.09231887,0.09672126,-0.108658545,0.047624674,0.06601078,-0.03106919,-0.14720711,-0.042524625,-0.08965881,-0.008677109,-0.01740629,0.11104429,-0.28486073,0.23510703,-0.05665238,-0.033737957,0.025568755,0.12055429,-0.10202327,0.17453246,0.10410168,-0.5849564,0.0970925,0.2520322,-0.005023346,0.059959304,0.10495003,0.069801114,0.13642158,0.04040703,0.1669581,0.15031856,0.010468677,0.0064108944,0.03146171,-0.40882444,-0.0014391174,0.002010771,0.19636753,-0.07957291,-0.029731324,0.016223507,0.26163107,-0.0617552,0.023506114,-0.0024428489,0.08157103,-0.35173133,-0.041298725,-0.07308973,-0.075676635,-0.05571851,0.1015303,-0.090802915,-0.045154374,0.040209852,-0.072534606,0.06822428,-0.17277287,0.05853242,0.33863488,-0.112944774,0.11298662,-0.12703751,-0.0783935,0.008738957,-0.034664348,-0.08420341,0.28785872,-0.044218335,0.20937625,0.16272633,-0.0695092,-0.21015866,-0.04362354,-0.13351713,-0.020630915,0.019691816,0.13702528,0.038445383,-0.032837182,0.14054985,-0.10018368,-0.046649627,-0.18270846,0.012613313,-0.0030937344,-0.11181167,-0.03655883,-0.12096019,-0.091920726,0.12703316,0.13283452,-0.050192818,0.03581884,-0.1968105,-0.12461773,-0.09113573,0.034308333,0.14808981,0.026286777,-0.029628074,0.024708088,-0.13294022,0.014432461,-0.02651211,-0.10004738,0.039857037,0.1264628,0.006772941,0.11053045,0.016534196,0.120742016,0.056572784,-0.23962097,0.10520491,0.012478519,0.13019113,-0.058679562,0.21511558,-0.2201644,-0.04542787,0.10771262,-0.2690563,0.032017432,0.023532715,-0.0036043525,0.20193197,0.22702533,0.033518977,-0.09593665,-0.14113198,-0.06715418,0.13697407,0.08105646,-0.10409155,0.105928525,-0.10859499,0.22611797,0.017107816,-0.056506436,-0.15478496,0.049499843,-0.0882241,0.066983506,0.1234293,0.06665419,-0.19826332,-0.1033969,-0.031746,0.04580854,0.022550693,-0.02654986,0.28999677,0.1395545,-0.10356987,0.087678045,0.03132166,0.07244285,0.26419201,0.004391986,-0.04616197,-0.03241475,-0.11612687,-0.14839359,-0.12056416,-0.09762766,-0.08334707,0.055882834,0.06843295,-0.034543153,-0.056862533,-0.28901494,0.0040892996,0.015841216,0.15138805,-0.07524282,0.057060596,-0.09002897,-0.02766409,-0.15191723,-0.051936932,0.32415405,-0.1437249,-0.24547052,-0.0033629292,0.068918236,-0.05245713,0.10314817,-0.22683898,-0.32929832,-0.028166667,0.033874903,-0.08510878,-0.3070013,-0.33236355,-0.4057677,-0.15117355,0.06977266,-0.17437841,0.08336135,-0.16770759,0.23763163,-0.24406543,-0.0062917685,-0.051084917,0.20300373,0.13535725,-0.102719724,-0.097612895,0.014808212,-0.10482186,-0.32853127,0.11495883,-0.035862073,0.1695518,0.19184166,0.028675895,-0.062276646,0.013593301,0.100046925,0.1679798,0.21892264,0.18111542,0.047203157,-0.13640578,0.032727562,0.0017290417,-0.1671852,-0.12064965,-0.08142152,0.0038952504,0.25645956,-0.22987734,-0.32191464,-0.19864263,-0.02835351,0.16839495,-0.2205274,0.1973019,-0.117793866,-0.0064356155,0.0960138,0.03153562,0.22975361,0.022234019,-0.22033302,-0.019323956,-0.053396843,0.04670773,-0.06484503,-0.24469422,-0.013680003,-0.0720033,0.124420196,-0.028823536,-0.02506891,0.18023132,0.07749455,0.06409721,0.13128488,0.07446986,0.042548295,-0.022846611,0.19794856,0.10613621,0.30651888,-0.04697132,0.014888222,-0.10029117,-0.14521657,0.047735944,0.10408317,0.1331037,-0.13970305
-0.0036682175,-0.06741401,-0.0649893,-0.054279536,0.024811745,0.067446716,-0.05892116,0.033456214,-0.0055385414,-0.04626318,-0.046029877,0.06913907,0.0006753129,-0.050402027,0.029277436,-0.007710268,0.04114285,-0.07223736,0.07095686,-0.015318256,0.0020282622,0.039917976,-0.0006604017,0.024678571,0.04707659,0.02369334,0.010927591,0.059231658,0.054311518,-0.0073721516,-0.0702294,0.07324168,-0.028404154,0.00018315355,-0.043133896,0.06766474,0.038794488,0.012081603,0.0031918283,-0.027421337,0.017834095,0.02023977,-0.07558693,-0.014430224,-0.007689348,-0.0489303,0.04045229,-0.029911427,-0.0044620484,-0.067007355,-0.007177029,-0.023423048,0.0050433907,0.057147693,-0.010308074,-0.032197777,0.0045914687,-0.05600208,0.00731434,0.022675268,0.069521844,0.005797033,0.00064632454,-0.020828135,-0.046379235,-0.078459516,-0.05718434,0.061432343,0.04547264,-0.022456333,0.06890408,-0.053159453,0.011080043,-0.02145476,-0.035035286,-0.011987048,-0.030417964,-0.00084828795,0.020346172,0.024175206,0.009293586,0.05095133,0.026362002,-0.019393021,0.0547385,0.014854354,-0.04804775,-0.006126958,0.07238056,-0.002228498,0.028704224,-0.05110787,-0.009257089,-0.023365375,0.014151937,0.005150169,0.016529704,-0.07187675,-0.05038532,-0.040292174,-0.03843613,-0.0112570245,-0.021284098,0.017271753,0.044999223,-0.01340045,-0.032165166,-0.05011487,-0.08160667,-0.056515012,0.034930207,-0.010165572,-0.037451595,0.028145757,-0.021680458,0.06411985,-0.034880295,-0.011596509,-0.025099829,-0.061050158,-0.036357466,0.03892419,-0.05247765,-0.03259318,0.06265191,-0.031614468,0.015017339,0.017857332,0.067920454,-0.072047494,0.012624828,-0.012410771,-0.0097066015,0.037084028,-0.04381238,0.035182316,-0.031169727,0.03753425,-0.06307513,0.041023556,-0.026066482,0.06861969,-0.022647602,-0.04977718,0.04880265,0.052790325,-0.02799851,-0.049749743,0.024100544,-0.015206247,0.05485758,0.052944038,0.048469804,0.04084108,-0.0030971316,-0.022035927,0.06617516,-0.07828472,0.048284538,0.011966918,0.0063026785,-0.0025978312,0.056821994,0.031846073,0.022701513,-0.056195736,-0.00707511,0.059563987,-0.016727377,-0.053732675,0.009514102,-0.03046031,-0.050673865,-0.028803114,-0.07321662,0.012628827,0.021036167,0.048918102,0.06510816,0.018640585,0.051236074,-0.044387717,0.040823117,0.02584689,0.020538013,-0.02234029,-0.06565742,-0.074414305,-0.03127604,-0.0136416,-0.0004641466,0.04381464,0.059568018,0.0030965449,-0.044974376,-0.02633978,0.011622909,-0.033147696,0.053749725,-0.047193713,0.059454568,0.042880666,0.031689826,-0.06111167,-0.00971321,-0.006200969,0.031843174,0.015574068,0.03876501,0.046798054,0.06218552,-0.04354038,-0.043729715,0.06917346,0.054843623,0.013480418,0.038688518,-0.06573293,0.06891173,-0.07203241,0.047760602,-0.030186217,0.06261599,-0.005443557,0.064740084,0.07319033,0.070810325,0.054770775,-0.009780542,0.063082345,-0.040647,-0.016482655,-0.055257306,0.022412281,-0.039262827,-0.006739835,-0.06233737,0.06768909,0.011691863,0.030051718,0.06124834,0.07063353,-0.052394565,-0.074379064,-0.03321246,0.0104125785,-0.017126892,-0.054730993,-0.015531991,0.03209511,-0.012132758,-0.049264785,0.010235572,0.011851335,-0.015166338,-0.04903546,0.023895757,0.06713254,0.058904506,0.004251881,0.010962985,-0.033085708,-0.0047734934,0.025079671,-0.039438028,0.027188137,0.012366887,-0.06621932,0.049610637,-0.02846444,-0.06711819,0.072359405,0.046230022,-0.051718336,0.01065808,0.01174205,-0.066446,0.04797418,0.0015070706,-0.038039595,-0.034578007,-0.07285616,0.04318457,-0.074215285,-0.029679038,-0.0052755317,-0.038422473,0.032812383,0.020747337,-0.030509837,-0.027093416,0.054069776,0.07320935,0.04426366,-0.003423952,0.05122639,0.046382736,-0.07717264,-0.004199022,-0.05051971,-0.011747244,-0.052978262,0.06356978,0.027497692,0.038611438,0.018965019,0.0622311,0.052785892,-0.034455366,-0.07263672,-0.015343589,-0.011047676,-0.07254641,-0.027148833,0.02208684,0.024751136,-0.029275505,-0.049400665,0.027361711,-0.08001946,0.025188178,0.07375552,0.055801965,-0.010397723,-0.049621664,-0.057273712,-0.018479351,0.04456557,0.014690944,-0.045655046,-0.057316497,0.06969749,-0.071551114,-0.0195683,-0.03834954,0.01449786,-0.06859576,-0.030590624,-0.021862727,0.07814799,-0.069640145,0.041376665,0.006406851,0.029391686,0.041027818,0.042396054,0.06403794,-0.050609957,-0.034507256,-0.08007653,0.014632684,0.023840507,0.035924792,-0.08097616,-0.046204753,0.041764542,-0.053006478,-0.07253013,-0.06752656,0.041127283,-0.022963969,0.05220668,-0.07472245,0.006213326,-0.014425767,-0.06360153,-0.019840345,-0.059215546,-0.030739354,-0.06296484,0.07968841,0.014029867,-0.017825905,0.06983922,0.033744894,0.035168484,0.021354971,-0.048246652,0.015230631,-0.005682994,-0.05687853,0.059471928,-0.028645601,-0.08059801,0.0040380065,0.04036121,0.060641665,0.060618915,-0.060027152,0.047010414,0.0487823,0.05636276,-0.06925536,0.058897395,0.030529743,0.06780986,-0.018733365,-0.010313549,0.04634142,-0.055532236,-0.0153619,-0.018105404,0.034497954,0.07025227,0.053977862,0.027045041,0.035398133,-0.058332827,-0.049940117,-0.040863547,-0.031098094,0.04520862,0.0031151415,-0.05774589,-0.0490983,-0.07991226,0.012215585,-0.06697688,0.00488805,-0.071844004,-0.0008164914,0.0014582071,-0.0040775514,0.04878081,0.034960985,-0.07126158,0.04758099,0.015676165,0.056284033,0.012252296,0.060056407,-0.06620311,-0.03329981,-0.05209612,-0.034193248,-0.03981023,0.045280036,0.045115337,0.017813934,0.06099298,-0.003348402,-0.019224789,0.06472165,-0.07368619,0.036935125,0.01588588,0.05513808,-0.059381202,-0.014383305,-0.020719051,0.016948745,0.05330469,0.045883637,0.021507535,0.0030638867,0.029243844,0.06314201,0.0523667,-0.06918272,0.0010962337,-0.044973113,0.008176983,0.031636786,0.005706519,-0.03252643,0.039180845,0.0044818297,-0.029131776,0.064517185,-0.028940497,-0.02311349,0.03140613,0.016241059,0.03040383,0.009605601,0.041405775,0.024880722,0.030696778,-0.058930077,0.06812177,0.046183925,-0.07988234,-0.042763196,-0.03686924,0.050702836,-0.07330738,0.021059608,-0.02944302,-0.053003933,-0.05983096,-0.012195513,-0.078274645,0.034073103,-0.076423526,0.057065453,-0.013553076,-0.025341298,0.0009962171,0.008448866,0.036380127,0.008077604,-0.05828238,-0.046886075,-0.01728999,-0.06872811,0.060839612,0.0329627,-0.0063091037,0.0043841526,0.07741906,-0.074181125,-0.03357558
0.047979087,0.062934354,0.03658915,-0.06926573,0.02457193,0.06441731,0.045492224,0.06852349,-0.053937655,-0.07307924,-0.05876825,-0.07062757,-0.048371743,0.025802169,0.037319385,-0.07679846,0.0060886815,0.002144533,-0.07845684,-0.0061539263,0.074607976,0.053008966,-0.055960402,-0.0011467043,-0.014101011,-0.04338898,-0.06703303,-0.024923127,0.071569204,0.014847307,-0.01909493,0.021451036,-0.021627862,-0.028994787,-0.040883813,0.047804087,-0.059803817,-0.071595445,-0.011741359,0.054752156,0.027771577,0.00018808246,-0.021292282,0.045495432,0.008597593,-0.02664731,-0.075982064,0.03692026,-0.011912018,0.022235593,0.067004584,0.036033325,0.017459588,-0.0075827376,0.00068111264,0.019834517,-0.05146388,-0.008647833,0.038796436,-0.03129589,-0.0074286764,-0.04822121,0.046257865,-0.022265624,-0.03909752,0.064562574,0.0472948,-0.01282762,0.011943542,-0.008114931,0.069746815,-0.024466844,0.060054235,-0.056102455,-0.023324972,-0.0676698,0.0310441,-0.03179563,0.08059614,0.030636253,-0.0702221,0.052710198,-0.0003750178,-0.055636175,-0.010686024,0.029206986,-0.038265284,0.043232568,-0.050428346,-0.028414521,-0.061848473,0.050324902,0.019354543,0.07371829,-0.07908647,-0.0508926,-0.03727354,0.017764812,0.0002786383,-0.0007726644,0.059726726,0.016165653,-0.018445015,0.05155499,-0.013740257,0.054116853,0.018568663,0.037019756,-0.054238122,0.0032036034,0.04461389,0.036553785,0.054576654,-0.051146258,-0.06787641,-0.036459543,0.034900434,-0.02758873,-0.046676986,0.055742443,0.01074941,0.047578797,0.039950535,0.05982104,0.057868797,0.014382502,0.0603453,-0.010743899,0.039631724,0.026008997,0.06860224,0.0575509,-0.03534304,0.029222539,0.06744978,-0.012587992,0.06508287,0.0423753,-0.0291994,-0.065178126,0.0103101265,-0.016170345,-0.064438716,-0.00078338635,-0.03467551,-0.010076503,-0.03626012,0.05368258,0.07291751,-0.07185005,-0.024036411,-0.00453786,0.073392354,-0.04121816,-0.0032418966,0.03644243,-0.014496463,0.08040122,0.016885184,-0.07588744,-0.063875616,0.03105475,-0.0016762556,-0.039929584,0.034440584,-0.035348594,0.039944444,-0.0018126896,-0.03205577,-0.05470813,-0.06644334,-0.043132626,0.048037395,-0.016487697,-0.026126467,-0.035870757,0.06641314,0.044903334,-0.012166552,0.064361595,-0.052212544,-0.049902968,0.067953445,0.04573986,-0.019475147,0.04623016,0.023411533,0.0734962,-0.025660347,0.041489873,-0.036510438,-0.06022313,-0.04697431,0.008863363,0.035136975,0.0029125214,0.008108338,-0.0022512078,-0.0080258865,-0.04153038,-0.03560504,-0.035608497,-0.020880505,0.050042834,0.050837174,-0.030491231,-0.003185645,0.066785805,0.035015382,0.014430942,0.01838623,-0.06416895,0.026311556,-0.050632425,-0.04901609,0.020500978,-0.05941246,0.056365862,0.008776367,-0.06535938,0.038124077,-0.07856539,0.05558666,0.036879092,-0.030028582,0.016861672,-0.004581586,0.004917731,0.02954705,-0.051688097,-0.058203615,-0.014008544,-0.055746805,0.013445927,-0.032689437,0.075804755,-0.044633467,-0.023811614,0.025488803,0.01720778,-0.06091098,-0.038213357,-0.060488693,-0.02668934,-0.030158706,0.058738377,0.020455077,0.058611576,0.006286645,-0.005910436,0.056217458,0.025759295,0.038797095,-0.02048884,0.055094484,-0.0577812,-0.038220372,-0.06282769,-0.05372184,0.034094855,0.01283127,-0.0538078,0.014359987,0.027194211,-0.05852911,-0.042708892,-0.012277234,0.06954769,-0.027774889,-0.04580448,-0.065186396,0.004776498,0.05864667,0.027454346,0.034737088,0.010654397,0.0018166547,-0.07426398,-0.004853992,0.06978032,0.02968324,0.04939056,-0.064277075,0.010380214,-0.025177447,0.060842447,-0.017758135,-0.044098664,0.06401812,-0.025229145,-0.0075752824,-0.042923026,0.034813397,0.022282688,-0.057862047,-0.07421954,-0.010690293,0.026701495,-0.05980211,-0.03711812,0.06950351,0.03570526,0.05234311,0.06569113,0.026136687,-0.041351486,-0.03718216,0.027824966,-0.06636575,-0.042842325,0.017934473,-0.06764789,-0.052883197,0.059886176,0.055518787,-0.006979063,0.05784961,-0.051683728,-0.053697035,-0.042825703,0.03344966,0.06656889,0.019710906,-0.0070239743,-0.070760846,0.04175677,-0.029885814,0.045895096,0.04399413,-0.06865215,0.03499198,0.06271233,0.07485806,0.014113233,0.04208811,0.033406727,-0.046410244,0.036039647,0.025355801,-0.05832356,0.03677526,0.045608707,-0.052955672,0.052985534,-0.07237671,0.05819106,-0.0030763894,-0.050611082,-0.052258056,-0.060017783,0.06844426,0.0044902093,0.048043568,0.06257418,-0.0069102463,-0.0062212176,-0.058322936,-0.0735323,0.07015521,0.044408835,-0.020508075,-0.03168584,0.069913395,-0.07628448,0.074538164,0.03977875,-0.038160384,0.015730655,-0.01642602,0.009301805,0.033798244,0.018068597,-0.044112995,0.026432963,0.014076632,0.042839132,-0.06588237,-0.013839869,-0.034483418,0.056232996,-0.024309503,0.034033522,-0.0021816785,0.04720883,-0.012355645,-0.032111797,0.00915222,0.07080338,0.06316631,0.054567065,-0.007225969,-0.07516374,0.048898898,-0.048207942,0.011143029,0.078108005,0.054470226,-0.050927226,0.01646389,-0.03284316,0.02362849,-0.07732862,-0.072301336,-0.04198492,0.007880264,0.06750908,0.046940595,0.06619449,0.034206193,-0.009528156,-0.06760704,0.028035535,0.04192646,0.008620085,-0.0591925,-0.021784017,0.01258944,0.055646658,0.015950218,0.07015608,-0.055888478,0.0738934,0.060468804,0.06291434,-0.028516378,0.070198834,0.07991839,0.0695282,-0.03535309,-0.045720864,-0.063189,0.025825273,0.039574657,-0.0013951296,0.03366889,-0.01971036,-0.013874137,0.020889025,0.013148104,-0.05669214,-0.045599587,-0.063770615,-0.006276702,-0.066043,0.07130273,-0.053275608,-0.06745885,0.059572835,-0.08302327,-0.01363565,0.05162487,-0.057588786,-0.04268782,-0.07544057,0.052917127,-0.07238967,-0.07075227,-0.0731235,0.031143557,-0.011548005,-0.04456399,-0.04292866,-0.026252974,-0.029505484,0.059476897,-0.0047461214,0.031132422,-0.08142967,0.019574331,0.02663149,-0.007514965,0.010203732,0.06557401,0.07274817,-0.03751587,0.005138326,0.06285349,-0.023267016,-0.037623737,-0.031283244,0.017939618,0.033517722,-0.02899123,-0.06673322,0.007905033,0.02620143,0.025057651,0.033526912,-0.051202133,0.06748152,-0.051581103,0.019960841,-0.0010748066,-0.018420933,-0.0117097525,0.024937999,-0.06537783,-0.0024708943,0.052796558,0.07027734,0.014941307,-0.0047855256,0.040427264,-0.059951797,0.055212833,0.06089056,0.072235316,0.06228964,-0.021424454,-0.04659076,-0.068748534,0.016573856
0.035304595,-0.06615881,0.030502182,-0.06918496,0.027404392,-0.024192603,0.04616522,0.031893007,0.059311353,0.01805384,0.025493937,0.076383315,0.019386241,-0.06733795,-0.054680657,-0.07141387,-0.04493085,-0.025274035,0.027045622,-0.0141896345,0.034455337,0.078743815,-0.04965577,-0.021819144,0.052881584,0.06557779,-0.051414836,-0.007188964,-0.010085158,-0.03505073,0.066449955,0.036883228,0.025286915,0.037681837,0.022433128,0.0025251326,0.04200796,-0.020605957,-0.026735302,0.042114977,0.016607307,0.007883906,0.049205955,-0.014312094,-0.07016363,0.0360085,-0.020295786,0.04510477,0.052890055,-0.0033599872,0.0677,0.07945863,0.067534894,-0.008509211,0.009820751,0.059671372,-0.044692073,-0.0027875127,0.022455713,0.05121059,-0.016214332,-0.04071518,-0.059423372,-0.01201462,0.009003672,-0.010935146,0.06093709,-0.050620317,-0.023361936,-0.029065188,-0.05942339,-0.04768336,0.024951596,0.0012616275,0.004619802,-0.018315189,-0.015409594,0.03458425,0.06458248,-0.057069637,0.0070193554,-0.030660698,-0.024745198,0.03732327,0.06710311,0.008919469,0.029630207,-0.07271777,-0.003777849,-0.0017480947,0.042498436,0.06284411,0.04718157,0.055020995,-0.033313807,-0.058583435,0.039339934,-0.0079132365,-0.013750371,-0.045830365,0.0011578725,0.06282754,0.011956871,-0.06213613,-0.06174184,0.039497446,-0.06740382,-0.0021610474,-0.061731696,0.0046091224,-0.024947273,0.06724792,-0.0028857714,0.06792921,0.00664175,-0.010743488,0.05403787,0.023545314,0.034006853,0.07485021,0.045950156,0.060946077,-0.05394784,-0.030184487,0.025956234,0.055480488,-0.054575812,0.0398277,-0.032248292,0.058525037,0.05872955,-0.08069402,-0.041123115,-0.019418964,0.019715497,0.016405588,-0.037107665,-0.037410542,0.020615185,-0.043252528,0.00987548,-0.061120037,0.010347921,0.072824344,0.0007043934,0.008785811,-0.08246472,0.06444745,-0.018431557,-0.047082115,0.04322337,0.06482292,-0.0066771363,-0.06284822,0.022253744,0.015063073,-0.015507095,-0.059096552,-0.05648358,-0.059459127,-0.07487371,-0.025405101,-0.0035823958,0.007327962,0.06102038,-0.06045797,0.0043409104,-0.0092256665,0.04148645,-0.030231752,0.067680575,0.045068856,0.034544844,-0.05593401,-0.030929286,-0.021316756,0.0425041,0.028445344,0.061881084,0.032854997,0.03798274,0.05018754,0.0037730457,0.045467384,0.05557906,-0.07847359,-0.032966197,-0.048034776,-0.030200567,0.041598327,0.053252295,0.0014115938,-0.04137614,0.07023553,0.038495667,-0.02608835,0.05763692,0.06985303,-0.010743847,0.008177434,-0.0013351217,-0.02063081,-0.0041849813,-0.032546118,0.0186151,0.019049771,0.05542606,-0.024795856,0.06905141,0.041611623,-0.048299845,0.045108914,0.051732283,-0.03595463,-0.03981462,0.021100283,0.058667358,0.06442284,0.0166574,-0.05714699,0.061548494,-0.00050513836,-0.016451236,0.033174194,-0.064074725,0.052848898,-0.057983283,-0.0467411,-0.021392113,-0.003700882,0.026434757,0.04212814,0.045528725,-0.03916789,-0.07817406,-0.04675852,-0.033421256,0.02055917,0.07530981,-0.069720864,-0.0028381518,0.04134876,-0.022983529,-0.021590933,0.0043364535,-0.07087044,-0.028299274,-0.009418027,-0.07735315,0.06868864,-0.0016289924,0.0248931,0.040616937,0.06124583,-0.065316364,-0.061642878,-0.0024541833,0.015026092,0.02769847,0.036215983,-0.04573019,0.02519763,-0.0149321435,-0.06378071,0.050785273,-0.042924304,-0.06888057,-0.02908055,0.022052538,-0.041523665,0.047656555,-0.08229204,0.012594338,0.027293753,0.080602154,-0.011790819,-0.034169033,-0.03969741,-0.037478194,0.04651591,-0.028667884,-0.07275018,-0.009048864,0.02671966,-0.04291482,-0.0141196735,-0.064231336,0.012193941,-0.02508279,-0.036580127,0.0013392811,-0.019124895,-0.04459443,0.069984004,-0.047983643,0.0049979305,0.009043981,0.06247774,-0.07125284,-0.028289717,0.02108768,-0.055546656,-0.04001725,0.057342045,-0.037664156,-0.077318884,-0.06276011,0.06604501,-0.054244272,-0.014669284,-0.011868261,-0.026274115,-0.010663159,0.06448005,0.060073767,-0.040039986,0.074470244,-0.06882622,0.03250744,0.06042725,-0.021319395,-0.020329993,-0.048301067,-0.043930877,-0.06132941,-0.0076707215,-0.057776272,0.016138967,0.072539404,0.055106457,-0.06767926,-0.050655123,-0.03760535,-0.0073625785,0.04165888,0.024644246,-0.009946812,0.04966368,-0.057196215,0.03339292,-0.04710738,0.047341254,0.01550678,0.06700236,0.051672537,0.03642792,-0.045250464,-0.053163506,0.030821374,0.067287825,0.050909135,-0.040077277,0.05572288,0.053432528,-0.035308372,-0.01582333,-0.076769724,0.016224919,-0.007111735,-0.030312877,0.03162268,0.057649504,0.042441584,0.036896206,0.060172066,-0.023187596,0.013799973,-0.060352538,0.021931902,0.016923338,0.029398263,-0.063748345,0.0051932554,-0.06061913,0.08170808,-0.068677686,0.059713982,-0.037649434,-0.05003706,-0.0035859153,-0.07118328,-0.023966808,-0.039065674,0.04280213,0.07537898,0.07718657,0.021521835,-0.06237313,-0.06681059,-0.026203673,-0.004597509,0.06736902,0.017752208,-0.043301217,0.0196649,-0.02905479,0.045267493,0.009371044,0.015208004,0.014763073,0.00727919,-0.057166353,-0.056975983,0.042355977,0.046694145,-0.038840067,0.064045526,-0.0212957,0.0035623505,-0.062571704,-0.034005873,-0.07564718,0.037594404,0.06814284,0.0034784747,0.017354254,0.016595008,0.06838494,0.065947555,0.034102038,0.01584926,-0.022605838,0.020527735,0.07285871,0.071766794,-0.052286606,-0.033699,-0.028651312,-0.06267618,-0.06275841,0.06702023,-0.03585033,0.048579525,0.036324974,-0.065026104,-0.024057714,0.06784116,-0.07206724,0.06611961,0.024352178,-0.048792195,0.054767586,-0.03985656,0.06515998,-0.06409063,0.015227558,-0.037694823,0.0002946733,0.0654494,0.06730301,0.009807815,-0.017522685,0.01742912,-0.045457605,0.022160929,0.052826244,-0.059861258,-0.0023291616,-0.072470255,0.05292601,0.059378874,0.03675466,-0.0127248885,-0.026424004,-0.039981462,-0.038300034,-0.02408861,-0.02630586,-0.053417612,0.002883415,0.06307435,-0.057049938,-0.0063282996,0.039776925,0.007592402,0.019691562,-0.009799554,0.03044112,-0.052181132,-0.027163086,-0.003105223,-0.04592948,-0.061462536,-0.02080926,-0.0031431974,-0.071116626,-0.04558174,0.021522602,-0.07589889,0.0260218,0.031515468,-0.073076874,-0.029568672,0.0016587083,-0.007995278,0.034767438,-0.02676327,-0.057303544,0.0043946784,-0.0066103106,0.07212026,0.037666965,-0.08239234,0.07790896,-0.027178893,-0.031617884,0.038659416,0.010028092,0.03900719,0.008346417,0.05163055,0.027099917
-0.07699117,0.028138475,0.027807562,-0.13976955,0.15581784,-0.02262444,0.0019300448,-0.049535576,-0.15436032,-0.03446206,0.09318966,-0.2446903,0.29783884,-0.19966593,0.10745813,0.004946331,0.024781587,0.16853817,-0.11401563,0.027468234,0.032669697,0.09857359,-0.027777046,0.051404662,-0.07103844,-0.003257471,0.03320865,0.32120144,-0.045328185,-0.059586726,-0.13113245,0.09794829,-0.08779131,-0.08575476,-0.010522691,0.06399076,-0.0035564327,-0.03577879,-0.14710702,-0.29893535,-0.4394336,0.19540127,-0.21914274,0.2833571,-0.135338,-0.23477972,-0.21086828,0.1442744,-0.3180189,0.17138033,0.17301507,-0.17130974,-0.04828755,-0.1924364,-0.067853406,0.23116572,0.03209075,-0.2514169,-0.03428976,0.17735833,0.07108766,-0.001716397,-0.06197597,-0.020412084,0.04497053,0.061295953,0.050177652,-0.24525969,-0.19947636,-0.21462347,0.06724816,0.042493965,-0.064797975,0.23840159,0.13658886,0.16955858,-0.09627273,0.19425163,0.019630598,0.20044817,-0.14562228,-0.11748209,-0.015045008,0.036954656,-0.06271982,0.24717854,-0.08848566,0.012219951,-0.11245302,-0.16197373,-0.07782091,0.01590135,-0.03277986,-0.20164661,0.09019633,-0.026675833,-0.0008831767,-0.053082515,0.098588206,0.04148281,-0.02458955,-0.24075401,-0.19388969,-0.016563507,-0.05322489,0.047967117,-0.07732622,0.03731494,0.0833093,0.104622036,0.16275127,-0.012948277,0.06427359,-0.060495254,-0.16626173,-0.1805521,-0.018101437,-0.034389403,-0.08516562,-0.2304632,-0.04569195,-0.26395306,0.0634635,-0.24398515,-0.17786537,-0.03782325,0.01710588,-0.07490152,0.21700086,0.03115032,-0.10423683,-0.039464984,0.07993888,0.14576541,-0.11156564,-0.3404339,-0.041711394,-0.30837452,0.10196768,-0.119222865,-0.17664921,-0.15658854,-0.14830157,0.10664433,-0.1266083,0.11722915,-0.03710262,-0.17470983,-0.046191975,-0.38310075,-0.13909803,-0.0292059,-0.05969663,0.12224276,-0.4413446,-0.27650788,0.007822042,-0.038854238,-0.033757012,0.15228404,-0.16207823,-0.030714577,0.20614302,0.019543653,-0.13508198,-0.09135759,-0.027200997,0.0919937,0.06800181,-0.07508853,0.065307245,-0.22672383,0.1570569,0.13510628,-0.032052517,-0.0075139725,-0.24286157,-0.24327417,-0.1992965,-0.08183223,-0.22903171,0.010088572,0.061402235,-0.116768084,0.12141856,-0.027651006,0.057011023,0.024457045,-0.26037857,0.10956619,0.070868306,0.09093747,-0.015562745,-0.026692014,-0.08702402,0.068406105,-0.024136364,-0.059237625,0.03164101,-0.45533037,-0.0613354,0.19878724,0.09630833,0.013177455,-0.45916802,0.037870422,0.23569058,-0.06080608,0.26033306,-0.09375391,0.012799686,0.0047585946,0.20334356,-0.15029748,-0.29847047,0.22440715,0.2640201,0.011718107,-0.013215526,-0.112358645,0.059193205,-0.05317934,-0.17100342,-0.1628581,0.0126081975,0.010871957,0.04110965,-0.0076537807,-0.066043384,0.086924784,0.036536515,0.09710507,0.006165987,-0.039124772,-0.073078796,-0.085656226,-0.0679707,-0.05548525,0.003915676,0.24332933,-0.054742802,-0.14754656,-0.1409482,-0.13491224,0.15108298,-0.5071735,0.2777947,-0.072039455,-0.12860887,-0.033223815,-0.3168749,0.13171129,-0.12221506,0.18559921,0.022655953,-0.1130058,0.0109912595,0.07476895,0.17976178,-0.069235295,-0.03908175,-0.022396225,-0.3411436,0.12190028,-0.078425035,0.0026585166,0.013510427,0.15129161,-0.18831624,0.017726205,-0.0607388,0.018881155,0.0011529805,0.005257035,0.07977481,0.09913684,0.23479724,0.009773788,-0.034691963,0.06189014,-0.072617784,-0.28016305,0.059694435,-0.03483285,-0.039785545,-0.08634126,-0.082849786,-0.09423649,0.01049603,0.07399698,0.034664128,0.137916,-0.07915568,-0.013710318,0.016859747,0.04508646,-0.023464672,-0.16103683,0.09744029,-0.12655276,-0.15748015,-0.52988833,0.046679027,-0.08011949,-0.036253985,-0.12072695,-0.07774954,0.05850906,0.24752475,-0.013328811,0.031721875,-0.026897304,0.20492633,-0.08583155,0.03181299,0.021619428,0.04896709,0.08441381,-0.04634445,-0.0044663656,0.058080625,0.11814269,-0.14381069,-0.12647833,-0.11391444,-0.018327672,0.15379013,0.040068094,-0.046051916,0.029698681,-0.06278388,0.12835383,-0.085322134,0.08657172,-0.13302943,0.22876948,-0.43590394,-0.04596773,-0.16887708,-0.04497615,-0.11892592,0.22872236,-0.105707735,-0.14033008,-0.045616023,-0.018910035,-0.05179484,0.16719756,-0.12733448,-0.097996764,-0.033955555,-0.20718811,-0.12565476,0.24296807,0.0067043677,0.017115658,0.08613269,-0.26377797,-0.066529974,0.041321576,-0.15032476,0.2887575,-0.011705899,0.043449495,0.08476477,0.32959834,-0.064374186,-0.12989375,-0.24291342,0.04767154,-0.025985043,-0.042636678,-0.14306603,-0.41789773,0.011153582,0.05294502,0.032685503,0.033976804,0.14820346,0.017270757,0.054859743,-0.0017839628,-0.058818337,0.07530009,-0.40670842,-0.22137089,-0.05806435,0.1521588,0.119371004,-0.043180846,-0.079964995,0.21864487,0.00813583,-0.06611716,0.092595875,0.042020906,-0.17900957,-0.15677251,-0.03348077,-0.07316059,0.0981289,-0.23722373,0.17361304,0.046363503,-0.14660835,-0.1286686,0.19700357,0.09648223,-0.1847253,0.0320932,0.097303845,0.015610313,-0.21034253,-0.16160455,0.002655571,-0.31144464,-0.07124764,0.046495855,-0.055869356,0.06940909,0.110119574,-0.33259392,-0.4802239,0.276972,-0.019043835,-0.1099417,0.010497676,-0.23796874,0.17469671,-0.098747924,-0.053452432,0.019130975,-0.032427676,0.073556505,0.11241901,0.024543764,-0.06814521,0.040167972,-0.29631436,0.09102257,-0.12993683,-0.06968819,-0.1523248,-0.14361145,-0.2320316,-0.22773467,-0.13750683,-0.0908163,-0.076438196,-0.010867092,-0.1378252,-0.22242275,0.023483075,0.19858935,-0.08080892,0.033496175,-0.029864041,-0.097428806,0.23762278,-0.22163564,0.08994877,-0.04979488,0.014275894,0.03826221,-0.0071164514,0.12512259,-0.10720376,0.035768718,-0.23504427,-0.037185855,0.19913055,0.14971574,-0.017060086,0.022183921,0.026930055,-0.33017987,-0.045207478,-0.03762103,-0.015250715,0.103260964,-0.103864536,0.36831388,0.15544459,-0.3003766,0.0010054351,-0.2824662,-0.029726943,-0.025584903,-0.27129242,-0.051728502,0.046356186,-0.07324008,0.079483375,0.0022499638,0.113393255,0.06329157,0.16017503,0.08410596,-0.2618088,0.23779051,-0.08908951,0.06059044,0.029261123,-0.3551603,0.017429044,-0.0080878185,-0.023845121,-0.08539535,0.009664025,-0.108564995,-0.304409,0.3316348
-0.051612712,-0.05009671,0.006675802,0.030705102,0.052440345,-0.062276382,0.07100596,-0.010669768,0.078284964,0.062005512,-0.07069296,0.06539499,-0.010898094,-0.008043267,-0.026691992,0.050799347,0.075860985,0.038033545,0.052527495,0.056403227,-0.06845356,0.025853924,0.0524229,0.05086332,0.033242315,0.01871137,0.019125655,0.008910732,0.018258475,0.04227013,0.047044218,0.055647977,-0.048536435,0.04386655,-0.06155859,-0.038180064,-0.06504504,0.049450453,0.035098635,0.0430324,0.03636133,0.03873267,-0.057765942,-0.059204966,0.065782554,-0.046489265,-0.066487655,0.06453239,-0.04259352,-0.0508463,0.06168023,0.0015161483,-0.011960958,-0.028299795,-0.026815105,-0.009577826,0.05274973,0.0031374693,0.037870623,0.07237921,0.06730635,0.046937503,0.029871307,-0.07594901,-0.049956568,0.044744447,0.05337619,0.009043284,-0.0324527,-0.025642948,0.046774298,0.030697964,-0.06940295,-0.0010189125,0.06784062,-0.036254775,-0.022566846,0.035845317,0.027045093,-0.040264793,0.019375186,-0.07901959,0.015283458,-0.0353534,-0.030267814,0.014243103,0.03801924,0.033345465,0.048586242,-0.014098085,-0.0027832687,-0.02756688,0.027179137,0.066822805,0.05499638,0.02880626,0.08052215,0.0112686455,0.07263684,-0.036707684,-0.03695374,-0.051131036,-0.041101992,0.0015852973,0.0015647922,-0.009017101,0.010298401,0.07146133,-0.06436799,0.043239065,0.05873669,-0.0667542,-0.076524675,0.068288065,-0.07462024,0.009469796,0.021889433,-0.055666074,-0.06922194,0.003664274,0.035404038,-0.032444183,-0.040488023,-0.025476597,-0.0645444,0.0049370965,0.010419741,-0.0039880467,-0.016416658,-0.03456836,-0.02300371,0.05211408,-0.046766102,0.047476046,-0.059272908,-0.03709251,-0.06479118,-0.045798898,0.050297108,-0.06487781,0.0023344392,-0.064126745,0.06639656,-0.06307979,0.027821206,0.013479124,0.075968035,0.049799047,0.03927741,-0.03083028,0.0005717203,0.02519713,-0.023231253,0.06946925,0.053495128,-0.042827472,0.017214907,0.016766172,0.042340502,0.073569156,-0.01616965,-0.024197727,0.051759124,-0.07524589,0.037757553,0.049418665,0.021844361,0.02212281,0.06614534,0.041264527,-0.0330509,-0.0123962285,0.011950308,0.03743332,-0.03646838,0.043687865,0.034870923,0.05571551,-0.035293743,-0.071979284,0.014459848,-0.005724497,0.05401256,-0.03322879,-0.058587525,-0.06198627,0.050745115,-0.06614742,0.043603882,0.05672038,-0.018067896,-0.0059452504,0.007716231,-0.03721901,0.02735157,-0.042669643,-0.03938387,-0.046577066,-0.059035547,-0.031225685,0.06461369,0.04052253,-0.07575401,-0.0054017925,-0.0682389,0.004615344,-0.039555993,-0.0013591945,-0.0009901504,-0.053578746,0.04003571,-0.023734592,-0.035254486,0.016854003,0.07565413,-0.038981657,-0.043550976,-0.034233175,-0.048363097,0.05689556,-0.026932307,-0.047790498,-0.024185516,0.038773857,0.076227926,0.042851232,0.06713603,-0.06892745,-0.04191853,-0.0026891008,-0.06376585,-0.05318885,0.04581099,-0.064546116,0.06634842,-0.036155034,0.059907034,-0.05467864,0.049029876,-0.02703614,-0.028775822,-0.05670844,-0.040929347,-0.018401897,0.06886373,0.01446443,0.024104267,0.027928486,0.031833578,-0.04628705,-0.015559215,0.015671596,-0.067537874,-0.0019202871,-0.047833133,-0.073266484,0.018687136,-0.027901603,0.059180193,0.04861614,0.044115454,-0.07112869,0.03605766,-0.0642077,0.037882436,0.03519591,0.053670317,-0.017828174,-0.05738784,0.039631963,0.007158389,0.047327146,0.06344016,0.019365698,-0.01368014,0.07475806,0.0057976735,-0.017319698,-0.031380065,0.045529265,-0.013204493,0.042279743,-0.047284804,0.049147315,0.014253501,-0.010941072,0.0035328045,0.05742271,-0.041630138,-0.062092565,-0.026942272,-0.0009590611,0.041306112,0.011639991,0.07273645,-0.061218772,0.071254745,-0.0035264716,-0.01505398,0.04859256,0.013145448,0.07219025,-0.045274716,0.056060545,-0.0074173585,-0.030051544,-0.060063288,-0.062263317,-0.026067689,-0.07366479,-0.07544841,-0.0056245774,0.035947394,-0.037493907,0.07006974,-0.049650576,0.053344578,0.013569317,-0.00020506664,-0.012687832,0.036593847,0.030811101,-0.075463325,-0.015253231,0.005490325,-0.014849376,-0.0049458463,-0.049624708,-0.035249654,-0.070880696,0.007950008,-0.062400356,0.04328403,0.00022109607,0.020713266,-0.024914883,0.059136882,0.0574897,-0.025843449,-0.016280655,-0.028157163,-0.0021396445,0.06131012,-0.01669687,-0.031687796,-0.033285547,0.03562042,-0.04951724,0.006846984,-0.04574566,0.010017348,-0.046027865,0.029739596,0.026126685,-0.060902555,0.050400972,0.046744145,-0.0748516,0.017422259,0.0328374,-0.07067531,0.056958683,-0.05339451,0.030686103,-0.044747896,-0.05331388,0.06930766,-0.048401695,-0.017982151,0.030339686,-0.06010841,0.001990229,0.05734642,-0.02692263,-0.06516611,0.009385742,0.05149878,0.032375682,-0.05305614,-0.015684355,0.022666417,-0.009599417,-0.06921419,-0.055656016,0.052754268,-0.027261723,-0.03522781,-0.0632549,0.0735599,0.039426446,0.04688855,0.04874558,0.025779802,0.05726425,-0.02822239,-0.062603645,0.06608466,-0.04509176,0.058674432,0.04854517,0.053598493,-0.06646109,-0.00054366887,0.009930782,0.06634333,0.012353322,0.036146577,-0.05479787,0.053618558,-0.05998381,-0.028155394,-0.020514498,0.019213416,-0.04736413,0.01229582,0.017577916,0.024739936,-0.007437455,-0.011475182,0.032058746,0.02481246,0.073470555,-0.05200777,0.0072107767,-0.06675168,-0.06979618,0.03656918,-0.031529877,-0.07583513,-0.06752952,-0.040861182,0.0371895,0.042177208,-0.02889634,-0.025334854,-0.035894647,-0.02078983,0.047842633,0.017309625,0.06003485,0.042599156,0.0026425049,-0.06595145,-0.005408231,-0.016610315,-0.057741452,-0.06027705,0.054922543,0.026948722,-0.048597425,0.07090745,0.008706875,0.022450635,0.01726536,-0.0076937075,0.029792942,0.013347387,0.07497329,-0.055714756,0.017904356,-0.019949526,-0.04615376,-0.044115074,0.04723215,0.072834514,0.023280807,-0.018507212,0.012435488,-0.03888838,0.069319054,-0.025077127,-0.013540718,-0.0242735,0.022666786,0.009765544,-0.064270295,0.00896124,0.0045460314,-0.017318506,0.033878013,0.07080056,0.06531108,-0.004704684,0.028727733,0.05866743,0.06719292,-0.0068120584,0.0326826,-0.0026960373,0.05788312,-0.033607576,0.0058277026,-0.07069352,-0.07390545,-0.07651431,0.011854783,-0.012916658,0.03218091,-0.021166772,-0.01279892,-0.025290515,0.029885488,0.035533883,0.04516545,-0.029518576,0.05098098,-0.055156875,-0.04789184,-0.04187676,-0.06744622,0.038006045,-0.009335725
-0.025083696,0.016123138,-0.07226628,-0.06672478,0.00089931046,0.076953664,0.022692692,-0.0050336085,-0.056029014,0.044966307,-0.025927968,0.04852686,0.016952503,0.007972792,0.03233036,0.0051951734,-0.05785203,-0.049230378,0.037060205,-0.07564277,0.0064772204,-0.019523526,0.039713938,0.006225702,0.018737039,0.062385842,-0.041374918,0.037873913,-0.029286206,-0.038471468,-0.035185605,0.04217283,-0.02810849,-0.037276354,-0.037084192,-0.019285817,-0.06938273,0.017164754,0.030655578,0.009771369,0.02233628,0.02111324,0.0471151,0.020943701,0.03680065,-0.06744608,-0.006324531,0.022223515,-0.049394645,-0.051662687,0.07171723,-0.0020247833,-0.06866218,-0.021785887,-0.016692469,0.06430984,0.051112834,0.022308992,-0.08064628,-0.054482434,0.017548984,-0.0069243275,-0.02619135,0.008929275,0.065804094,0.0080534415,-0.0012635725,-0.043942068,-0.012943064,0.04582028,-0.03785413,0.037147906,-0.03452465,0.046015456,0.0075089335,-0.043642472,-0.059746735,0.06578733,0.0153139895,0.028321406,-0.054870192,-0.04524746,-0.057149038,0.0811873,-0.03891275,0.0089211,0.033265717,-0.027796414,0.027007215,-0.03721453,-0.022551773,0.0067361942,-0.024939116,-0.0068103075,-0.0819408,0.071151026,-0.053985458,-0.0010735055,-0.050954916,-0.04605626,0.042335324,-0.038410373,-0.06841032,0.010756605,-0.04244545,-0.06766658,-0.010374347,-0.0038760127,0.021514144,0.031502664,-0.07196776,-0.062224813,-0.03538985,-0.008265362,0.080054045,-0.02396756,0.022542495,0.0076304385,-0.0109756375,-0.011825153,0.07542021,0.06850073,-0.019837424,-0.0047666663,-0.058080856,-0.058220573,0.015184124,0.032573137,-0.06285037,0.06724359,0.043168843,0.04522585,0.063053854,-0.038445722,0.020463753,-0.06578958,-0.055154618,0.045212217,-0.009635232,-0.07014531,0.063308656,-0.076176465,0.018989382,-0.013146512,0.03885877,0.0010041194,-0.007222647,-0.04053221,0.031782273,0.035695054,-0.00893235,-0.029851425,-0.069397375,0.009450837,-0.0571165,-0.018073563,0.07287472,0.06733119,-0.06687406,0.015458365,0.06237949,-0.008764654,0.06199931,0.055168092,0.023520563,-0.05740919,0.031384915,-0.04363129,-0.06264892,-0.06528845,0.026724687,0.016975664,-0.062935755,-0.015882023,0.030199777,-0.06827684,0.03640514,0.029508071,0.004616655,-0.046884123,0.021660654,0.031123595,-0.055914063,-0.031020455,-0.057397876,-0.027063169,0.041311268,-0.014906701,0.0358587,-0.077830315,0.048647817,-0.07449975,0.049181856,-0.025064798,-0.047645263,0.013077199,-0.042038213,0.057952933,-0.06265002,-0.04567455,0.051877283,-0.0688593,0.027348552,-0.032703497,-0.046451084,0.058764093,-0.041365713,0.07029284,0.032551683,-0.021482427,0.043395787,0.02129258,0.052708954,0.013081895,-0.08205532,0.0016861061,-0.053690832,0.064866014,-0.06403617,-0.07204078,0.03605494,0.017785577,-0.08181779,0.06742622,-0.036773834,0.04071466,-0.065626204,0.06598093,0.06223193,-0.0180912,-0.0012469217,-0.005684278,0.076249346,0.03914935,-0.050111886,0.010587912,-0.04403541,-0.07048445,0.057749327,-0.053885918,-0.0028897205,0.061690547,-0.001612314,-0.045856263,-0.05269335,-0.067310974,0.01691175,-0.048950262,-0.015186359,-0.003234721,0.0764805,0.06763969,0.04604717,-0.040884193,-0.06123225,-0.03388911,0.00088882743,-0.05924604,0.026432697,0.02628892,0.0035193912,0.0225655,-0.0045662946,-0.041062605,-0.06258023,0.026232043,0.02646578,0.014790707,0.08094978,0.0554364,-0.057816215,-0.062534586,-0.072648115,-0.0470015,-0.05442366,-0.0028811337,-0.07048799,0.020277636,0.06964464,0.06472949,0.060585134,-0.031141007,-0.06926368,0.012758362,0.020408904,0.009535644,0.07038172,0.022325942,0.045307413,-0.032436773,-0.07932527,-0.009562229,-0.0066343024,0.068633206,0.049848557,-0.06954596,0.028518254,0.01092964,0.028203042,-0.028037015,-0.038618505,-0.0044700853,0.044706136,-0.046507616,-0.04443946,0.024629872,0.03723686,0.026704952,-0.041067258,0.05718168,0.019696286,-0.017271347,-0.0462217,-0.022986352,0.006042836,-0.012836198,0.035842046,-0.07886436,-0.03637569,-0.054615967,0.057719298,-0.06136942,-0.012724961,0.06737785,0.0059702587,-0.02991717,-0.03281154,-0.06612244,0.03798137,0.039516985,0.02613686,0.016040787,-0.053892285,0.0025057115,-0.022120181,0.044664934,-0.031570356,-0.019844377,0.006329557,0.05929939,-0.023062741,0.011845475,0.0065150186,0.03950132,-0.029260924,0.04046466,-0.055671446,0.058377776,0.012337421,0.022614785,-0.044329196,-0.078693956,0.050078098,-0.03309569,-0.05178652,0.064319134,0.044765268,-0.058477215,-0.05580583,-0.00553543,-0.06434703,0.07524916,0.025551507,-0.016446589,0.028717857,-0.048730515,-0.045144722,-0.00859501,-0.019873543,-0.027020656,-0.060218167,0.01878904,-0.020733427,0.004859142,0.041521274,0.0016858354,-0.038391124,-0.0049977074,-0.06725815,-0.006273264,-0.059511658,-0.020134773,0.058971677,0.014599744,0.023933876,0.05637434,-0.025834875,-0.046762533,-0.051895477,-0.037968416,0.023944117,0.0021771342,0.06431575,0.026270295,0.05986267,-0.015560953,-0.043574627,0.018674346,-0.003968018,-0.028950064,-0.033558633,0.0256166,-0.029258864,-0.08201171,-0.06156826,0.055263255,-0.07791649,0.022643946,0.020879105,-0.04879329,0.07350642,0.050456706,-0.044675507,0.0135185905,0.068692125,0.027746772,0.05990579,-0.00512083,-0.0072055687,0.06972213,-0.016876375,0.004990292,0.024253849,0.024324978,0.043282937,0.059709914,0.033804186,-0.013388432,-0.053702373,-0.01293034,0.023150878,0.009464374,0.039868176,-0.01593611,0.00045481455,0.04160004,0.023240503,0.0039589736,0.049587443,-0.054851964,-0.024818614,0.052091233,-0.06570138,-0.04180308,0.0033984515,0.015631463,-0.054255344,-0.00041311388,-0.024997592,-0.065679304,-0.035295058,-0.010039911,0.030733757,-0.03857813,-0.06941181,-0.0640347,0.023642324,0.07897451,0.033885073,-0.026355695,0.059900764,-0.061303586,-0.05047482,0.047362704,-0.06398796,-0.00028162953,-0.06881938,0.032748703,0.021979207,-0.047532164,0.056960702,-0.057711907,0.02232366,-0.07854257,0.009875886,-0.03711599,0.06911205,-0.0009288906,0.012276675,0.02153732,0.02382695,-0.040461827,0.03305666,0.052952975,0.0013173899,-0.0088378675,0.018428968,0.04555049,0.04559644,0.05419794,0.033172242,-0.01971949,-0.006775732,0.015933694,0.056205142,0.04040095,0.060307693,-0.002144294,0.0416967,0.044713758,-0.01649078,-0.014575447,0.026520764,-0.06671668,-0.045718465,0.059361916,0.03589829,-0.00072682457,-0.0338657,-0.0034285665,-0.06366984,-0.018420618
0.066749975,0.05286782,-0.00020849178,-0.04321047,0.06757144,0.07404021,0.051669337,0.058020193,0.04805849,0.025152288,-0.02065535,-0.064177245,-0.068704315,-0.034131058,-0.013799447,0.0002160241,-0.016991172,-0.06560912,0.026859751,-0.04580547,0.060021643,0.0071369573,0.048709117,-0.027123421,0.025085283,0.07603168,-0.04646418,-0.06726818,0.049001276,0.045287848,0.0016684406,-0.046691924,0.014991178,0.060060017,0.0029665197,0.061269138,0.065118454,-0.06310926,0.037938476,-0.021237088,0.024139872,-0.032137223,0.026778307,-0.040123887,0.012264536,-0.02649697,0.00047911948,0.030286597,-0.033660486,0.024825966,0.06661253,0.021065911,0.030845247,0.02717722,-0.066775285,-0.050327256,0.02050488,-0.0454051,0.06188875,0.05153037,-0.06340714,0.05041241,0.06029,-0.06611774,0.020248523,0.011712744,0.05106698,0.008568358,0.024622113,0.06240851,0.00240295,-0.0070223166,0.049912054,0.008214362,-0.07405243,0.018195089,0.047412086,0.04660302,0.03544974,0.0555604,0.053157255,-0.031981006,0.0045728795,-0.0076212185,0.045693044,-0.012003659,0.033442453,-0.043365464,0.07167196,0.03602125,-0.002726159,0.0021559827,-0.030398179,-0.025802169,0.06293932,0.04664541,0.041932803,0.05008384,0.0703304,-0.07509564,0.031872418,0.0004113497,0.050932176,0.040526018,-0.050381076,0.046723757,-0.06960328,0.010558152,-0.03985383,-0.08077291,-0.023711463,-0.0465375,-0.02304544,-0.027695786,0.05685205,0.07663455,-0.06998678,-0.051045846,-0.011933323,0.003463867,-0.0132380575,-0.0024369147,0.052004997,0.03977044,-0.03154801,0.0790036,0.0058517805,0.037167005,0.044200912,0.02877543,-0.07473457,0.0053269723,0.0004501528,-0.04163871,-0.010685858,0.023663882,-0.049249537,-0.0625611,-0.07002938,-0.023415547,0.041128166,0.062007282,-0.04369765,-0.039924417,0.051545188,-0.051141385,0.0356477,-0.011209902,0.04801625,-0.032002013,-0.012855613,0.013286977,-0.040654656,0.017468981,0.045216355,0.05742412,0.057930723,-0.030281348,0.07507592,-0.011392732,0.015325294,0.0024597496,0.028626079,-0.05262833,0.042096596,0.019859066,0.04471116,-0.08144254,0.06769498,0.051866397,-0.053937826,0.031176656,-0.012800561,-0.078375645,-0.07750164,0.0003673315,0.0050588553,0.0661148,0.015949268,0.03241917,0.03684075,-0.068776675,-0.0011652985,0.0026267862,-0.07651712,0.06534333,0.023540216,-0.06446185,0.031197336,0.033290505,0.008373974,0.027527945,-0.0626147,-0.057397947,0.06345152,-0.0401883,0.017963208,0.0160994,-0.028218918,-0.031833302,-0.058341257,0.017298916,0.05777814,-0.05620628,0.018392641,0.035453636,0.07974727,-0.0060735866,0.07257491,-0.03774763,-0.026840178,-0.013430356,0.023200113,0.070407905,-0.0014867614,0.055088475,-0.0029958778,-0.059870854,-0.06754017,-0.060799494,-0.043463837,0.031170242,0.07241739,-0.010024964,0.027214974,-0.07447358,0.07220926,0.039995078,-0.023354037,-0.023071412,0.021935843,0.055586006,0.050499517,0.045499194,-0.045167204,-0.0051047592,0.04303822,-0.055837255,0.015269721,-0.014808085,-0.016705696,-0.04827657,-0.03356685,-0.023049556,0.07061881,0.02392321,0.03447342,-0.050114926,-0.017041571,0.019965712,0.06735127,0.04069463,0.06319172,-0.010706258,-0.03850191,0.007338456,0.02994643,-0.03748712,0.048530802,-0.0151115125,-0.063610874,-0.023943244,-0.07396203,-0.019022003,0.03982096,0.017060114,0.0600791,0.05561451,0.039847113,0.011145668,0.04878982,0.027815728,-0.045779936,0.049079515,-0.010158887,-0.01490704,0.011489096,-0.041321732,-0.05346868,0.001712808,-0.022895148,0.0094157085,-0.059161544,0.06030147,0.026491761,-0.0197131,-0.04151043,0.04647965,0.005372926,-0.04808179,0.0027060632,0.010691652,-0.028096322,-0.0040066494,-0.021536507,-0.032525122,0.05109038,-0.021700477,0.05897036,0.06232553,-0.052473594,-0.07583971,0.032270785,0.012107611,-0.0004466914,-0.073535375,-0.054862212,-0.06091867,-0.022862002,-0.009300612,-0.039166052,0.05007457,-0.056650843,-0.08146924,0.070289284,-0.036211275,0.010017508,0.0048339227,0.048207313,0.03362229,0.06580962,0.04424502,-0.04688727,-0.07329347,-0.027768282,0.034756668,-0.0156164635,-0.049270693,0.016091455,-0.06782819,-0.046336036,-0.059879582,0.005131275,-0.055033136,-0.023629034,-0.041265123,-0.02183501,-0.07390128,0.03270684,0.07193474,-0.024294693,-0.076899625,0.06466697,0.04822699,-0.083774716,0.045206543,-0.023011941,-0.0662019,-0.053733423,-0.06140273,-0.06787072,-0.008001095,-0.00828755,-0.06562205,0.06272586,0.02345409,0.0149229085,-0.06235135,-0.04240431,-0.019706585,0.048748195,0.024608232,-0.083605744,-0.060097158,0.042064056,-0.034592386,-0.050057,0.03738934,-0.018269382,0.0031353352,0.05010296,0.042247232,-0.07989704,-0.062811084,0.010060491,-0.038167957,0.05571316,0.057585258,0.04159041,-0.055715278,0.011205637,-0.00732138,-0.005253145,-0.064224444,0.043074924,0.0666255,-0.07813325,0.047999013,0.023033615,-0.06690646,-0.033128496,-0.0033297958,-0.02949924,-0.010906908,-0.013436568,0.00072828075,0.04483108,-0.007298559,-0.07025892,-0.050401226,0.022126084,0.006072736,-0.0645212,0.003069425,0.056868467,0.013351393,-0.030562658,-0.031916328,0.05123745,-0.024960518,-0.04305835,0.05927236,-0.027353333,-0.06711218,0.043142535,0.059404362,-0.017003477,-0.06214844,0.07417228,0.061638553,-0.054946955,0.02418516,0.07019488,-0.045543227,-0.0109848585,0.038306214,-0.015144889,0.027528154,0.05003953,0.009172518,-0.052310105,0.053437233,0.03058005,-0.053214267,0.022834903,-0.018441677,-0.07354949,0.06466361,-0.07386329,0.004345022,0.006804792,0.061884172,0.035611536,0.050325435,-0.013733963,-0.0021820255,-0.018545816,-0.061658204,0.018827233,0.03296416,-0.033664674,0.050522916,0.030209746,0.07282595,-0.04157615,-0.004571433,0.05031454,0.048360296,-0.03430707,-0.04891857,0.052082643,0.020868853,0.0027102663,0.047309637,-0.024761142,0.031244954,-0.009163238,-0.024012653,-0.0063765533,0.021779554,0.02128797,0.04997589,0.03937584,0.033148296,0.045791168,0.06622781,0.021549514,0.04506528,0.0074969446,0.055735186,-0.021993097,-0.035195798,-0.013346036,0.06535976,0.048882335,-0.06645804,-0.024325123,-0.034144185,0.019390536,-0.0816746,-0.028827667,0.049587853,0.06939385,0.010229165,0.0015696441,0.057916842,-0.04478002,0.003582091,0.00074211776,-0.062198836,-0.032303426,-0.035261374,0.05263871,0.02934195,0.034482833,0.017994907,0.041639898,0.07005597,-0.080311395,-0.0061210315,0.05424662,-0.034336448
-0.0030883842,-0.045322802,-0.08243319,0.022777865,-0.021688323,-0.01515309,-0.039513964,0.031507693,-0.024918871,0.030389631,0.053344212,0.044880204,0.046377055,-0.062403895,-0.007911835,-0.04372411,0.0308851,-0.062510416,-0.077538036,-0.005302131,-0.058057457,0.024148872,0.019086652,-0.010318657,0.053842507,0.04059542,-0.04772674,-0.06617265,-0.021055017,0.008962502,-0.043936852,-0.0015110573,-0.013628938,-0.06196872,-0.049827456,0.061292637,0.04965116,0.037370235,0.051859517,-0.04686129,0.038276482,0.017917238,-0.0431405,0.05292571,0.012570603,0.044050682,0.053049177,-0.040421464,-0.060423836,-0.079182975,-0.048722386,-0.038359284,0.04640977,0.06117075,-0.049941335,-0.018401368,-0.0761444,-0.07492685,0.0020655754,-0.017063241,-0.072057195,-0.032986403,-0.027434487,-0.03108669,-0.043136504,-0.040286683,0.049052548,-0.06737596,0.07601045,0.031744745,0.058579903,-0.07526327,-0.007894246,-0.03325191,0.018867495,-0.008991555,-0.016041776,-0.011937577,-0.024898352,0.035655566,-0.065517135,-0.04732365,0.03710676,0.06321987,0.03677162,-0.04789952,0.040492855,-0.0151252765,0.019189045,-0.046975642,-0.025942747,0.038029715,-0.06648527,0.016668402,-0.0111515215,0.058110528,0.045856543,0.03378235,-0.07075262,-0.018896386,0.047350336,-0.041758798,0.051766258,-0.052433174,-0.0027296445,-0.04467333,-0.072291546,-0.005214812,-0.04752735,0.062696144,0.00056356256,-0.047403503,0.035825733,-0.04709666,-0.020833451,0.0645505,-0.041494112,0.068415076,0.06371819,-0.05567789,-0.053267952,-0.028203184,0.056868188,0.039809853,0.010745451,-0.07154547,0.021735867,0.045063794,-0.05556868,0.03930813,0.03067182,-0.012805902,0.01964634,-0.053297136,0.069408044,0.03914679,-0.0738273,-0.026348723,-0.015767828,-0.06557153,0.067470245,-0.044159167,0.057189204,0.06288943,0.019068556,0.07815357,-0.06975618,-0.015892131,0.076076955,0.024016812,-0.07639403,-0.04694955,0.00800378,0.026444422,0.023570973,-0.0005844526,0.019756578,-0.05339577,-0.015371137,0.03049894,-0.038871974,-0.016077425,0.0030630464,0.052907497,0.057942856,0.07577295,0.06487595,-0.070738785,0.02144764,-0.011315558,-0.031052982,0.0054909126,0.041308858,0.0019330742,-0.030328589,0.027141744,-0.03468081,-0.0005149199,-0.049973432,0.035824075,-0.0067386823,0.033709124,0.059658296,0.055816233,0.010653048,-0.036668215,0.004439556,0.007962547,-0.045871723,0.004981354,0.07878738,-0.07954125,0.03732144,0.029531695,0.056786045,-0.023088612,-0.048365254,0.055813707,0.05038098,0.053441476,-0.06103253,-0.02816514,0.02541653,-0.049803115,-0.010716963,-0.0543591,0.0064690923,0.0195565,-0.059799407,0.0031990996,0.014719805,0.06602009,-0.011421396,-0.019000327,-0.017313097,-0.026969858,0.046313472,-0.055680666,-0.00028008423,-0.016479895,0.021336136,-0.029058661,0.0053424267,0.06862313,-0.03565264,0.07786799,0.016557299,-0.07222497,-0.061477754,0.014240455,-0.012414299,-0.01420946,-0.0022619294,0.046970617,-0.061836127,0.018458562,-0.009531647,-0.042262897,0.07102091,-0.04623516,0.039086547,-0.043987285,0.023254849,-0.06346091,-0.0069614467,-0.058304664,0.07118271,-0.065511234,0.037482195,-0.011614012,0.029166149,0.007993346,0.03037442,0.022502065,0.07640058,0.005398443,-0.042459007,0.034267515,-0.080863744,-0.04369006,0.036371354,-0.023007954,-0.034304198,0.019302161,0.055969194,-0.05766973,0.025811423,0.065600686,-0.056665976,0.057792503,0.049623463,0.056658998,0.07921452,0.02331542,-0.04467288,-0.024179494,0.08211847,-0.04061812,0.06594746,0.06411111,0.044107705,-0.026186142,0.014631942,0.01722005,0.053276565,0.04248658,-0.063056394,0.077724926,-0.06608152,0.0005079791,-0.026122766,0.063534416,0.03275412,-0.057716988,-0.076666474,0.0146449115,0.03912574,-0.07332392,0.0049842303,-0.027561305,-0.017056644,-0.027124755,-0.01608953,0.0014922003,0.010357592,-0.010716073,-0.04244189,0.027117627,-0.07801494,0.018527813,0.006149782,-0.034404837,-0.06502322,-0.017630532,-0.06636903,-0.06275262,0.07487383,-0.017404318,0.009917992,0.01843874,-0.012078507,0.05658993,0.031111531,-0.07351968,0.04499826,0.02997875,0.011791393,0.031201994,0.04362511,0.05383569,0.007447928,-0.027898433,-0.04752082,-0.0106567945,-0.046946157,-0.036164857,-0.064490214,0.07032274,0.07559834,-0.061796848,-0.0765514,0.028263288,-0.04683817,-0.04829066,0.049188968,-0.027928663,0.06224198,-0.07259718,-0.06300843,0.008309567,0.065070964,0.03632226,0.06841664,-0.057761636,-0.014763986,-0.02884731,0.015725603,0.024539454,0.050482526,0.03232867,0.04799536,0.008149051,-0.0055306777,0.0040894863,-0.0023078308,0.021008387,0.044070832,-0.024946282,0.03408128,0.078413375,0.024740562,-0.029476112,0.058683403,0.0015654574,-0.06397428,0.029596884,0.042295262,-0.015823215,0.054226067,-0.046766676,0.026087219,0.057622276,0.004604714,0.028686794,-0.050455015,0.06964745,0.01822042,0.067967534,-0.026825763,-0.010424349,0.055382106,0.011843552,0.0316521,0.02519536,0.059047867,-0.032990184,-0.009148827,0.03803453,-0.014723565,0.05557828,0.012581454,0.021929929,0.054958597,-0.035195068,0.029340975,-0.0664415,-0.02984178,0.0056656417,0.020913018,0.02974556,0.0075323586,0.011266181,0.008976783,-0.06840068,-0.027844172,0.027347777,0.070518166,-0.055382136,-0.03445889,0.0704647,0.024888933,-0.036318045,0.019111255,0.017312482,-0.036140736,-0.040615365,0.01006468,0.079004824,-0.039120495,-0.053017374,0.018437617,-0.079908654,-0.04561467,0.0065397657,0.06218832,-0.04290357,-0.04968187,-0.076883174,0.06347466,-0.04492501,-0.048169028,-0.007711917,-0.05874981,-0.014906367,-0.07056816,-0.013609803,0.059409432,-0.07045242,-0.051198114,-0.05886575,-0.047821414,-0.012711238,-0.00533682,-0.024698045,-0.0045923223,-0.038994916,-0.031128556,0.06249657,-0.00081668433,-0.0100158155,0.001695995,0.05297469,-0.0053731836,0.016080707,0.032455165,0.05269721,-0.070307426,-0.053093277,-0.0025943657,0.04840145,-0.061952107,0.072503746,0.026643097,-0.0043781293,-0.044479817,0.019703442,-0.008930433,0.036902893,0.062917516,-0.08096638,0.078394786,-0.033787206,0.02762356,-0.053683393,0.04996727,-0.029005291,0.05307363,-0.015677623,0.029130196,-0.06839635,0.008215076,0.010128771,0.027663825,0.04583212,-0.043769144,0.06957151,0.026544314,-0.03068707,0.0523961,0.040552195,0.040491946,-0.037492886,-0.028649287,0.04875372,0.015056211,0.047382947,0.028858066,0.00055684603,-0.06284242,0.041519206,-0.014846968,-0.040982045
0.0678046,0.063283965,0.014667849,-0.05866507,0.065919325,-0.04137484,-0.034772065,-0.036768626,0.006038967,-0.022373958,0.0336378,0.058033325,-0.028474795,0.023846151,-0.044460453,-0.030270766,0.0317138,-0.019832533,-0.04128089,0.05481396,-0.06482332,0.027755134,-0.018520854,-0.036436953,-0.04683835,0.0272365,0.054071993,0.04619921,0.040993147,-0.07685193,0.050952505,0.007142523,-0.025956482,-0.03715754,0.055711202,-0.00991051,-0.029307272,-0.061450742,-0.053379122,-0.06846761,-0.062511206,0.059376873,0.030844294,-0.04917364,-0.029519925,0.023855994,-0.035585552,-0.014364203,0.009470411,-0.07090767,-0.06158841,0.061218023,-0.019440826,0.008489695,-0.02534424,-0.029963631,0.057974145,-0.06194717,-0.032408804,-0.0151748285,-0.02156399,-0.05451592,-0.052316967,-0.004009865,-0.0153391445,-0.024428025,-0.01910638,0.044600412,-0.038937192,-0.037885353,0.040452927,0.041275118,0.02113994,-0.005721562,0.047554687,0.048390754,-0.013081579,0.040602516,0.07221691,-0.025354147,-0.03212883,0.010661278,0.05404868,0.0076110233,-0.06382201,0.00087092957,0.0018384084,-0.028581098,0.063988395,-0.026520612,0.05637654,0.045767866,0.024531007,-0.07197448,-0.0046390025,-0.07093959,0.015853882,0.065161966,-0.06925574,0.028574035,-0.020269364,0.06615588,0.025462992,0.07682062,-0.019959792,0.053844474,0.007645424,-0.011761926,-0.058174755,0.032350596,0.033121295,0.02058515,-0.03777609,0.03991445,-0.013955265,0.02354372,0.06650135,-0.0532966,0.075534664,-0.002885921,0.050356634,-0.058298536,-0.016357165,0.023530329,0.010066055,0.03736674,-0.07413485,-0.0712983,-0.03670355,-0.046659067,-0.04025732,-0.041744623,0.023184665,-0.044070352,-0.03586685,0.058755863,0.062944956,-0.020368211,-0.06069182,0.08079527,-0.04143241,-0.050254375,0.008736953,0.007448055,0.057687536,-0.008163787,-0.026692994,-0.030339377,0.036837827,0.080022015,-0.02841824,-0.069101416,0.0036932752,-0.005111132,-0.06743494,0.007045273,-0.06732496,-0.06433247,0.031461358,-0.05416992,-0.031137224,-0.069649436,0.04077608,-0.06844022,-0.0061940565,-0.03804101,-0.028821409,0.02768252,-0.0077240914,0.015443309,-0.018611021,0.059929542,0.054391228,-0.016492944,0.013894366,-0.056484558,-0.009468019,0.024372844,0.033785004,-0.016260564,0.07255783,0.07995801,0.035491753,-0.0045901863,-0.06383516,-0.020402286,0.008702717,0.073572405,-0.03440821,0.06558471,0.04425345,0.028549194,0.0011422308,0.04991611,-0.025396,0.044754006,-0.03837543,0.056618266,-0.06849306,-0.06835034,0.06954492,-0.025488287,-0.025672829,0.029746126,-0.043228716,0.031784885,0.067278914,-0.002815321,-0.0031478568,0.05047716,0.005202815,0.068194136,0.074242935,-0.04187351,-0.014274151,-0.036574326,0.06547538,-0.021544227,0.048366595,0.032120563,0.071065634,0.07265557,0.061155982,-0.006088622,-0.058808476,-0.04287262,-0.044039257,-0.046136893,0.061427165,0.040527392,-0.038511734,0.06759106,0.012856954,-0.049481515,0.0076047555,0.007349983,0.017741727,-0.07371682,0.050929658,0.032400474,-0.079013124,-0.0034357032,0.046552755,0.056777522,-0.04770197,-0.0658542,0.030277254,0.07446644,0.06788386,-0.017308155,-0.041824736,0.072744764,-0.07022704,0.03451463,0.021005087,-0.01528769,0.06914112,0.024036933,0.06312321,-0.014908093,-0.030555032,0.014194407,0.039550766,0.004338801,-0.026662845,0.041507147,0.06736962,-0.0035402346,-0.06623226,-0.07252171,-0.032773286,0.035395674,0.035142086,0.0028304015,-0.059187956,-0.06724001,-0.05238706,0.071634315,-0.02998209,-0.060142644,0.040218286,-0.038127717,0.056320928,0.005150158,-0.018574975,0.028511805,0.04042621,-0.014476929,-0.007415791,0.06572097,0.041310947,0.0007460669,-0.055159844,0.030065961,0.053083725,0.013687097,0.049260546,-0.05965887,-0.04291575,0.023112208,-0.0518086,0.0709807,-0.07041088,-0.0058177086,0.0004034837,-0.077636585,-0.023024574,-0.03667079,-0.046907168,0.0028245375,0.021149881,-0.053301618,0.06198541,-0.05869508,-0.034395903,0.050181814,0.0116014555,-0.0082612485,-0.0023715205,0.01757721,0.035876,0.018258888,-0.048322327,-0.04581853,-0.008804523,0.06719036,-0.045651212,-0.011735442,-0.020488955,0.049217544,-0.016295608,-0.019043876,-0.0720594,0.035397187,-0.0048451954,0.026286783,0.04432936,-0.038308173,-0.032412726,-0.03225327,-0.053823717,-0.018142952,-0.009064689,-0.05009989,0.015187748,-0.011679727,0.014827639,0.05290927,-0.00016812235,0.04798559,0.038085066,0.06157779,-0.070976526,0.04179103,0.022666387,-0.07141844,-0.024690026,-0.0027903018,-0.055477083,0.068944596,0.015397683,-0.045519747,0.049520142,-0.043781694,-0.05772023,0.057965763,0.021633387,-0.018218447,-0.055701144,0.004101105,0.05662272,0.057002228,0.0019680473,0.02923582,-0.026705815,-0.055637702,0.03360422,-0.055492308,-0.020934213,0.0025834888,-0.008776544,-0.015988365,0.005023136,-0.027899915,-0.054042023,-0.070116654,-0.004292511,-0.06560013,-0.005506374,-0.06565633,0.05263608,-0.045915797,-0.02308248,0.06577168,-0.049539432,-0.023739776,0.017440727,-0.0011673967,0.020171437,0.021027474,0.035467084,-0.078180015,-0.012841727,0.006485969,0.073162,-0.012468396,-0.056385852,-0.013486549,-0.03925574,-0.06247996,0.06537802,0.031422183,0.006639339,0.0305055,-0.03083006,0.06945469,0.043467753,0.0023985922,-0.059484657,-0.020730734,-0.029803133,-0.049688544,-0.053967543,-0.000101337624,0.043890007,0.045824178,-0.007885535,-0.06943704,-0.07202761,-0.009475401,0.046883956,-0.06424184,0.053795077,0.024033932,0.012229833,0.0039714426,-0.06646714,-0.04666006,-0.07440346,-0.044528287,-0.020222083,0.0062742457,-0.038065787,0.05672781,0.039774064,-0.030064795,0.0030427177,0.02179268,0.014082395,0.029777661,-0.061487872,0.037223876,-0.0642376,-0.042127103,0.07220393,-0.061324596,-0.074486956,-0.030137435,-0.004290819,0.02304636,-0.018724473,0.025366548,-0.05617741,0.051891096,-0.060472928,0.030240837,0.06364215,-0.06987413,0.062143505,-0.013366826,-0.030229848,-0.0081255,0.005237423,-0.024957206,0.06588445,-0.021957887,0.04481722,0.053324915,-0.011912812,0.037753552,0.06706158,0.03801822,0.045717247,-0.07478743,0.0018336102,0.052959867,-0.038971867,0.041971162,-0.019481365,-0.045081656,0.05689057,0.07202398,-0.05799814,-0.0031373054,0.016303543,0.0401621,0.0417049,-0.026768036,0.059090264,-0.07558837,-0.01243676,-0.040570002,-0.05966013,-0.07552947,-0.03076295,0.056065373,0.021419317,-0.009770624,-0.02522167,0.03198776,0.020422071,0.03437434
