0.07318855,-0.040590953,-0.0075832326,0.030268013,0.048093196,0.009083557,-0.054049194,0.05687188,-0.0202403,-0.027008958,-0.03155321,-0.032361045,-0.01689339,0.04733648,0.026390173,-0.03399578,-0.022739632,0.07121028,-0.061603274,-0.015412371,-0.0047876076,0.011056066,0.06308535,0.036479868,0.07698621,-0.05554818,-0.05199511,-0.0032178548,0.065016255,0.024586255,-0.02363882,0.0062681725,0.04808618,-0.060790382,0.047854997,0.048609123,-0.07518825,-0.0061642705,-0.027300812,-0.015745487,0.087247476,0.057723098,-0.079721764,-0.021370985,-0.006500105,0.083974324,0.065666236,0.027949259,0.011028645,0.024515262,0.08952979,-0.018208737,0.02918205,-0.013662094,-0.009477061,-0.0068242475,0.06256398,0.07841318,0.05730605,-0.08809922,0.03169465,-0.029235959,-0.03208767,-0.07649335,-0.010983194,0.045390114,0.015883807,-0.029323235,0.06511005,0.004263133,-0.084479205,-0.039439842,-0.05786361,-0.033079676,-0.0009721107,-0.06531607,-0.0022344282,-0.014371209,-0.040762804,0.03987186,0.07351259,-0.072924025,0.04756214,0.06710307,-0.056872748,0.077437,0.0094444435,0.045401882,0.0392076,-0.09431155,0.0871341,0.026954545,0.06866006,0.032478407,0.002688896,0.009440533,0.030287292,0.015187199,0.027536139,0.028431907,0.035533857,0.08037004,0.004028717,0.021070577,0.041070785,-0.038369264,0.0032081306,-0.07177265,0.050039012,0.038109377,0.0290042,-0.029800406,-0.08775944,-0.049462,0.05310685,-0.07072559,0.0037130082,-0.022992853,0.07991265,-0.017778095,0.03320972,0.029701363,-0.08023177,0.06353442,0.013199026,0.033980507,-0.038264234,-0.019709809,0.076644026,-0.014376227,-0.07820938,0.019735862,-0.046994656,0.005245575,0.033116557,0.052508403,0.06391781,-0.076984555,0.03692003,0.076936744,0.04089465,0.0053306753,-0.040430717,-0.07163954,0.07948841,-0.061059974,0.06551341,0.08751949,0.056062527,-0.08085478,-0.025361937,-0.04545152,-0.014271199,0.06618809,-0.06334892,0.029859863,-0.06017998,0.009176061,-0.085197195,0.022543631,0.046480894,0.06698244,-0.0055835177,-0.05181317,0.019447062,0.024926044,0.027154202,-0.03517083,-0.018411716,-0.014077904,0.04050126,0.02974256,-0.07852805,-0.022163583,-0.0014353096,-0.03548834,-0.06181162,0.031134168,0.04874763,0.029016398,-0.07605071,-0.08040838,0.07358391,-0.0047182795,0.092856765,0.051538333,0.055386133,0.0773135,0.012075378,0.015135546,0.06961986,0.068566985,0.040962297,-0.056987926,-0.07759114,-0.065979384,-0.057259686,0.07567992,0.0627644,-0.0137376655,-0.054036032,0.038919155,-0.023569478,-0.042378914,-0.057916906,-0.0060482402,0.04003368,0.03387171,0.06642569,-0.06455276,0.054915126,0.019916896,-0.034042265,-0.014085708,-0.0026464737,-0.075549,0.046150938,0.004699029,-0.079233624,0.030345762,-0.08960259,-0.053583767,-0.016405331,0.043138146,-0.0052270093,0.0035076363,0.031634685,0.061276138,-0.08397825,-0.054795705,-0.0069844523,-0.060367327,-0.02727238,0.0030286163,0.08297443,0.075109236,0.02095313,-0.06740245,-0.077937335,0.06250494,-0.064954855,0.08166451,0.019712863,0.04837932,0.07221324,0.024292095,0.014836294,0.053640176,-0.018542837,-0.08519031,0.006682771,0.035152044,0.029992111,0.05899311,0.060038056,-0.04352665
-0.14816515,-0.024886249,-0.055338424,-0.2957621,0.048486665,0.06989717,0.06622162,-0.0014285332,0.090431534,0.11371425,-0.051847536,0.059112087,-0.007823372,-0.0790226,0.09065344,0.006277765,-0.02151366,0.19560519,-0.24346204,0.006817237,0.24196522,0.10667674,-0.016736042,0.020788433,0.20590936,0.01902033,0.30434895,0.17940864,0.13739763,0.13972764,0.14010127,0.004161326,-0.05024265,-0.06413808,-0.13836147,-0.010875086,-0.08709451,0.0051512644,-0.0021863403,0.20460677,0.021061445,-0.07758459,-0.27310088,0.09766309,0.004017002,-0.10664505,-0.059180263,0.0941563,0.11123199,-0.08921028,0.104105465,-0.07075834,0.13418928,0.11857393,0.24871913,-0.024310397,0.037093442,-0.008436802,-0.05770122,0.2735799,-0.042569555,-0.18831795,0.033857428,-0.15317656,-0.070646316,-0.00095235993,0.09560139,0.022907337,0.12272315,-0.21351685,-0.1613029,0.020584902,-0.12983923,-0.04445506,0.18833764,0.216989,-0.086864345,-0.11898975,-0.11449024,-0.11631032,-0.0070020333,0.12567851,-0.122266345,0.15651827,0.07340256,-0.11136712,-0.052767746,0.14736332,0.063501,0.00024947224,0.029085252,0.08514586,0.14904618,0.042967115,-0.13280353,0.072327405,-0.018073466,-0.01859861,-0.116070025,-0.077842064,0.0041603157,-0.14707963,0.0055695013,0.095511965,-0.21908587,0.0377572,0.0953399,0.056359883,0.103874564,-0.31469592,-0.083738625,0.05139599,0.12625536,0.1038479,-0.22964016,-0.05549297,0.20299554,0.082537346,-0.025291126,0.055863433,0.044763353,-0.26623806,0.04350895,0.09571923,-0.0009357852,0.025235988,0.05306909,0.025704501,0.021606384,0.17982477,-0.033241455,0.15485358,0.14444454,0.23519784,-0.08933893,-0.12341745,-0.05063277,-0.012773439,-0.04505287,0.13172112,-0.022190126,-0.39015624,-0.0684345,0.10895686,-0.113156535,0.10471878,-0.06393118,-0.022118818,0.11516814,-0.058314543,-0.0065088817,-0.21559115,0.073818,-0.14010373,-5.80552e-05,-0.080585785,-0.12171133,-0.10498689,-0.085895866,0.07847955,-0.048392333,-0.058935788,-0.046131138,-0.0110055795,-0.024803959,-0.1291594,-0.1339682,-0.07312002,-0.2300393,-0.04722695,-0.0819486,0.023791641,-0.17131591,0.044657733,0.12406607,-0.037486497,-0.17888014,0.14642943,0.1947521,-0.008866922,-0.2354342,0.12952164,-0.07087542,0.011086841,-0.12191201,-0.06830266,0.0013437459,-0.0051623955,0.14690802,0.06716955,0.13313363,0.05929855,0.10942733,-0.06719695,0.06776461,-0.045839325,-0.0075045153,0.041338854,-0.12288481,0.05507489,-0.06082955,0.13250418,-0.062311247,-0.20098084,0.075507045,0.1445315,-0.29914254,-0.047806814,-0.0221446,0.22504127,-0.08876298,-0.029295312,-0.005867783,-0.08568567,0.029028162,-0.04306039,0.04244159,0.013642391,-0.1418014,0.21981499,-0.096862726,0.04915283,0.08273757,0.06892672,0.114334606,0.05003301,-0.049437318,-0.15251109,-0.13106765,-0.005685622,-0.07461325,0.013935702,-0.14137536,0.023057582,-0.045144293,0.20757867,0.023755424,0.23305574,0.08592593,0.007517399,-0.30555648,0.13402197,-0.092130974,0.03503348,0.082045175,-0.05015366,-0.010560649,-0.015435665,-0.11327112,0.05068562,0.026963705,0.02429098,-0.0010337338,-0.04532259,-0.12723884,-0.22311759
0.039893568,0.017985884,-0.0035394554,0.005494003,-0.028871056,-0.019376576,-0.04265204,0.05084261,0.054094695,0.08125808,-0.0813151,-0.07291259,0.07580852,0.016415576,-0.069021426,-0.068955086,0.042329784,-0.061559703,-0.057356544,-0.06565382,0.02762698,-0.013071719,0.018484635,-0.05384116,0.08330221,0.03892104,0.0040662605,0.009160083,-0.042153288,-0.0947474,-0.038385984,0.018874975,0.029836636,0.0014559347,-0.05459549,0.076033995,0.047323585,-0.016875362,-0.06575507,-0.022250962,0.005500799,-0.0028928502,-0.0730891,0.011396667,0.031816743,-0.037269846,-0.036950774,-0.034846246,0.07556166,0.058011685,-0.04877372,-0.046735357,0.072347194,-0.08382087,-0.09096565,0.08004054,0.024452541,0.04534278,0.054686293,-0.080752365,-0.025114505,0.087075375,-0.022553306,0.060090065,-0.060285654,0.0756864,-0.027606992,-0.07433051,-0.065556355,-0.046843212,0.04810185,0.038183305,-0.00090991997,0.0075834957,0.07959169,0.030816723,0.04529188,0.033340033,-0.104655445,-0.0015779076,0.07284248,-0.052620567,-0.018803123,-0.004135567,0.052365106,-0.063867405,-0.06583467,-0.039315417,-0.033429537,0.027157864,-0.029599434,-0.035158496,0.06701021,-0.061162107,-0.059815206,-0.017291958,0.0013735634,0.0488503,0.047786314,0.08508179,-0.022767106,-0.0065956926,0.032676227,0.0512609,0.04567661,-0.07089242,-0.020816308,-0.014012158,0.031058505,0.05290279,-0.0586342,0.08085079,-0.0016865061,-0.06059543,-0.03802256,0.09015142,-0.080103755,0.06258686,0.05730594,-0.071080364,0.07766695,0.07758123,0.07444145,0.10043056,0.05793966,-0.032619894,-0.09445674,0.053455733,0.073734425,-0.07955939,0.0015203002,0.014471558,-0.054804306,-0.04838815,-0.013330209,0.07317444,-0.05512001,0.041674733,-0.019993488,0.032749046,-0.059569463,-0.044840485,-0.025165262,0.017469948,0.095584415,-0.010433855,-0.08613472,-0.056371164,-0.06712742,-0.00030963038,0.051873915,0.03240534,-0.07211499,-0.006006767,-0.017599825,-0.01329908,0.0739086,0.10555933,0.084131785,0.018489912,0.0039912853,0.04453262,0.016131915,0.046166226,-0.032506555,0.07589673,-0.018695576,0.040366832,0.06792277,-0.03647663,-0.0058298954,0.045403507,0.055721425,0.032197617,-0.074513294,0.06369032,-0.015595033,0.038961142,-0.018019544,0.013331778,-0.08612135,-0.006219114,0.07362447,0.031692818,-0.043265264,0.066889,0.01896848,-0.00056095753,0.070569016,0.04220147,-0.06776037,-0.010661526,-0.011940934,0.05557147,0.06767026,0.03183139,0.018567026,-0.045073386,0.042319745,-0.019925935,0.023140624,-0.084761,0.003744612,-0.020432547,-0.04501692,-0.051291756,0.02887565,-0.052373327,0.053047605,-0.08669669,0.060444184,-0.059792355,0.0044044163,0.0072349175,-0.010056799,-0.039426744,-0.08838174,0.02190843,0.09045666,-0.02540712,-0.09273105,0.061473615,0.07984089,0.007040054,-0.0115519175,-0.022026077,0.024398152,-0.067554645,-0.0041309595,-0.05144977,-0.017016659,0.030228771,-0.075941786,0.0654157,0.07564793,0.06847823,-0.020990951,-0.08301685,0.08834708,-0.052381657,-0.029855922,-0.042984854,0.006583419,0.00800464,-0.03802916,0.007911841,-0.066492185,0.012865814,0.0007654672,0.011068352,-0.043114137,0.009463528,0.009361732,-0.06874003,0.053829215,-0.040988844
-0.23992305,-0.03225635,0.07901099,-0.18645354,0.041987095,-0.11069449,0.024043389,0.24072199,-0.10444788,-0.3019617,-0.0052891215,0.015106016,0.039793625,0.14417288,-0.0324893,0.045487497,-0.18322411,-0.0832951,0.19480254,-0.022063952,-0.0023246156,-0.13252744,0.07423782,-0.102681816,-0.28619114,0.057105117,0.17020632,0.11997016,-0.19746101,-0.14125124,0.062404774,-0.11075454,-0.030190721,0.0014154888,-0.33666742,0.005432682,0.16070636,-0.068392545,-0.08984153,-0.3018622,0.33591926,0.11339644,-0.304789,-0.054711353,-0.2433179,0.009211425,-0.036956526,-0.07466197,-0.077648245,-0.014144048,0.23417477,-0.00013028181,-0.10162972,-0.14484377,0.09423569,0.15692866,0.018518073,-0.11678227,-0.07068581,0.033379026,-0.039897963,0.00898276,-0.02680528,0.17780924,0.07500106,0.16750133,-0.1145023,0.19730946,0.010174899,0.0762707,0.09688883,-0.0014532855,-0.1051533,0.099039726,0.2558056,0.12286313,0.25598076,0.16331407,0.06965864,0.32319668,-0.3032645,-0.0035613799,-0.066378556,0.2023862,-0.044458598,0.0737532,-0.0451393,-0.28558007,-0.20389882,-0.10163891,0.20069636,0.011777473,0.27175605,-0.05029848,0.0843243,0.02298109,0.1839589,0.041478705,-0.05677656,-0.088404134,0.03555132,0.14599226,-0.10221025,0.04167393,-0.24239695,0.025911633,0.10486985,-0.20270713,-0.04282648,0.1669021,-0.060560722,-0.102009624,-0.2745087,-0.012909687,0.0005017653,-0.1661749,0.024203775,-0.04549684,-0.066311896,0.17174588,0.09567055,-0.05908227,0.15775062,-0.10768689,0.018504482,0.16030093,-0.34104058,-0.17969948,-0.014698701,-0.21286242,-0.08827668,0.043495536,0.15639241,-0.0706552,0.22083877,-0.029062979,-0.06217289,0.08018046,0.02367294,0.112474084,-0.07185586,-0.27342916,0.008605218,0.35173053,0.055235785,0.022217795,-0.035578497,0.14954816,-0.21083389,0.05472622,-0.27578038,-0.30988786,-0.006845026,0.01590415,0.078730784,-0.22407052,0.30991575,0.02051008,-0.13856861,0.16574712,-0.028550843,0.15231939,0.031520877,0.12319784,-0.11603221,0.074519634,0.22968584,-0.10181835,0.12847099,0.2627249,-0.10006053,0.02436621,0.043560635,0.04505867,-0.05186071,-0.11956813,0.050733898,0.043385766,0.10290275,-0.18450348,0.055536002,-0.12956877,-0.10923954,0.053361565,0.03664702,-0.19882534,-0.013407707,-0.23740558,0.17665203,0.04873376,-0.025177427,0.2152354,0.1906952,-0.1160827,0.09327387,0.11708845,-0.20286044,0.08149067,-0.25107995,0.043898225,0.092361346,0.12609462,-0.020049062,-0.26522434,-0.08949586,0.14853574,0.020732751,0.03839292,-0.1622956,0.16042472,0.1280721,0.10455395,-0.027378496,-0.0025747512,-0.2342479,0.20483373,0.13093625,0.06398079,-0.22188325,0.1506531,0.06338729,-0.11285345,-0.12128331,-0.016516002,-0.09204366,-0.070853814,-0.16161688,-0.00044626617,-0.058345344,0.029031279,-0.067446634,0.102436386,-0.18779476,-0.17281267,0.10577884,0.010240102,0.041435994,-0.06436761,0.17626703,-0.033665787,0.013413801,0.16701852,0.06706505,0.12952223,0.11606102,-0.099788085,-0.28433958,0.11268276,0.30675775,-0.10129459,0.051251106,-0.15909843,-0.1105787,-0.05801046,0.12236513,0.09487308
-0.009863733,0.07838954,0.02428431,0.0013947417,-0.07393202,-0.06634615,-0.08057735,-0.04209512,0.06623953,-0.15627146,-0.051367946,-0.08196457,0.28825912,-0.0029527447,0.10393728,-0.076273136,-0.12802823,0.06912435,-0.24763072,0.014634473,-0.24556698,-0.028357234,-0.2427382,0.09378568,-0.10769721,0.10896753,0.031637896,-0.1169461,-0.23563136,-0.12594303,0.16368994,-0.15340982,-0.05860219,-0.14901032,-0.009985789,0.10608328,0.1341958,0.15283953,-0.038674533,-0.018195968,0.10661351,-0.12026735,-0.03283976,0.072073795,-0.049716603,-0.05585593,-0.06063364,-0.17169526,-0.13879034,-0.09987665,0.11219247,-0.005424892,0.006799357,0.035357974,0.112419285,-0.049786948,0.05097552,0.17191295,0.0047873217,0.079981215,0.081917055,0.111948326,0.14288846,-0.09457686,-0.07985748,0.019060655,-0.034199517,0.11084756,-0.08252321,-0.10504179,-0.14805323,0.044756677,0.08342085,-0.0018741882,0.10269684,0.09611402,0.009279174,-0.07033802,-0.05849143,-0.044150885,-0.02907126,0.12800862,0.05955226,0.054879636,-0.09222545,-0.15171187,0.001971812,-0.29809135,-0.054203715,0.03354395,0.123958066,0.021291276,-0.063866004,0.025400285,0.13569207,0.03789183,0.07178554,-0.34120724,-0.11460946,0.022349112,-0.17015126,-0.07548353,-0.001818395,0.0076944777,-0.115052946,0.12162829,-0.029636417,0.010325174,0.08300666,0.10337992,-0.2625131,-0.12424607,-0.056770187,0.053013325,0.1422238,-0.36195934,0.17806715,-0.019763006,0.08633953,-0.018492673,-0.016065331,-0.0685385,-0.19601394,-0.0057896865,-0.08958361,-0.07263223,0.020102177,-0.20214866,-0.06775843,0.1639297,-0.18001015,-0.08211075,-0.01439205,0.08040778,-0.0066798558,-0.20563309,-0.12292474,0.06436657,-0.034966156,-0.11010031,-0.121594846,0.08825075,-0.0762314,0.13751248,-0.22305438,-0.17844732,0.11715684,0.1314696,0.04950376,-0.0061266576,0.09544161,-0.016008032,0.035427265,-0.006560349,-0.13809954,-0.16006806,0.13667718,0.06586587,-0.10308049,0.19930857,-0.03637591,-0.28523389,-0.024586279,0.05295743,0.01639728,0.12534784,-0.15295623,0.08454712,-0.22121349,-0.07416553,0.17788725,-0.16012369,0.046997666,-0.061296716,0.197855,-0.25169688,-0.085114434,-0.12157379,0.029159281,-0.14095142,-0.054813705,0.105371326,-0.009503493,-0.095630445,-0.18548402,0.14960687,-0.052419312,-0.07114286,-0.2581539,-0.06469296,0.07799251,-0.2311971,0.017260917,0.07876117,-0.0782837,-0.06586201,-0.0636292,-0.018966291,-0.13555498,0.19182977,-0.022802923,0.008440382,-0.0031436987,-0.048028912,0.08248427,-0.018504865,0.09461474,0.05668641,-0.25178245,0.015598626,-0.00693393,0.108612746,-0.29735002,0.030012,-0.18265288,0.073827386,0.15514666,-0.11846133,-0.23967417,-0.047261663,0.063887514,-0.05467175,0.13415362,-0.033374965,0.0017518797,-0.2873219,-0.15778983,0.057351828,-0.20281899,0.021910388,-0.10925473,-0.03429117,-0.10961219,-0.2023303,-0.2346167,-0.22586451,-0.033571433,-0.0642685,0.015422236,-0.111289345,-0.053843535,-0.05813014,-0.019078014,0.0005642691,-0.09383379,-0.045872252,-0.04605547,0.07473422,-0.015243015,-0.087253116,0.18740228,-0.18858162,0.033990797,-0.0473146,-0.021965027,0.032116216
-0.1447951,-0.20638141,0.07653344,0.20725055,0.006199582,0.066943675,0.012458813,0.061680187,0.03677829,-0.3480833,-0.0025529799,0.071790315,-0.28303006,-0.2563259,-0.23441538,-0.20361619,0.14944683,0.06397547,-0.041655444,-0.20954554,-0.12596346,0.08866027,-0.06815565,0.00073300826,-0.10725705,-0.007814495,0.007825165,0.040996138,0.06909308,-0.062497817,0.1128107,0.056797467,-0.06396023,0.014388898,-0.10288606,0.024254883,-0.103156015,-0.03582239,-0.4208651,-0.024929151,0.0084473165,-0.18767637,-0.000952836,0.034542795,-0.15039574,-0.1726048,-0.09430457,0.23014306,-0.04204951,0.0039316704,-0.19631608,0.036671147,-0.18701272,0.16651109,-0.0661072,0.0638543,0.065061525,0.056207646,0.056484472,0.088170946,0.034813676,0.022626678,0.048185337,-0.16158323,-0.06484766,0.08207395,0.041892093,0.0011508419,0.07380728,0.020780526,-0.06148876,0.018631883,0.16983813,0.108665764,-0.057364363,-0.1345108,-0.049868293,0.07064865,-0.0047630346,-0.053273328,-0.1951559,0.048578847,-0.03374735,-0.14106974,0.048751388,-0.14310603,0.018743198,0.017898846,0.25578484,0.15165865,-0.2062892,0.17073672,-0.122012265,-0.1064729,0.15727055,-0.025052559,0.060346093,0.0871507,-0.027968338,-0.13453345,0.12916075,0.15569101,-0.11480958,-0.023128288,0.11153623,0.014757073,0.10574424,-0.1760546,-0.12111649,-0.12071433,-0.104704425,-0.13212813,-0.11509622,-0.05053822,-0.0175863,-0.063662566,0.1187237,-0.032977007,0.09712191,0.037689254,-0.11503757,-0.11774835,-0.17868517,0.04067637,0.03200336,0.01258556,-0.018709533,0.03276495,-0.15847954,0.07595369,-0.14159888,-0.09227535,0.008524516,0.103252314,0.026196668,-0.23848206,0.21803308,0.12652029,-0.12608743,-0.18798506,0.008529759,0.13512659,-0.07929923,-0.09972531,-6.254035e-05,0.00718759,-0.15134391,0.09960214,-0.20404975,0.13388902,0.052851155,-0.07236161,-0.022773467,-0.062139314,0.07287883,0.011524149,-0.23958924,0.07851213,-0.093820296,0.0032146783,-0.20608862,0.037613124,0.1856408,0.13263892,0.045303468,-0.2087817,0.07169672,-0.433713,-0.017772628,0.018767077,-0.20945716,0.015898246,0.0619796,-0.12198624,-0.2149219,-0.26752257,0.07113987,-0.04680003,0.07351567,0.030208182,-0.067073844,-0.111217916,-0.09756118,0.014944396,-0.079682894,-0.078505345,-0.004723966,0.020560818,-0.12832744,-0.09359588,-0.1343705,0.041953478,-0.20676273,0.027323034,-0.20388165,0.10210032,-0.019049587,-0.31387064,-0.055603717,-0.11034367,0.13583454,-0.22112855,-0.02830805,-0.06145374,-0.12692739,-0.017841907,0.013579533,-0.16608724,0.031012034,-0.010418692,-0.30843168,-0.1713051,-0.012580381,-0.114361174,-0.13926496,-0.02792917,0.27464548,0.1326217,-0.25212127,0.08971864,0.023783715,0.13409036,-0.16636139,-0.072798446,-0.06842107,-0.15155117,0.0042462745,0.052281484,-0.23187727,-0.011672222,-0.06665715,0.16756845,-0.03576803,-0.2203066,-0.0066228122,0.110737294,0.08352947,-0.10718709,0.07410323,-0.14329271,-0.18831463,0.12052111,-0.05553742,0.13321504,0.17081057,-0.006527587,0.33025262,0.079588786,-0.09155637,0.13413523,0.038481753,-0.116600476,0.110969,-0.058729596,0.093690276,0.010865706
0.044581074,0.0152313495,0.034771267,-0.0047858167,0.0903429,0.021212604,0.059132736,0.03418599,0.07445327,-0.03493806,-0.07547195,0.06776047,-0.01853063,0.10790969,-0.058048215,-0.03562828,-0.035354823,-0.023599723,-0.087352924,0.09535207,-0.03819066,0.079431824,0.015664432,0.066411324,-0.043022238,0.057195984,0.07843866,0.06734787,-0.010511057,0.08271188,0.029153619,-0.04467472,-0.02504488,0.005356848,0.064709894,0.048385836,0.031680338,-0.00048101024,0.0030003833,-0.0619239,0.085382074,-0.0683197,0.06359922,-0.007393578,-0.02957197,0.07442994,0.057229243,0.025377803,-0.101121455,0.09176089,-0.017512813,-0.08750893,0.08333521,-0.0327283,-0.025056064,0.014367874,-0.004635209,-0.055023722,0.06542479,-0.035073925,0.026480023,-0.024423713,0.03583773,-0.09279808,0.032936327,0.0013976052,0.06846886,-0.081610665,0.06496113,0.044205315,-0.04889135,0.037602283,0.016615216,0.046252202,0.017823216,0.085746735,-0.07199991,-0.044877946,-0.057438914,-0.017252062,-0.06765112,-0.02728621,-0.084818006,0.08506156,-0.031156695,-0.049978167,0.009069042,-0.0033748974,-0.013197921,0.0075579435,-0.03606538,0.03405675,0.013352376,-0.013657957,-0.03284017,-0.0073917448,-0.004303625,-0.039717805,0.08868112,-0.046945352,0.05872528,0.044491086,0.048736278,-0.071506314,0.026081575,-0.034614813,0.025714422,0.081929244,-0.031652007,-0.023496654,-0.041478734,0.04583119,0.009960399,-0.041146666,-0.015770586,-0.06532699,-0.035463393,-0.042117137,-0.01301896,0.11534215,-0.060798693,0.016156461,-0.038642216,-0.024211457,-0.042817473,-0.06556968,0.06369457,-0.012834012,-0.025913194,0.0066997786,-0.041749053,-0.020206703,-0.07736372,0.014826986,-0.0062619317,-0.032271862,-0.030303366,-0.037782233,0.07472845,0.019304277,-0.047966927,0.06630019,-0.008887673,0.061616514,0.049874432,-0.03147019,-0.08350253,0.06724284,-0.0201503,-0.01035862,0.0674057,-0.056375604,0.06404253,0.06569365,0.038844317,0.0821128,0.045694206,-0.049178552,0.00275103,0.07635622,-0.023118531,0.08006654,-0.028198462,-0.14017054,0.008085935,-0.004163061,0.0891018,0.024396872,-0.059984524,0.06112445,0.10656256,-0.14452429,0.04048406,-0.0033083302,0.053365357,0.097081795,-0.032125782,-0.02902583,-0.04847574,-0.048598897,-0.08367118,-0.011231713,-0.014337923,-0.040189598,-0.042771835,0.049579952,-0.064941496,0.0087566795,0.04792625,-0.009566928,-0.08563373,-0.05780624,0.014251161,-0.043373078,-0.0314594,-0.06801304,0.12017454,-0.021147778,0.055394568,-0.09589804,0.08650501,0.079210356,-0.012893428,-0.08563316,0.035956264,-0.04263652,-0.0110843945,-0.031642865,0.08443331,-0.022274071,0.09491947,0.07285833,-0.07579755,0.023926435,-0.026279585,0.014389813,0.027604312,-0.020598892,-0.08797197,0.060590055,-0.07869913,4.5256722e-05,0.041639883,0.010702231,-0.038806617,0.0825305,0.060946714,-0.02497671,0.030927926,-0.05586962,-0.053430542,-0.026948513,-0.058860715,-0.035617042,0.010133784,0.07886707,0.04636384,-0.032955326,0.008773511,0.07571938,-0.058290828,-0.032312598,0.003754571,0.06358325,-0.04098692,-0.040171646,-0.015438757,0.042615347,0.10085106,-0.011272848,-0.03520935,-0.018137656,0.0056482637,-0.023928747,-0.095036894,-0.018268924
-0.24130422,0.054702953,-0.17737274,-0.07067744,-0.106985666,-0.08692658,-0.32421994,0.01693558,-0.03617297,0.042421345,-0.03030851,-0.10922554,0.17233653,0.18063211,0.29723585,-0.17626114,0.2820362,-0.03562755,0.08056184,-0.03942662,0.09073148,0.2413701,0.037373967,-0.082234696,0.036660805,0.18886879,-0.025077427,0.13854122,0.08051179,0.021947002,0.17171663,0.124019064,-0.0962753,-0.011721615,0.037593223,-0.059865758,0.070944116,0.16963331,0.008394275,-0.057230175,0.17532775,-0.1632863,0.05871635,0.08347429,-0.25910223,-0.03365433,-0.10638024,0.14416654,0.2050747,-0.0022083127,-0.10079336,-0.0067352178,-0.11033939,0.093641095,0.23943456,-0.25152764,0.25568315,-0.15244713,0.045050524,0.10501249,-0.06777547,0.013816304,0.07042474,0.0073589077,-0.01979558,-0.16224657,-0.008717937,0.0033684836,-0.04469172,0.19177268,-0.1030841,0.06579969,0.045284033,-0.0153036835,0.1738341,-0.0028042546,0.2593327,-0.059873287,0.033377286,0.22984327,0.12409818,0.13947807,0.047603026,-0.17048667,-0.12045398,-0.02403244,-0.029358288,-0.33904138,0.1766298,-0.2663436,-0.054209612,0.29348856,0.14781056,-0.100973226,0.041505627,-0.13230337,0.12705852,0.10068565,-0.013576888,-0.09867002,0.04958534,-0.35821384,-0.370832,0.040711865,-0.010046448,0.07863777,0.090992734,-0.08999624,-0.19018608,0.06627564,0.033707336,-0.015628416,-0.04288042,0.11564799,0.109204866,0.0961768,0.0708269,-0.050306898,-0.1568928,0.034250345,0.014878846,0.021613661,0.034060076,0.105790295,0.16713315,0.16854292,-0.23848192,0.13402112,-0.011007126,0.12293712,0.09657984,0.1364414,0.0017008381,-0.12191815,-0.22250034,0.03015801,-0.1964519,0.028088208,-0.029986622,0.13735186,-0.12437684,-0.018946337,0.0026784383,0.025853392,-0.115684815,0.2749766,-0.16259909,-0.06911574,-0.308253,0.00532878,-0.011922986,-0.11043098,0.06355638,-0.13103655,-0.219712,-0.1291049,-0.11418267,0.030093437,-0.026313314,-0.017799152,-0.08069952,-0.019153873,-0.09071136,0.030324148,0.020623391,0.024350714,0.045943804,-0.15373276,0.018884405,0.2443859,0.0026067637,0.02501023,-0.034072235,0.23394048,-0.0831532,-0.0388464,0.31339023,0.08400024,0.072283894,0.16703853,0.015276502,0.04932802,0.02184248,-0.15179975,0.1355287,0.022841027,-0.017066747,0.20658314,0.031812847,-0.112501115,0.16705573,-0.06647984,-0.21023883,0.19914624,-0.06595663,0.117187865,-0.13866748,0.042276446,-0.31246558,-0.15768385,0.1833369,0.010656664,-0.24409415,-0.0044185165,-0.0026008731,-0.0007783568,-0.03904374,0.14176719,0.058724202,0.12416712,-0.042025317,0.10531256,-0.0057757683,-0.04566862,0.04291744,-0.047499113,0.25085792,0.091009945,0.3028811,0.05993205,-0.12081827,0.051023383,0.18240963,0.15232827,-0.039035685,-0.23811628,0.021574644,0.10915483,-0.22911859,0.0025426357,-0.08483454,-0.07064648,0.08939664,0.120793596,-0.12546225,-0.22614788,0.074897185,0.050411776,-0.06317356,-0.15304191,0.17412055,-0.03732285,-0.042745445,0.20212959,-0.13216008,0.13416389,-0.11638194,-0.12693088,0.055028193,-0.02274481,-0.027976202,0.016434178,-0.19959942,-0.023722235,-0.23140788,-0.0799871
-0.46209773,-0.0112600345,0.028851632,-0.24297161,-0.058922406,-0.0997275,-0.2340156,-0.110948816,-0.04202789,-0.17175308,-0.11483391,-0.08688658,0.018125758,0.08236017,-0.3599574,-0.18931119,0.17810573,-0.077958554,-0.1420682,0.23318215,-0.086893335,-0.05079262,0.082438365,-0.16003002,-0.101297155,0.1437001,0.25653306,-0.0727436,0.0506663,-0.00045027898,0.26668003,0.11655545,-0.26646134,0.0039306646,-0.18637502,0.029281737,-0.039494615,0.066568315,0.0369967,0.07135734,-0.01924677,0.14646697,0.14717978,0.009788107,-0.17590094,-0.0062868944,-0.1442211,-0.022713307,-0.14364918,0.10923067,-0.020921802,-0.33001348,0.039679185,0.040025048,0.018829413,-0.015688268,0.26394278,-0.05957952,-0.039407473,0.014398852,0.018688142,0.16054739,-0.14154221,0.21380456,-0.026190098,-0.08974915,0.06541151,-0.13655393,-0.064669706,-0.07828074,-0.045477383,0.0013092182,-0.398389,0.062333073,0.10526867,-0.009542965,0.09206368,-0.028246185,-0.03479213,0.1177861,0.1444218,0.012463648,-0.38125417,-0.0027024178,-0.04199896,-0.13426651,-0.039721694,-0.076358214,0.16710544,-0.17273724,-0.045821894,0.07506024,-0.10887054,-0.24007805,0.055262636,0.0076657725,0.08979529,-0.29424766,-0.08601568,0.026243856,0.04775295,-0.107787475,0.1349394,-0.20475253,-0.09527809,0.027385445,0.07604934,-0.09289925,-0.1504263,0.15314253,0.08648406,-0.05087206,-0.020455452,-0.059703246,0.19561195,0.06197741,-0.26666567,0.23255344,-0.008963365,-0.011343375,-0.08398357,0.050823715,-0.10949858,0.05538413,-0.12603956,0.039382275,-0.031241233,-0.0016711692,0.12301756,0.0073399306,-0.030982824,-0.1956387,0.019144144,-0.097318396,0.0032931159,0.03135139,0.26956376,-0.11200515,-0.09074411,0.03792808,-0.032524537,0.06088328,-0.07829651,-0.008887705,0.02441499,0.12372517,-0.13061729,0.12285928,0.094193,-0.11487593,-0.2946172,0.23614064,0.03738095,-0.061543364,0.035138853,-0.07835573,-0.059311904,0.13249563,-0.09241886,-0.061735757,0.18345244,-0.030858409,-0.037315782,-0.12503637,-0.036582764,-0.19576277,0.11097336,0.039217558,0.2039247,-0.04169095,-0.02882,-0.04535435,0.082270816,-0.074286915,-0.023058802,-0.18107869,-0.017913412,-0.010308701,0.050133437,0.060587306,0.123291686,0.024143321,0.062265873,0.2762769,0.16984068,-0.06267367,0.04881123,0.044107724,-0.13980222,0.20200478,-0.1808343,0.24761264,0.10882648,0.046127774,0.10501261,0.16386335,0.048974898,-0.07882788,-0.048400488,0.0922567,-0.110106185,-0.04033846,-0.08719315,0.22408134,-0.05024379,0.13669795,0.15547311,-0.030352559,0.14264196,-0.05564227,0.23607826,0.1012095,0.13894518,-0.030656725,-0.07478978,-0.047240525,0.15268946,0.16586775,-0.33816117,-0.27284196,0.11193638,0.09985797,0.023161754,-0.0788043,0.03475341,-0.24473336,-0.099328645,-0.057219043,-0.0013340951,-0.14718065,0.12299597,-0.05042752,-0.08596531,0.014604565,0.1810319,-0.08727641,0.13979661,-0.051210202,0.11439174,-0.12361243,-0.32908967,-0.07014521,-0.043469165,0.22602035,-0.012813824,0.07182585,-0.010544493,0.19773799,-0.17308602,-0.076215975,0.045763485,0.15610775,0.065697715,-0.06597433,-0.01338608,-0.10885015
-0.010164033,-0.091806576,-0.042626135,0.018786274,0.082605414,0.068681695,-0.08290791,-0.005960484,-0.07008132,0.047376152,-0.06316651,-0.0024117434,0.010659193,-0.04875821,0.038643792,-0.071079575,0.014029949,0.028332818,0.038366493,0.05681396,0.03268609,0.002279053,0.07525916,0.034591895,-0.025110582,0.0072699357,0.0790831,-0.0033662778,0.04570463,-0.078674786,0.020007338,-0.07595187,0.0690917,-0.087517604,-0.05007535,-0.023357423,-0.013934769,0.05636334,0.043552708,-0.046012644,-0.047122292,-0.0066464273,-0.031140408,-0.007103454,-0.056772392,0.08748994,-0.019268572,0.06451352,0.051190734,0.027695699,-0.0084686605,0.050843965,0.065130085,0.022034723,-0.08001741,0.05005005,-0.014709023,4.2508377e-06,0.0004074581,-0.05074904,0.06471924,-0.047899593,-0.026498899,0.03379625,0.060854223,-0.031990845,0.030277917,-0.019075254,0.06052867,0.074943624,-0.009783637,0.009723561,0.0002949542,0.0064820717,-0.09382672,-0.05836348,0.022283046,0.0960637,0.016407976,0.0729686,-0.07329668,0.06506341,-0.005178496,-0.058209915,0.031747855,0.026151298,-0.07041228,-0.018826386,0.029273834,0.020202607,-0.06110267,-0.028577121,0.043967787,0.04157488,-0.092315786,0.0017880594,0.03221901,0.0037205499,-0.057807844,0.05153026,-0.068169035,-0.05218397,-0.05682176,0.043668564,-0.03090821,0.0011186921,-0.004592838,0.09623305,0.07905633,-0.024454817,-0.08525412,-0.03994874,-0.03519182,0.074982606,0.0077097807,0.044359434,-0.03550785,0.014124116,-0.072167724,-0.0447426,-0.010845092,-0.09898708,0.027367072,0.0013975736,-0.062669896,0.061928004,-0.049455263,-0.0005951449,-0.0812508,-0.016469907,-0.03420538,-0.09863111,-0.09407815,0.04723169,0.02851802,0.028234422,0.02970515,0.036279712,0.06535948,-0.025351815,0.059243307,0.02768721,-0.026350597,-0.033282265,-0.026034568,0.018011998,-0.060189396,-0.08199051,0.016844837,0.03362152,0.07315141,0.029058456,0.0538915,0.0641852,-0.036121074,-0.10492972,0.034360267,-0.08413201,-0.08686015,0.044481285,0.0030671665,-0.02696655,0.0882945,0.04746948,0.08719314,-0.04247111,0.01675454,-0.06376593,0.049808003,0.06509649,-0.014275565,-0.04676982,0.07864413,0.024420423,0.07766326,0.08661843,-0.07085559,-0.010455077,0.038315706,-0.0547775,0.0749226,-0.06982803,0.06863531,-0.07449234,0.032734055,-0.024458665,0.019515656,0.07459028,-0.10623546,0.11025072,-0.0032108887,0.029172763,0.030084014,-0.006501389,-0.032934066,0.04516614,-0.07377246,-0.044613525,0.072444655,0.030728683,0.0007031796,-0.05320481,0.04513322,0.0636409,0.03052387,0.01653032,-0.016862413,0.029908044,0.06387494,0.051776703,0.07172344,0.08573251,-0.03745832,0.0013229517,0.0386134,-0.08075243,0.05067773,0.06585923,-0.07011253,-0.043086547,-0.072232656,-0.038292706,-0.0013148766,-0.035712708,0.061360784,-0.020149808,0.063385844,0.0030271425,0.025765385,-0.053453676,-0.0380965,0.0005159949,0.025509836,0.043072257,0.04839143,0.047106456,0.053403977,0.11762867,-0.04953131,-0.034951203,-0.06785395,-0.07125219,-0.034072347,-0.06814165,0.035471212,-0.019380644,0.07010693,0.07516623,-0.016320527,-0.039762165,-0.0030058974,-0.084643185,-0.13855213,-0.037183825,-0.030962482,0.036058597
-0.15198931,-0.09682765,-0.088552475,0.012931512,-0.017372102,0.1472586,-0.15863873,-0.011809177,0.052479763,0.01193981,0.089956954,0.048408493,-0.065027654,-0.15821795,-0.2601996,-0.18111525,0.025600504,-0.025469106,-0.33488315,0.25689697,-0.39733225,-0.509949,-0.08916397,-0.12588687,-0.34395283,0.27587184,-0.11675142,-0.3503979,-0.0021690077,0.058355432,0.10693879,-0.5545885,-0.022008441,-0.08080195,-0.2435294,0.043532144,0.11041197,0.1717187,-0.1587529,-0.0033388955,0.064681746,-0.4388003,-0.1389728,0.15859804,-0.04406727,0.036294673,-0.03478274,-0.47451994,-0.0018135358,-0.22027816,-0.051555887,-0.10527291,-0.07023258,0.18576887,-0.18367839,-0.47779533,-0.046420626,-0.28992826,0.009125987,0.05840878,0.10403128,0.12936345,0.20977694,0.06330097,0.29035476,-0.015892308,0.01595602,0.16880028,0.01863241,-0.10033059,-0.1829431,-0.10967827,-0.14040865,-0.07347851,0.021663636,-0.3264509,-0.06585727,-0.15305825,-0.18974555,0.049550757,0.03286182,-0.06873112,0.061537523,0.046004526,-0.10079461,-0.068352394,0.09191352,-0.31474152,0.0429959,-0.06625516,0.16662586,0.035820335,-0.2722163,0.47318327,0.19802956,0.1026058,0.24335828,-0.121539004,0.027338123,-0.010623861,-0.09064259,0.17591563,-0.31662518,0.09767997,0.17474617,-0.39671943,-0.38456953,0.29471037,0.15697795,-0.12169885,-0.2080958,-0.0064175026,-0.13623084,-0.27313003,0.01951535,0.32317665,-0.048601806,0.020892393,0.06551283,-0.16369212,-0.0054976474,0.2296496,0.1601634,-0.12262462,-0.22773375,-0.15455294,0.06799285,0.25493076,0.18620326,-0.1811586,-0.23280464,-0.6030912,-0.24542233,-0.5081423,-0.015815197,-0.12193651,0.28388304,-0.08570172,-0.14669524,-0.116285965,-0.04333957,0.027746879,0.0815694,-0.0469613,-0.5257452,0.13523877,0.0959094,-0.14825678,0.07300902,-0.005847487,0.2809691,-0.21501355,0.18791403,0.022634333,-0.29973444,-0.04769641,-0.11150937,0.016825948,0.08507782,0.12034518,-0.35313487,-0.39418828,0.103024244,-0.46156523,0.09796994,-0.0022053272,-0.07082325,-0.2068791,-0.0766582,-0.014213324,0.07816234,0.18305129,-0.42491892,0.3144342,-0.19417928,0.066193804,-0.1608981,-0.23251776,-0.28242868,0.3150982,0.22429474,0.045499954,-0.07165221,0.018198725,0.029841198,-0.07545543,-0.27380282,0.17105556,-0.05538171,0.12886398,-0.004158236,-0.42591512,-0.013997504,-0.03883435,-0.39651254,0.1342412,-0.08373233,-0.20671792,0.07178243,0.19053428,-0.046787024,-0.31014362,-0.17724018,0.24839245,-0.3147696,0.034072258,0.06137134,0.13477543,0.0021988498,-0.18703915,-0.11583255,0.060840994,0.21540703,-0.09817805,0.071391694,0.111226104,0.016037084,-0.25011575,-0.14442252,-0.30339283,-0.39413416,0.013023006,0.14761974,-0.11180219,-0.11287544,-0.53512055,-0.07827184,-0.15195788,-0.3567875,-0.11359087,-0.06452257,-0.1866745,-0.012607435,0.038719628,-0.029253693,0.13728443,0.00065118744,-0.34617594,0.39906946,-0.048639983,0.1672392,-0.07859727,0.037553553,0.35270545,-0.022024099,-0.017071642,-0.055706646,-0.25247082,-0.28788877,0.0066508893,0.34229407,-0.23658983,0.1263017,-0.06434894,-0.33714008,0.1677874
-0.5548588,0.0006211944,0.22524905,0.14115244,-0.005997529,0.19621314,-0.17675075,0.16721576,-0.013102334,-0.15757701,-0.04366425,-0.022102805,0.04868518,0.15599392,-0.3125747,0.208155,-0.215462,-0.073525295,0.06473417,-0.06310698,0.20699058,0.09226131,0.13514939,0.011380651,0.044676933,-0.0039215838,0.05849151,0.11126066,0.07926847,0.17005104,-0.20013505,0.05920353,0.02021837,0.029750546,0.064123146,-0.055656448,-0.1189688,-0.0023024245,-0.048481554,-0.021417592,0.13992465,-0.09907009,-0.4624098,0.11349551,-0.0710475,0.045352615,-0.027271891,-0.014134473,-0.27688962,-0.12980674,0.08448831,-0.14083096,-0.029758183,-0.09287387,0.058482252,-0.07194142,-0.066299565,-0.2073125,0.013931534,-0.037877053,-0.02838544,0.18521202,-0.12444879,0.1265559,-0.1966246,-0.051401015,0.016507382,-0.12925406,-0.0067131156,-0.23092274,0.33347818,-0.085415274,0.06420803,0.1033855,0.02678427,0.13690658,-0.0701184,0.13960862,-0.32986975,0.17247336,0.17474847,-0.008578745,-0.14561673,-0.093496755,-0.01797732,0.19377951,-0.113509074,-0.111680485,0.008437499,-0.0012130848,0.13302699,0.057956286,0.18137486,0.19729415,-0.028143428,-0.09754247,0.10811793,0.2413378,0.008425706,0.03616883,0.15498349,0.21807088,0.10794006,0.20865372,0.042677704,0.09865738,-0.1819154,-0.06413074,0.088434465,-0.046563916,-0.21106666,-0.01625928,0.18247142,0.1267903,0.013998338,-0.21620964,-0.16975217,0.18951283,0.18161184,-0.14608113,0.065764904,-0.16482536,-0.15187009,0.1584574,-0.28012016,0.03384353,-0.003918857,-0.42801124,-0.2690937,0.0064125345,-0.15117535,-0.25649652,-0.008180113,-0.21005201,0.12060154,-0.09009456,0.30635825,0.06320662,0.06424734,0.11658022,0.028131383,0.16491131,-0.04824327,0.033761974,0.21827611,0.109805375,0.03818891,0.020152261,-0.08364603,-0.050319422,-0.025883311,0.0065268925,0.23343708,-0.11913586,0.21156345,0.24857847,0.062770635,-0.122444905,-0.15571043,0.04331546,0.08715426,-0.022210082,-0.17337531,0.009332447,0.05983584,-0.007725425,0.16548285,-0.0095183,-0.08603019,0.13042688,0.055380303,0.1468414,0.21156786,-0.047166403,0.036871687,-0.047166545,0.015514545,0.15853508,0.0561154,0.057477556,0.09903699,-0.0693748,0.035032988,0.08630676,0.13260616,0.097943805,-0.23075366,0.11599394,-0.3289456,0.12338759,-0.009729339,0.25912336,-0.074621335,-0.18106045,-0.0020407094,-0.1092462,-0.09180306,-0.07698095,-0.045261346,-0.12411831,-0.08234114,-0.042552136,0.15773292,0.09096046,-0.2908374,0.016557287,0.063947074,0.053882707,0.15574919,0.019530416,0.114243455,0.21462455,-0.0064732516,0.050327063,-0.14303483,0.16193181,0.08634981,0.15239882,-0.36479896,-2.3128065e-05,0.058327194,-0.017462542,0.00012579278,0.03851763,-0.021480221,0.111994624,-0.089952536,-0.19116864,-0.114594534,-0.027505146,0.0009763971,0.13479817,-0.07912576,-0.10262923,0.074638985,-0.26332477,-0.17774619,0.030599654,-0.16106406,-0.021479372,-0.46393895,0.26236716,0.049674273,-0.068049096,0.100909136,-0.1936162,-0.09766839,0.1440619,-0.07709322,0.0072364444,0.0024301587,-0.41391024,0.029695544,-0.13260414,0.09507377,0.010915402
0.22603215,-0.053954687,0.05643234,-0.021807443,-0.036523797,-0.15085113,0.20237185,0.0751863,-0.12662685,0.21703978,0.027380792,0.023089936,0.09316163,0.28788844,0.16464016,-0.25483757,0.0011823176,0.025045557,-0.4071239,0.23867144,0.10483566,-0.2466716,-0.027306855,-0.10364738,-0.053762753,0.0012654873,-0.21087995,0.16400722,0.3523688,-0.05563821,-0.03453475,0.21833198,0.21443732,-0.11356557,0.18545677,-0.075099476,-0.21490511,-0.061914925,-0.028759891,-0.03567621,0.119793534,-0.29119587,0.17593521,0.021961413,-0.22395971,-0.0750938,-0.11178514,-0.3643461,-0.30781797,-0.26409653,0.42483115,-0.09155409,-0.01554707,-0.023921711,-0.043032914,0.046286,0.022799728,-0.06813419,-0.058258936,-0.05317953,0.027039336,0.041993868,0.25862896,0.11140049,0.16527167,-0.26732206,-0.20354156,0.10479717,-0.030981943,-0.43102515,0.045896966,-0.11855094,0.15702,-0.58247715,-0.20301925,0.01960209,-0.15591316,0.10984543,0.09657013,-0.100460134,-0.40385628,-0.19575478,-0.28454995,0.07034543,-0.050354518,0.093075335,0.08380794,-0.027625812,0.10801326,-0.14925274,-0.10152237,0.14293745,-0.3808077,-0.062570184,0.06944792,0.2125453,-0.09177126,-0.007312453,-0.010158926,-0.07202182,-0.003044285,0.4135387,-0.4827183,0.09536347,-0.017363258,0.05490042,-0.10068185,0.22715503,-0.56531215,0.014553579,0.11729922,-0.10140128,-0.049930036,-0.035372216,-0.09584309,-0.57071924,0.1824694,0.3898136,-0.24128413,0.3856581,-0.3203776,-0.14072715,-0.088417195,-0.21595107,-0.119003944,-0.0021802087,0.0429587,0.22950754,-0.13623972,0.2477254,-0.09884333,-0.097070515,0.03220188,-0.038771354,-0.04137517,-0.34526983,-0.041644234,0.16881262,-0.17047064,0.25925022,-0.110924385,-0.31156024,-0.01206536,0.033098653,-0.03156469,0.112672314,-0.056896567,-0.28655887,-0.0630438,0.03570051,0.013020585,0.022307364,0.13047083,0.045373727,-0.07887661,0.03830241,0.110547714,0.012622058,-0.0016537139,-0.021784805,0.14750597,0.039715048,0.029120833,-0.16423173,-0.0788518,-0.17863615,-0.24572001,0.12886365,0.06688754,0.07378808,-0.23464955,0.104453415,0.25600305,-0.120059736,0.20670445,-0.28834435,0.38252673,-0.3039905,-0.07632717,-0.20691285,-0.19575801,-0.2010985,0.025022844,0.33026835,-0.03453368,-0.10345474,0.1503405,-0.05732704,-0.08393876,-0.14797848,0.10126802,0.087802246,-0.26928627,-0.046770573,-0.057209074,-0.11368828,0.10667173,0.092976965,0.12531686,0.04502914,0.30555937,0.11410045,-0.033895906,0.106493555,0.11767156,0.26097867,0.034546975,-0.19728324,0.21454774,0.27413172,-0.32417825,0.31422123,0.20138195,-0.041066304,0.23174495,0.15589243,-0.27752647,-0.1745081,-0.44025832,0.12899394,0.2602412,-0.054129872,0.23889402,-0.029480264,0.023509504,-0.30535486,-0.03202207,0.22277164,-0.16481301,0.14966781,0.053823933,0.020865243,0.09887767,0.05422003,-0.31858623,-0.21367383,0.46261424,0.0064446195,-0.061434377,0.051412873,0.31070888,0.080372125,-0.096133046,0.3050846,0.05335464,0.14680457,-0.23667538,-0.12813848,-0.19173375,0.0022615169,-0.27070785,0.039342023,-0.093061924,0.016794683,0.04850416,-0.4166435
-0.3301848,0.08528425,-0.1102215,-0.18826045,-0.0073560667,0.13855064,-0.36950576,0.0032917266,0.056779675,-0.036872394,0.037374873,-0.12886328,-0.19813323,0.11020359,-0.087593585,0.26454493,0.034689236,0.050916344,0.09827149,-0.17701325,0.2194078,-0.12327973,-0.114583544,0.17502788,-0.23668122,-0.020386519,-0.13021083,-0.09139935,0.109205574,-0.07242996,0.10121039,0.06211794,0.057269208,0.017695602,-0.0905792,0.06895029,0.20001158,-0.03650341,0.23798008,-0.023551345,-0.10427368,0.011381612,0.0026220086,0.042201754,0.028883243,-0.0006125656,-0.04029921,-0.03408104,-0.17610426,0.10750947,-0.160173,0.14630415,-0.23678617,-0.027807675,0.20142771,-0.1005054,-0.00467691,-0.1994333,-0.115580976,0.21160208,0.072875015,-0.0115920305,-0.109524556,-0.012725728,0.022713706,0.060594417,0.31383562,-0.07964919,-0.109780446,-0.1941458,-0.0669687,-0.11181259,0.008832141,0.14633419,0.15079494,-0.08030866,0.0037456255,0.003177686,-0.13427648,0.04789981,-0.03537482,0.028597582,0.067711,-0.02799824,0.009246042,-0.014347513,0.19850361,-0.09812681,0.046339247,0.0130166365,-0.14039415,-0.055325188,-0.043814074,0.059148815,0.04551949,-0.33275193,0.05273289,-0.21767119,-0.07576281,-0.014794655,-0.17153305,-0.012974202,0.23746763,0.09259513,0.046193138,-0.04499114,0.098823525,-0.19198011,0.105795555,0.2700444,-0.053922523,0.059677705,0.014802488,0.2440841,-0.19006214,0.2369075,0.05682094,-0.034644373,-0.08056618,-0.13095225,-0.08247325,-0.07979848,-0.42652604,0.0273401,-0.1234371,0.11355773,-0.03335166,0.0709669,-0.0146370055,-0.0047138426,-0.050985012,-0.20138131,-0.21751115,0.16271144,0.14285107,0.042760435,-0.11249795,-0.1937872,0.034408864,0.019810691,-0.0018687936,-0.04000291,-0.016819866,-0.28773978,0.06190056,-0.21669,0.040579136,-0.027238345,-0.16919982,-0.003028857,0.008122867,-0.10580814,-0.025487049,-0.0009756963,0.067974105,-0.0005265828,0.18322109,0.32030684,-0.05173044,0.08734873,-0.05951048,-0.14699244,0.09762621,-0.118688144,0.008700057,-0.093984,0.057295807,0.072448656,0.15132801,0.10873188,-0.0906895,0.002926756,0.017059041,0.023409279,0.09951123,-0.2353263,-0.059166938,-0.10323103,-0.06319341,0.015116462,0.040910184,0.15288363,-0.15872684,0.122013725,0.112203285,-0.19680426,-0.080224276,-0.0893941,0.1322526,-0.11922943,0.0032288511,0.02569504,0.03153141,-0.21421771,-0.1191375,-0.06804218,0.067844786,0.21916689,-0.29503724,0.10682114,-0.15813507,-0.046076447,0.16278005,0.0069376673,-0.11418079,0.045897264,-0.11356061,0.07581305,-0.020786058,0.098410726,0.07249742,0.11142721,-0.07369606,-0.03762582,-0.157942,-0.08907997,0.085970886,0.21832581,-0.0072094323,0.0956949,-0.053618766,0.07625425,0.123552606,0.15079029,0.058969304,0.21147357,-0.105874926,0.009934242,0.020461803,0.017653925,0.033534463,-0.14045112,0.15779598,-0.083607204,-0.054228578,-0.15003902,-0.14509234,0.01724621,-0.10557286,-0.017355142,-0.11783694,-0.34402946,-0.14751245,0.08749084,0.11986847,0.1663319,-0.16922872,0.047439802,0.009493359,-0.16671056,-0.043630995,0.06392318,0.14102483,0.029294904,0.07533958,-0.18338205
0.039782584,0.10518729,0.13209635,-0.017902093,-0.10161602,-0.17594214,0.15233397,-0.062591724,-0.36679265,0.03511723,0.025456602,-0.08298895,-0.3103803,0.059751693,0.14232276,0.058718164,-0.05464048,-0.17652452,-0.062612616,0.014737038,0.10146785,-0.15797366,-0.077429496,0.099656865,0.23472118,-0.06385576,0.120750174,0.06011913,-0.051809877,0.13015422,-0.46310377,0.008760156,-0.24834365,-0.059126142,0.035718873,-0.09801119,0.098690584,-0.072219804,-0.29847652,-0.33923408,0.09599973,-0.31424168,-0.0509927,-0.045220304,-0.281149,0.015038144,-0.052814454,-0.35703358,0.269493,0.17037015,-0.2087919,-0.017181475,-0.3066915,-0.08227122,-0.082244016,0.17756166,-0.17149486,0.056953114,0.008704544,-0.25011772,-0.21696274,-0.26632673,0.04558308,-0.51158065,0.29830015,0.1718357,-0.33898482,0.05194556,-0.030872665,0.04660771,-0.18062718,-0.13936673,-0.08557238,0.052250925,-0.1393413,0.08004525,-0.09192012,-0.1742659,-3.187448e-05,0.13169044,-0.11600394,-0.12390659,0.01387828,-0.04056736,-0.13800667,0.04171097,-0.25464222,-0.09257754,0.041389097,0.026065791,0.103877015,0.2824515,-0.13796976,-0.024535723,0.15925565,0.0010877316,-0.040845457,0.010933899,-0.05968648,-0.04135965,-0.21800362,0.24412112,-0.46756116,-0.13188438,0.1282732,0.031163368,0.188501,0.14144953,0.115791984,-0.038295463,0.11312037,0.0052044713,0.0068948963,0.16011404,0.105370566,0.09207638,0.0759209,-0.2394828,-0.02913036,0.16431174,0.10881834,0.07052041,-0.07451717,0.121583045,-0.25214422,0.08985614,-0.19258073,-0.046850614,-0.011570278,-0.05395967,-0.18022408,0.107440844,-0.15429212,0.0814431,0.057668503,0.1819364,0.07424412,0.00065821427,0.1496188,0.0113830045,-0.12983738,-0.15701325,-0.03586106,-0.011217389,-0.2016072,0.05405651,-0.0025350004,0.24085882,0.07880897,-0.21274373,-0.16422704,0.12866938,0.14139475,-0.091394715,0.3323526,0.024607655,-0.23694693,0.18451592,-0.07951397,-0.03728049,0.06164354,0.22915547,0.040659145,-0.34979713,-0.19482502,-0.037852325,-0.07089697,0.19317266,0.05904374,-0.08680869,0.07314877,-0.038909674,0.066380575,-0.09585248,0.10949073,-0.21030486,0.06910244,-0.016096622,0.3211094,-0.2924829,-0.28389013,-0.31989768,-0.100901835,-0.18385568,0.14141625,0.29162505,0.10441089,0.23486933,0.06413572,0.007263081,-0.092265986,-0.06136137,0.26515642,-0.05101825,0.17725262,0.068910986,0.17727461,-0.38838696,-0.14522643,-0.07073558,-0.20441823,0.046634752,0.16860299,-0.22664955,0.09136651,-0.07450511,0.100035496,-0.20029268,-0.051903732,0.061202332,-0.12604739,-0.08758766,0.14801517,-0.27142525,-0.17091458,-0.009304856,0.07649782,0.18604551,-0.13470735,-0.027982946,0.057258047,-0.14578906,0.11937015,0.003093879,0.0371636,0.048181646,-0.063609436,0.12605837,-0.21987185,-0.32036617,0.14068525,-0.07141092,0.086255364,-0.24312422,0.06991581,0.018658878,-0.088187896,-0.17435162,-0.5134589,-0.13160607,-0.13956232,-0.25640136,-0.09143616,-0.23245199,-0.041367702,-0.08074821,-0.18277882,0.16462617,0.20074376,0.12834594,-0.03363696,0.027035572,-0.1872715,-0.06829644,-0.0033260928,-0.36921814
-0.08295597,-0.054070923,0.23096558,0.02288754,-0.0156233525,-0.4822904,-0.12091924,-0.32658654,0.3088852,-0.22781427,0.0012716572,-0.03251938,-0.05717859,-0.27813277,0.16621357,0.3213653,0.12348805,-0.33659682,-0.23159115,-0.053128432,-0.096972,0.07215347,-0.0439936,0.090569675,-0.045841448,-0.12343917,0.24587381,-0.085918285,0.2708072,0.012352076,0.08983098,-0.15081891,-0.20203082,0.023638714,0.084334105,-0.092311375,0.11685928,0.08603746,-0.025992818,-0.18740965,-0.34408748,-0.351751,-0.1842306,-0.1956422,0.082926825,0.021155061,0.014878616,0.10567966,0.19100983,0.039502487,-0.008035352,-0.15393727,-0.08381437,0.270229,-0.079909176,0.1334847,0.023123847,-0.07608091,0.013791828,0.0005052697,-0.2570264,-0.037387162,-0.12932938,-0.3783239,0.077595934,-0.0016710424,-0.10085424,-0.021587363,-0.123282075,-0.32312357,0.042591885,-0.20148897,-0.14814849,-0.22804269,0.047026176,0.04971161,0.0034670841,0.014453606,0.07364547,0.06154945,-0.10392154,-0.020579968,0.008248355,0.08893235,-0.011837042,-0.09272161,0.05416858,0.14779368,-0.042443216,-0.15008722,-0.17126727,0.19784795,-0.4814757,0.026125485,0.11872779,-0.10703048,-0.13058724,-0.039723095,-0.021024788,0.006713148,0.024040768,-0.07395911,0.039245583,-0.04019416,-0.07252691,0.05573819,0.00422058,0.055935197,0.08530252,0.16878746,0.07255862,-0.021642882,0.004947776,-0.058097374,0.09741422,-0.19602771,-0.14629981,-0.09378412,0.25997114,-0.25315037,0.011635071,-0.028824821,-0.036586877,-0.19542342,0.051666297,0.17229156,-0.14125039,-0.039119456,0.20888077,0.049635567,-0.034379333,-0.0048856027,-0.110864945,-0.12923343,-0.1211485,0.18572125,-0.20730086,-0.416964,0.058915135,0.024704484,-0.15959956,0.077245,-0.04037792,-0.06546327,-0.06348958,-0.14898919,-0.32329923,0.12688568,0.16273037,0.0060142605,0.011647877,-0.124511264,-0.0712027,-0.090722986,0.08249012,0.14590116,0.02332164,0.054125,0.058855128,0.09417318,0.018991508,-0.14471166,-0.082380086,0.22617108,-0.039956328,-0.564495,-0.027041633,-0.07262035,-0.24253973,0.08061352,0.22417463,0.11809113,-0.041428864,-0.054686103,0.020999065,-0.08973887,-0.055225372,-0.20748758,-0.04457432,-0.035897147,0.098474994,-0.30405474,0.049386606,0.04256773,-0.07214996,-0.14697824,-0.020982921,-0.08034597,0.0989427,0.10442132,-0.21102874,-0.03878428,-0.026481746,-0.06966299,0.06786996,0.041116733,0.19788806,0.10446243,0.06795723,0.010572093,0.26998875,-0.1817125,-0.03348788,0.11289908,0.19911861,-0.09964531,-0.08488986,-0.045939986,0.23593946,-0.072795056,0.029444337,0.025201213,0.0384615,-0.028357176,-0.015053453,-0.23139471,0.08371521,0.2575097,-0.06776605,-0.004203798,0.123070225,-0.027289402,-0.07024686,-0.032943737,-0.17875937,-0.3248989,-0.17710915,0.07962888,-0.15857092,-0.04944242,0.17826732,-0.018854406,-0.022856776,-0.011365799,-0.10751833,-0.054093514,-0.03174135,0.20647529,0.06714909,-0.05297527,0.14947979,-0.19251828,0.034848176,-0.06252947,0.1396969,-0.28723332,-0.07004991,-0.12575382,-0.111290894,-0.15801534,0.03489417,0.015597971,0.013515194,-0.096743256,-0.25163808,-0.058130622
0.0557191,-0.038905166,-0.046671152,0.054776676,-0.0283615,0.062294014,-0.038879603,0.0961008,-0.0771066,0.010014512,0.083650745,-0.039768584,-0.06228921,-0.0105121955,-0.07848139,-0.047573216,-0.05423182,-0.02737442,-0.057248212,-0.005008124,-0.014697641,-0.015411079,-0.013847582,0.09288707,0.06487587,0.002389496,-0.09322055,-0.08362689,0.0027425366,0.04858559,-0.04738045,-0.07297535,0.07960787,-0.0007143691,-0.09117691,0.002639657,0.009375731,0.003122291,-0.015794277,-0.015813455,0.033996385,-0.040703654,-0.013208151,-0.044951383,0.07520408,-0.006339431,-0.06447515,0.029069036,-0.03153817,0.04865081,0.07476027,0.04356075,0.000752911,-0.08571732,-0.05175475,-0.005582057,0.090806685,0.08337841,0.061858617,-0.092540994,0.0044878386,-0.0052164346,0.056784857,-0.041607074,-0.035928976,0.0087376,0.04123581,-0.015935682,0.034192897,0.008824199,-0.011497848,-0.027620707,-0.08261609,-0.08729057,-0.021700822,0.00092041807,0.03446733,-0.035953395,0.004978116,0.044275906,-0.06151409,-0.008388993,0.0039224867,-0.031051477,-0.08184712,0.020243606,-0.083365366,0.034302622,-0.043896616,-0.059679873,0.059876274,0.015353762,0.00014285743,-0.03596983,0.0052776723,0.06601885,-0.027746025,0.034911096,-0.010557719,-0.0877915,0.061771534,0.037583113,-0.045493286,0.08508471,-0.027018405,-0.010511836,-0.037146114,-0.0046638623,-0.06251741,0.085079506,0.034747988,0.08126611,0.021504497,-0.057216477,-0.07076675,-0.03294912,0.012188014,0.046959292,0.0022242144,-0.006703017,0.024670996,0.081499554,0.03807553,-0.027279189,0.07078793,-0.0037986916,-0.03084971,0.05154998,0.08817092,-0.040654477,-0.07231642,0.04671613,-0.045979973,-0.009499958,-0.0044502243,-0.086168535,0.06078943,0.0279376,0.0693823,0.09459711,0.08317415,-0.023872778,0.061377846,-0.060489703,-0.04488523,-0.07391695,0.053192772,0.034877844,0.023437142,0.039330952,-0.06414352,0.06609405,0.058121808,-0.040471848,-0.01454439,-0.020621322,-0.08549146,0.036447313,0.037917934,-0.019646078,-0.0036588314,0.039623257,-0.017463835,-0.093576066,0.086598665,-0.041792266,0.07520904,-0.011243053,0.07558973,-0.02376414,-0.05475668,0.076183036,-0.014835691,0.025690252,-0.06505124,0.06540465,0.0708752,-0.075651005,0.053849336,-0.08110373,-0.07186575,-0.0041037127,0.0563815,0.020202078,0.007543049,0.018260345,0.018262535,0.04445947,0.061936103,0.088912316,0.018690929,0.087496914,0.014318548,0.028565593,-0.01322153,-0.040265854,-0.07708945,-0.03141567,0.055245645,0.08167387,-0.0802753,0.05215601,0.05708029,0.08638879,-0.0396279,0.072320975,-0.019197892,-0.0068954113,-0.055679567,-0.0074780416,-0.016672242,-0.04479021,-0.030802341,-0.020483196,0.01781147,-0.06931075,-0.02923672,-0.07321749,0.08174386,-0.012148445,-0.06704764,-0.027775742,-0.055220228,-0.016326081,-0.0058182315,-0.086063445,0.026491173,-0.052406233,-0.027654655,-0.0021163223,-0.04055847,-0.086422704,-0.048270997,0.05604618,-0.018052697,0.08110728,0.06257886,-0.06300725,0.057954423,0.008907735,0.08739788,0.06251214,0.04968273,-0.03894893,-0.004625529,-0.06380011,-0.059512466,-0.0352998,-0.020781964,0.073661245,-0.03428698,-0.07211889,-0.008995384,-0.05857573,0.024874404,-0.013956696
-0.15776019,-0.071546055,-0.107801124,-0.15493427,-0.031061497,0.12960851,0.4310202,0.2567299,0.10050223,-0.0983227,-0.052238222,0.059099607,0.041475028,-0.017144598,0.35526344,0.22045754,0.14305326,-0.43269345,0.017188814,0.011286307,-0.27605048,-0.012914529,-0.26703456,0.067560114,0.032123115,-0.14727855,0.13588174,0.073302716,-0.04364499,-0.22002472,-0.09706945,-0.11038804,0.04019354,-0.01173288,0.006524918,-0.037256114,-0.08635627,0.13952817,0.27845275,-0.075057,-0.21889266,-0.30488604,-0.3083145,-0.017502332,-0.06738562,-0.079646,0.021901594,-0.10135599,-0.030081164,0.07486621,-0.19561532,-0.2955173,-0.024035105,0.18668179,0.11920291,0.24430287,0.0056349733,-0.17444411,-0.04283816,0.22166613,-0.27308506,0.020502284,-0.06985181,-0.08889786,0.008338109,-0.19646531,0.102734834,-0.30259517,-0.23363225,0.09167596,-0.26423463,-0.09056371,-0.0919231,-0.037890118,-0.34020585,-0.06221424,-0.079257764,0.17141373,-0.0026177987,0.042097293,-0.12526114,-0.061019648,0.017877288,0.07322352,0.026549658,-0.07838332,0.017838417,-0.011868764,-0.2708281,0.08558072,0.22720014,0.14528571,-0.3894831,-0.33910728,0.045132812,-0.035464082,0.16327827,0.11853034,-0.037706893,-0.10440762,-0.041527618,0.18827872,-0.32923856,-0.14167796,-0.029030366,-0.07545515,0.123287104,0.08533312,0.20564368,-0.38225254,0.1621124,0.049536172,-0.014927719,-0.2336692,0.055594306,0.12218964,-0.12879024,0.0503618,0.008118924,-0.121178,0.15760392,0.013717087,-0.08996171,-0.064181924,-0.16024251,-0.042695794,-0.07668317,0.1527805,0.16383441,0.08590352,-0.12069477,-0.14685944,-0.035054237,-0.16136837,0.278707,0.102458276,-0.029170245,0.058056664,-0.29215756,0.0012741052,0.022703595,-0.17744379,-0.013566396,0.03174564,0.003261519,-0.12277876,-0.12153581,-0.017062731,-0.16213726,-0.0960196,0.07360004,-0.19659835,-0.17121111,-0.012442656,-0.13737525,-0.25635532,-0.053160064,0.0630153,0.03674274,0.004041929,0.0349395,0.11233946,-0.008546834,-0.10865318,0.08449645,-0.16688478,-0.20917195,0.16224042,-0.03524088,-0.22387744,-0.16338204,-0.084291734,0.11390802,-0.054514956,-0.30876824,0.0664726,0.12913027,-0.25069648,0.005811659,-0.078614034,0.1464753,-0.2571393,0.008677948,0.17953426,0.12065175,0.030144775,0.3111419,-0.007401078,0.1306039,-0.06324693,-0.37699392,0.017443977,-0.013459445,-0.35000032,-0.06348138,-0.014768989,0.17854457,-0.35075417,0.021535045,-0.37533042,-0.14614561,0.00063360034,-0.09283744,-0.13453417,0.09237316,-0.16679156,-0.012023394,-0.39137143,-0.53873074,-0.006691261,-0.053084806,-0.027668701,-0.10073411,0.09663619,0.0802471,0.12864044,0.04340993,-0.32701388,-0.10700297,-0.026250135,-0.031478822,-0.28894153,0.15129264,-0.06177805,-0.18086186,-0.081983685,-0.077053174,-0.15630308,-0.26199028,-0.03280653,-0.042645074,-0.20899607,0.040284615,-0.07359178,-0.29783288,-0.20874274,-0.031806104,-0.11090934,-0.049847666,0.043069225,-0.080488585,0.009337357,0.032560714,-0.3359538,-0.08462697,0.06411244,0.0030950618,0.37020737,0.29309836,-0.25746098,0.052285213,-0.15134276,-0.017602608,0.02803976,-0.3284339,0.00088474306
-0.10128397,-0.10937831,0.074157216,0.13179564,-0.00715164,-0.2563154,-0.13242765,-0.11545707,0.17499855,-0.18689981,0.052159645,0.03918775,-0.14417586,-0.46281695,0.081431575,0.21185896,0.18031926,0.41305047,0.030288475,-0.19237569,0.13084508,-0.12272992,0.02213895,0.0033859708,0.22815962,-0.028977674,-0.15468313,0.016062906,-0.008999772,0.23609719,0.38866234,-0.112839945,-0.22670895,-0.048144225,-0.11249742,0.0642822,-0.20093672,-0.106752165,0.23198041,0.19434902,0.18203312,0.12370985,-0.029431101,-0.23597443,-0.018301198,-0.021644935,0.05834434,-0.04524648,-0.27451977,-0.13288993,-0.3480538,-0.05768985,0.20757662,0.18193474,0.020031579,-0.15570724,-0.07310434,0.17618845,0.011072471,-0.009054949,-0.08844342,-0.25572515,0.20923352,0.27884933,0.07231954,0.24017084,-0.11131183,0.07275351,0.045043573,0.077054344,0.13365102,0.13867022,0.25585765,0.10267111,0.25123885,-0.035405207,-0.14563246,-0.057237174,0.19999008,0.24828681,0.10286991,0.057020616,-0.35583466,0.023025028,-0.07649347,-0.2563806,-0.28977233,0.3085356,0.07207553,0.16657014,-0.3676775,0.011532323,-0.14791419,-0.1296389,-0.26894742,-0.18592018,-0.08241058,0.18392088,0.03554793,0.06534698,0.10781399,0.4713641,0.17490545,-0.20126478,0.1268551,-0.08107398,-0.31490985,0.08350355,-0.2081601,-0.040642582,-0.09538766,0.03448542,0.118376136,0.06395469,-0.006186371,0.23691882,0.18828887,-0.12695011,-0.06332599,0.20446466,-0.027215391,-0.23857185,-0.2155051,-0.35680377,-0.008494331,-0.27616364,0.085765235,-0.32969582,0.32404724,0.07987097,-0.30728903,0.11881224,-0.27867922,-0.0076620164,0.24371964,-0.16786034,0.16123502,0.228098,0.15808162,0.12699027,0.01998844,-0.2604288,0.029802607,0.0856886,-0.22378583,0.22531413,0.12922744,0.1337348,0.2784053,-0.18930326,-0.01902293,0.1260266,0.00812947,0.015174552,-0.22869594,0.2534018,-0.15921336,-0.13156715,-0.001722663,-0.016716348,0.03784666,-0.054146644,0.1317621,0.021699032,-0.18214792,-0.48499015,0.22990835,-0.2529586,-0.040983766,-0.14289519,0.16278346,0.024123807,-0.093035065,0.006952888,0.2775246,0.018945554,0.007927109,0.017543735,-0.029192518,0.22426906,-0.3866822,-0.076369196,-0.062134508,-0.02169706,0.28168234,0.3396773,-0.43317974,-0.2318035,-0.10291045,-0.123852536,-0.21230032,0.17396668,0.20972988,0.05421568,0.33784527,0.27478045,-0.018964192,0.012630749,-0.1406484,-0.21368244,-0.15883732,0.049162928,0.19601843,0.096254304,-0.07601394,0.16759893,-0.06901933,-0.019750457,0.2240431,0.18079357,0.2945308,-0.18192546,-0.13920856,0.13798776,-0.026091946,-0.33851147,0.040828224,0.111946136,-0.44016612,0.1387264,-0.013996925,-0.032368656,0.08806731,-0.026142044,-0.41812402,0.3084372,-0.043730173,-0.09919639,0.0609961,-0.07538514,0.16472486,-0.21340314,0.15341248,-0.10514513,0.26938918,0.07378259,-0.08107968,0.07349892,0.026503056,0.034214973,-0.19154468,0.07948809,-0.0010348785,-0.015856277,0.14612928,-0.2060775,0.050368957,-0.010668203,0.16802622,0.066382945,-0.021875547,-0.032687493,-0.13054967,-0.058379978,-0.09293666,-0.1573518
-0.18489492,0.10889393,0.04553229,0.15250605,-0.0021092969,-0.17083359,0.0018875893,0.08775157,-0.20165315,0.1610901,-0.05153364,-0.06615098,-0.005995514,0.0021952705,-0.040206876,-0.13081165,0.16410342,-0.18214956,-0.13890627,-0.07989792,-0.07194293,-0.33825624,-0.080617815,-0.23620132,0.05065747,0.065104835,-0.013504866,0.031673767,-0.2648295,0.21214482,0.1545233,-0.27411845,-0.1633691,-0.035327315,0.054373506,-0.043312266,0.05582389,0.023970203,-0.07819717,-0.20727198,0.105040394,0.13598822,-0.043598566,-0.12922813,-0.001962958,-0.08274242,-0.06439423,0.068659164,-0.12431807,-0.07147714,-0.14724988,-0.26133218,0.013520364,0.06956563,0.06760824,-0.06359682,-0.200944,-0.13885117,-0.042342372,-0.27072912,0.059271343,-0.14386182,-0.3595503,0.21305527,0.047028273,0.21378428,-0.2420593,-0.107815884,-0.13398975,-0.43067008,0.274524,-0.1338947,-0.23361099,-0.24990158,-0.041229215,-0.13051666,0.018884052,0.0645475,-0.3546105,0.2518737,-0.43043312,-0.261861,-0.16847476,-0.12840404,-0.03868568,-0.25697687,-0.11767701,-0.28371468,-0.13981046,-0.07150924,0.065315574,-0.12929997,-0.13562132,-0.04421513,0.07907953,-0.114293955,-0.4811668,0.23679627,0.02259184,-0.08169477,-0.017061222,-0.10424004,0.014370513,0.106219016,0.0588788,-0.10814617,-0.0058056396,0.1153886,-0.055878256,-0.062561534,0.18734807,-0.11246651,0.22171196,0.11135148,0.124328636,0.117532,-0.031696487,-0.21458225,-0.28627622,0.13235265,-0.3560458,-0.27460033,0.21129693,-0.3537708,0.09023362,0.085433416,0.21060781,-0.11823862,-0.2247101,-0.09353501,0.13658538,-0.05186149,0.10798834,-0.08416619,-0.04604709,-0.23469016,-0.048998415,0.07709215,-0.1021917,-0.2678832,-0.07635459,0.26239836,-0.04289325,-0.045236547,-0.010459404,0.06872868,0.050882675,-0.10891125,-0.07348069,0.21656416,-0.08570492,-0.03478525,0.037605263,-0.017467009,-0.13508373,-0.038618732,0.02496488,0.14440848,0.06057361,0.111655876,-0.12800656,0.04252179,-0.22294499,0.051975243,0.1762671,-0.19746785,0.008279577,0.078066416,-0.4953076,-0.035639256,-0.18250388,-0.020627864,-0.12679526,-0.08464281,0.17169759,0.13912652,-0.035140213,-0.51739275,-0.07425573,0.15401316,-0.014665625,0.025634013,-0.03862112,-0.012972808,0.17577605,0.07198083,0.018616583,0.05901879,0.15541404,-0.16167682,-0.4603831,-0.156785,-0.1652541,0.1712,-0.22392353,-0.0051526236,-0.041113406,0.16027036,-0.024944324,0.05438179,-0.07146842,-0.42781785,0.027233154,0.033863924,-0.08698288,-0.01554854,-0.08375859,0.21235006,-0.03415177,-0.39491194,-0.066223696,-0.25759724,-0.14756462,0.10526261,-0.21121836,0.0022340715,0.14794904,-0.12718956,-0.18913102,0.15231274,0.12724224,0.22568004,-0.05039929,0.12013809,-0.09254305,0.12386107,0.034427542,0.22984353,-0.12959188,-0.052606724,-0.17592481,0.2734494,0.10998397,-0.23665217,0.15415874,-0.28882083,0.14832193,-0.018339887,-0.057101477,0.004994134,-0.28888807,-0.28519577,-0.04726616,-0.1422956,-0.041129623,-0.029294908,-0.058265936,0.21004048,0.14470726,-0.09408553,0.05343604,0.15379287,-0.7513605,-0.0011929634,0.09900187,-0.28636092
-0.11008846,-0.19683181,0.011579115,-0.15696785,-0.15869267,-0.18070759,-0.42138317,0.038812004,-0.1158954,-0.15027058,-0.04066712,-0.006624574,-0.23384017,0.109583996,0.04519512,-0.06639332,-0.17827421,0.17861041,-0.090109125,-0.18063177,-0.07718865,0.13494396,0.082238406,-0.00421533,-0.22821997,0.10351867,-0.028385658,0.060785927,-0.1911912,-0.08233382,0.048856102,-0.24941424,0.065995544,-0.116986275,0.05960506,0.10026477,0.050106823,-0.05436903,-0.018773193,-0.47879827,-0.13733685,-0.15353844,-0.011933399,-0.15758291,-0.063133225,-0.112137,-0.050044637,-0.1383685,0.12973881,-0.09892636,0.058769327,-0.19653076,0.12087941,0.0074597816,0.08122355,0.00049747515,0.043521848,0.026236663,-0.042817913,-0.038247164,-0.36896428,0.0064662835,-0.019383473,-0.28157985,-0.17852348,0.025629701,-0.1648615,0.05522743,-0.14973292,-0.04727675,-0.03672708,0.09543507,0.14582959,-0.12869197,0.10748944,-0.056898538,0.0965123,0.099928476,0.12059983,-0.016029462,0.18703005,-0.051272642,-0.17958868,0.0931132,-0.08241118,0.12271855,0.20834179,-0.30635405,-0.033962853,0.08905021,0.0008738129,0.02673205,0.027138982,0.19034971,-0.12883785,0.067067035,0.09909885,0.14530441,0.02991965,-0.04967391,-0.300348,-0.096761085,0.1462319,-0.13039136,-0.35951117,-0.1278463,0.059985112,-0.17415668,-0.27363566,-0.031910006,-0.026486188,-0.02849746,0.03663781,-0.047751237,0.13856362,-0.15588968,-0.026559433,-0.056034055,0.112331994,0.095271096,-0.064211376,0.017910756,0.099143304,-0.039138712,0.19821271,0.11763925,0.12631387,-0.27548352,-0.0378862,-0.22697194,-0.07438967,-0.07734579,-0.0081659015,-0.08607493,0.108099066,-0.070720285,-0.020682843,-0.07554907,-0.107880145,0.102645814,-0.05060044,0.0700174,-0.09214311,0.058156136,-0.08482538,0.029853284,0.060995333,-0.12611216,0.0594797,-0.18999213,-0.09033284,-0.262359,-0.18597752,-0.06643042,-0.016673021,0.037223004,0.13864079,0.008545294,-0.024607927,0.042015914,-0.15504058,0.14352411,0.04799271,0.10983907,-0.1227758,-0.046809506,0.035143226,-0.2893821,-0.069687866,0.28978187,0.07573812,0.096490525,0.037533287,-0.023792587,0.06855268,0.034937777,0.03846489,0.008453969,0.09830938,-0.10355075,-0.11351377,0.012798321,-0.0024181972,-0.016406164,0.0448212,-0.03829293,-0.06516317,0.07365469,-0.022349047,0.07849579,-0.043151945,-0.12784046,-0.05363762,0.10436062,-0.08246915,-0.049053535,0.12569481,-0.1716763,-0.30881864,-0.038319737,-0.011801268,-0.32593897,0.002621388,-0.048519146,-0.031707086,0.2068259,-0.08512511,0.17317745,-0.23818588,-0.05227287,-0.0041625104,-0.11715028,-0.12718125,0.15806295,-0.0568792,-0.0019638885,-0.10095973,-0.26040435,-0.24370828,0.04093441,0.10778873,-0.08551527,0.18563245,-0.15364364,-0.0695962,-0.21731047,-0.07894037,-0.050781514,-0.26018244,0.10889583,-0.0039849514,0.1413898,0.20736372,0.06020228,0.14094849,-0.08496069,0.07007812,-0.04039843,-0.0020620122,-0.14442648,-0.090723336,0.108789556,0.030880367,-0.14000891,0.10848925,-0.24063586,-0.10041977,-0.011258351,0.1094793,-0.27658916,-0.23825127,0.071249954,0.15587188,-0.11738687,-0.17784026,-0.11397368
-0.20443167,0.010525473,-0.12351641,-0.04929199,-0.09067571,-0.1238829,0.05935362,-0.08778627,0.08106416,-0.011828992,-0.0669876,-0.0485494,0.030457405,0.08789237,-0.1655348,-0.021763178,-0.00792048,-0.09095169,-0.05881685,-0.14212142,0.20851769,-0.20461327,-0.27831343,-0.081501074,-0.078105465,-0.055507984,0.014391509,0.19127493,0.137349,0.14832044,-0.19505875,0.12766883,-0.23391059,-0.05687922,0.092296585,-0.12527338,-0.053647954,0.10671423,0.2377091,-0.20024092,0.18724489,0.110829726,0.056175705,0.0880102,-0.013109713,-0.005369617,-0.09590078,0.08542527,-0.07709735,-0.012574871,-0.025090586,-0.19298723,-0.1739872,0.16776894,0.10537594,-0.08779505,0.17890649,-0.14421712,0.031251155,0.036735162,0.16546121,0.0018152284,0.10840456,-0.30948722,0.10804893,0.01702605,0.12063503,0.24350664,-0.14018156,-0.045519706,-0.22057901,0.024539242,0.16159749,-0.2851189,-0.35681733,-0.1172591,-0.029621718,-0.071070045,0.078236096,0.07764263,0.07298829,0.024688236,0.14976974,-0.07507017,-0.0033373786,-0.20414458,0.024916096,-0.05973226,0.03203787,-0.07090942,0.08531135,0.055104382,0.11997534,-0.04236436,0.081855945,-0.1329338,-0.1416557,-0.1848712,0.044896822,0.002590714,0.0554144,-0.10649975,0.13412431,-0.006285562,0.07219025,0.042732656,0.14489187,0.12189486,-0.039459266,0.15895489,0.14665589,0.015519458,-0.019248376,-0.11470546,0.01803415,0.045394577,0.1789846,-0.0118817575,0.05122043,0.1691646,-0.052638073,0.014914326,-0.18457341,-0.064238116,0.05494382,0.08441855,-0.16509789,-0.10586857,0.13193996,0.14919421,-0.12734388,-0.07912533,-0.114294276,0.105401516,-0.0039652195,0.096550286,-0.35307828,0.19921722,-0.13424444,0.13631923,0.018648943,-0.14024313,-0.046477742,-0.09559165,0.03469646,0.03509648,-0.041649,0.108549155,0.039121486,-0.013998703,-0.13285583,0.081201814,-0.32729325,-0.0042716255,0.32987666,-0.026865812,-0.06801146,-0.013936913,-0.08582717,-0.07837607,0.09505961,0.20444562,0.14158446,-0.17304535,-0.02455566,-0.08413587,-0.047286544,-0.009149184,0.07726847,-0.36866453,-0.06550437,-0.099452086,-0.1986627,-0.010876418,-0.07033997,0.08881419,0.11585119,0.15465781,0.033019926,-0.08333461,0.0062909196,0.09930719,-0.04090681,-0.031221827,-0.019259874,-0.08209337,0.15421303,0.016389092,-0.06663124,-0.03414779,-0.046522945,-0.21186703,0.09245929,-0.19832157,-0.05845642,0.16291048,-0.1263533,-0.18392414,-0.016263738,0.019305134,0.1544663,0.035715465,0.13188219,-0.067250915,-0.036064852,0.04285866,0.17132965,0.06917054,-0.10055214,0.19802816,-0.016494302,0.31709814,0.12074594,0.13606806,-0.24043049,-0.13505495,0.1517823,-0.0041000657,-0.30562994,-0.08689786,0.20783596,0.077789396,0.092787385,-0.14678113,0.12432306,0.10923245,-0.07684158,-0.06303399,0.012750149,-0.038434427,0.092093006,-0.14107923,0.0071975747,-0.37190115,0.068826325,0.22301391,0.25082192,0.18225665,0.001519001,-0.05791734,-0.1703114,-0.11691147,-0.049151182,0.20218784,0.011799267,-0.00066809065,0.068513386,0.10015484,0.048805516,-0.20286003,-0.025401015,0.16047066,0.08514259,-0.07187808,0.056033984,0.06060552
-0.029366944,-0.06456575,0.040569223,0.039148696,-0.06805757,0.04771685,0.06746167,-0.01997682,-0.004508526,-0.056593217,-0.007062714,0.046629623,0.06506425,-0.0775689,0.045460477,-0.013310928,-0.050796844,-0.034828313,0.070807785,0.09690887,0.05975731,0.07877215,-0.06391363,0.025091615,0.011956561,-0.08237136,-0.055629905,-0.09116413,0.07598819,0.06808368,0.05763007,-0.049987152,0.0422515,0.069573164,-0.0040358356,-0.030497257,0.077987045,0.015560436,0.019668184,0.044202782,0.019263148,0.08136075,-0.047511086,-0.06256222,-0.07134447,0.014285423,-0.032694194,-0.06467313,0.058963757,-0.06981372,-0.07347427,-0.026680686,0.092201576,-0.034176257,0.07776038,-0.07972558,-0.054594155,-0.018985385,0.04913116,-0.06641126,0.05293369,-0.013613747,0.022775268,0.009570427,0.028173756,0.008283815,0.0007498156,-0.09024631,-0.06583256,-0.045858495,0.07422985,-0.05318628,0.078468315,0.08022846,-0.0036828457,0.03465606,-0.046067324,0.016448524,0.015699549,-0.026372047,-0.010064084,0.047718376,-0.034476366,0.051279303,0.017573923,0.017301144,0.050998814,-0.0001661851,-0.072418705,-0.079353124,-0.035720035,-0.049492892,0.041388255,-0.061805703,-0.0027777231,-0.06997657,-0.044219304,0.024367854,0.058415473,0.01349825,-0.0059245955,-0.017541224,-0.013023071,-0.08075768,-0.08946351,0.069871925,0.04206954,-0.037321996,-0.037737865,0.07785373,0.09580579,-0.07649341,-0.06875388,-0.10790855,-0.024775151,0.10798204,-0.08083742,0.054590974,0.02185318,0.0035876245,-0.08485577,-0.06624203,-0.014971696,0.076387584,0.011530477,0.0076376824,-0.040435057,0.038696535,-0.07703957,0.09004362,-0.011664401,-0.05342772,-0.04970859,0.07387739,0.012228478,-0.07520293,0.08166134,0.055233262,0.015996234,-0.03152644,-0.07346582,0.07245519,0.015475892,0.07550889,-0.02898957,0.053185515,0.046604767,0.04501967,-0.062673286,-0.050202332,-0.033433694,0.010667048,0.05030612,0.029994387,0.028185,-0.069675595,0.058756094,-0.015714167,-0.02915688,0.0944908,-0.038417198,-0.0056907493,0.04085282,-0.016993547,0.08866989,0.051356792,0.059467737,0.0095326835,0.011013983,0.01989676,-0.04115312,-0.01672168,-0.03355386,-0.032972638,-0.038079683,0.065972805,-0.015851663,0.017858215,-0.016326096,-0.03271527,-0.014467492,-0.029922927,0.06825293,-0.070636116,0.062183935,0.04606027,0.007924419,0.07556014,-0.0048672217,-0.07479883,-0.03912133,0.031721078,-0.092288285,-0.0011219258,0.017843045,0.00336658,-0.024873173,0.040520266,0.01125221,0.0362263,0.023194402,-0.026125107,0.044776294,-0.036079373,0.070871115,0.0928267,-0.001170012,0.063191965,-0.06394751,0.057316747,-0.018592866,0.09354376,0.025134318,0.039961055,-0.044422753,-0.008635064,-0.006101004,-0.052693773,0.015888672,-0.0061661387,0.05441244,-0.010677604,-0.043580174,0.06870088,-0.13852498,-0.02149003,0.019570883,-0.076533996,-0.045451876,0.076443784,0.066881336,-0.009642235,-0.036563758,-0.07746405,0.079196356,-0.04603312,-0.042250745,-0.0069612158,0.070482984,-0.0066651804,-0.043441556,0.072803594,-0.012192136,0.080109276,0.048924133,-0.004758662,-0.07831731,0.07366657,-0.09032382,0.050568245,0.028007433,-0.09763537,0.01268445,-0.024117962,0.026855903,-0.06270266
-0.004052126,0.07373579,0.050540484,0.016210642,0.049863465,0.023562398,-0.06722862,-0.040006515,-0.015183673,-0.086828284,0.027330166,-0.045573264,-0.04385015,0.009495697,0.03870433,-0.08662789,0.041679412,-0.0024797893,-0.08584541,0.047066964,0.05871999,0.045458972,0.028111756,0.0037897537,-0.06985905,0.07512822,0.021900669,0.0078104227,0.05551672,0.022993455,-0.051285572,-0.03899586,-0.058793012,-0.0652134,0.028831294,0.06596025,-0.050627116,0.037597183,-0.07457513,-0.052393477,-0.095334925,-0.0818853,-0.04727551,0.0200096,-0.08326912,-0.07070528,0.06978644,-0.007918158,-0.055131495,-0.031204853,-0.027917536,0.050047003,0.00453125,0.047305774,-0.05936084,0.056185428,-0.04346733,0.03522654,0.06581599,-0.04224342,-0.06611514,0.012254426,0.060513187,-0.09502757,-0.025641004,-0.010631868,-0.06303247,0.080105305,0.0071242675,0.04308913,0.07095434,0.07681185,-0.024700288,-0.0025786676,-0.05298519,-0.043020647,-0.1223857,0.004715174,-0.11112196,0.040136464,0.035222914,-0.041804682,0.034233183,-0.05406519,0.026374413,0.022462936,-0.026536956,-0.08024242,-0.082374126,-0.014539809,0.04619923,0.056913666,-0.06274061,-0.050056778,-0.0011186453,0.05292756,-0.037871275,0.017332092,-0.0043427865,-0.014880084,-0.01841197,0.0013109903,-0.06330685,0.07842519,0.069157355,0.036505975,-0.08439574,-0.048233557,-0.015125237,-0.03618249,-0.023531161,0.016243136,0.010476082,-0.06734166,-0.02790531,-0.0040505915,0.006649001,-0.07146717,-0.06478281,-0.014848383,-0.08915045,-0.0036360142,0.10467789,0.05396766,-0.0068287584,-0.059397914,0.014316345,0.057046846,0.009410009,-0.068780765,0.005087647,-0.078873955,-0.0118179405,0.026697658,-0.06326833,0.011834237,-0.046574898,-0.09928987,0.047512393,0.06060325,0.04001354,-0.084441125,-0.049537968,0.05109527,0.0008389783,-0.0021973134,0.011198596,0.029306693,0.009297784,0.0781267,0.040757198,0.028038822,-0.07150016,0.008595059,-0.05677677,-0.110714056,0.045513473,-0.00046582508,0.06531028,-0.019842343,-0.065315664,-0.009376156,-0.0419912,0.0016425757,-0.06197781,0.015375938,-0.048168164,-0.065174915,0.0038740793,-0.05877844,0.057454966,-0.056248046,0.03530921,-0.053310543,0.06017376,0.03653573,-0.004916596,0.0058203274,0.047405887,0.05742704,-0.08847897,-0.068969905,0.075890705,0.031827874,0.08607115,0.048125003,0.09491958,0.013875839,0.057525016,0.03673757,-0.018527795,-0.11322911,0.0467316,0.038963832,-0.07340654,-0.020987967,0.029119432,-0.014631226,0.045400895,0.054884974,-0.05021204,-0.048439264,-0.08755782,-0.05120128,0.096644096,0.036671195,-0.030995186,0.029029183,0.08637256,0.08180856,-0.04966998,0.055284243,-0.07755822,0.05848319,0.04651348,-0.043808065,0.0132059585,0.0737179,0.070582,0.0024796056,-0.053885236,0.07751771,-0.075269945,-0.086988255,0.06285115,0.030650482,-0.043936033,0.0491375,-0.06270684,-0.049436603,-0.075269006,0.025995955,-0.03674996,-0.048692588,0.05360263,-0.028467676,0.086334445,-0.0740456,-0.03211368,0.036730163,0.0062020007,0.05066715,-0.09196152,-0.07328443,0.0199584,-0.0037452283,0.03402084,0.07393835,-0.025555348,-0.038355306,-0.079785466,0.03947821,0.0706009,0.031999618,-0.034953773,0.016041474
-0.105565466,0.13885562,0.089672945,-0.059624158,-0.04538837,-0.4086537,-0.27742228,0.070691764,-0.10479946,-0.25508267,-0.06522365,-0.0072606453,-0.14122787,-0.24219312,-0.14016229,0.1297554,0.1348973,-0.4896236,-0.036504682,0.2168584,-0.11123685,0.10614063,-0.06820821,-0.24092063,0.14106531,-0.057429697,0.07171508,-0.00711565,0.06930499,-0.3001468,0.2139958,-0.09276384,-0.026080089,-0.068387784,-0.17032367,0.01663022,-0.14677422,-0.073563695,-0.074427254,-0.15841769,0.08605631,-0.021437276,-0.023439325,0.19291131,0.06045751,0.015254916,-0.10024711,0.08884825,0.22263661,0.1738078,-0.016261043,0.09873996,-0.32945135,-0.034046017,0.022856852,0.07358636,-0.00884686,-0.3017476,-0.009565499,-0.003311742,-0.047868956,0.029275205,0.040370807,-0.17549011,-0.16570492,0.0013303688,0.088702865,-0.037486568,-0.12711328,-0.11015467,-0.17264621,-0.30786422,0.035044372,0.11188036,-0.12591784,-0.14818016,-0.059402104,0.21175197,-0.065564215,-0.104840316,0.04650578,-0.028171906,0.21480998,-0.009122685,0.17407073,0.10025697,-0.054711543,0.06802111,0.27886313,0.037822224,-0.09110056,-0.07475709,0.133591,0.020866912,-0.2869973,0.068465196,-0.023332918,-0.08589475,-0.027700959,-0.012271233,0.024947545,0.23886348,0.03821481,-0.077290766,-0.10558509,-0.16946845,-0.050331738,-0.09146626,0.014951151,0.031351905,0.14697085,0.05742047,0.03513211,0.015500931,-0.044339843,-0.04606093,-0.01603689,-0.12630646,0.09190037,-0.029806217,0.015375784,-0.10327269,-0.045999423,-0.075843185,0.20471327,0.040273406,-0.18687089,0.025354322,0.16198678,-0.014141366,0.04738317,0.09616829,0.020657588,-0.023704264,0.11926954,-0.030729305,0.11263798,0.07520473,0.43810138,-0.12228253,-0.0020725988,-0.3397429,-0.027654005,0.18098114,0.0015456066,-0.54895836,-0.38375214,-0.1771056,0.009759554,-0.0882485,-0.022431934,0.3021241,-0.043429386,-0.037951086,0.05782297,0.027372645,-0.18771477,-0.0912029,0.002770098,0.102521054,0.09641098,0.11787589,0.074161075,0.15760653,0.11836808,-0.00339153,0.12587017,-0.071809456,-0.17820008,-0.34362227,0.005301797,-0.09304261,0.14887822,0.0971443,-0.34752396,0.06424644,0.17609824,0.075044364,0.006056479,0.11225505,0.2711332,0.04531493,0.016401779,-0.19972754,-0.042141024,-0.053978804,-0.10027989,-0.2343726,-0.01887853,0.007706394,-0.17253283,-0.021889094,-0.11719324,-0.5068573,-0.08403957,-0.015519883,-0.2240682,0.23713256,-0.12402009,0.044602048,-0.15520267,0.0858136,-0.010560559,0.03094195,0.061719175,-0.21005152,0.022488628,-0.29962087,0.21839078,0.101468384,-0.08979235,0.013516865,-0.00015488069,0.04925402,0.0697567,-0.17683399,-0.08413717,0.11373283,0.2067691,0.08846547,0.14738505,-0.33472484,-0.3767985,-0.5100281,0.029070677,0.016190652,-0.047601905,0.07445086,-0.18198484,0.13373874,0.041507185,0.1543303,0.24487734,0.014434226,0.14574946,-0.28460687,0.018251272,0.18486682,-0.021365276,-0.042098865,-0.122179784,-0.026298916,0.021946084,-0.13091193,-0.179384,-0.0034907497,-0.08295331,0.047134932,0.13691697,0.15599751,0.33115828,0.18411958,0.09444039,-0.07907853,0.27668744,0.14437321
-0.2837063,-0.14261454,0.17637658,-0.10518087,0.021469017,-0.16748482,-0.020671945,0.018638587,-0.05972234,-0.00431853,0.0035574925,0.06028861,-0.2306033,0.075172134,-0.23981646,0.08173354,-0.06387975,-0.09592928,-0.35837936,-0.028306818,-0.05517194,-0.14026836,-0.0366203,0.14417192,-0.14461611,0.037628826,0.045755316,0.079201624,0.06336765,-0.12294845,0.008163379,-0.33602256,-0.1711405,-0.110762306,-0.20189312,0.118615635,0.063926704,-0.024784628,0.22654848,0.008069148,-0.0022601637,-0.019810088,-0.19991146,-0.05813353,0.015822947,-0.123433486,-0.0978981,-0.01994365,-0.09735588,-0.10213907,0.025144938,-0.057180453,0.093793094,-0.15794097,-0.089479506,0.037518393,-0.09421743,-0.038642485,-0.099290945,-0.09792103,-0.16085841,0.017221246,-0.0016837401,-0.24821083,0.0012243949,0.10513082,-0.0899179,-0.08324265,0.16032493,-0.10829471,0.045073107,0.041120593,-0.14681204,0.1157989,0.09793353,-0.06831541,-0.33339915,0.04740276,0.023173092,0.26168323,0.08751172,0.09858979,-0.09615677,0.071366936,-0.06899362,-0.050912943,-0.013479234,-0.23334718,-0.15475509,0.09102102,0.15622658,-0.059253205,-0.025100077,-0.08537994,-0.028699907,-0.12243096,-0.10480356,-0.1718856,0.060582597,-0.040266216,-0.03962089,0.1951443,-0.024793409,0.024128415,-0.37497425,-0.22258863,-0.04090164,0.05393099,-0.123222314,-0.19143175,0.13636775,-0.07311787,-0.012451443,-0.01641533,0.18313348,-0.02325611,-0.07556739,-0.16287586,0.069813035,0.16756095,-0.115382135,-0.06671156,-0.039634872,-0.089931734,-0.018521726,0.13127443,0.017602304,-0.43895686,-0.020980418,-0.25745535,0.09673436,0.09678991,-0.028321113,-0.11821311,0.17408259,-0.1420688,0.09144359,-0.008245784,-0.14368992,0.037797406,-0.05986119,0.0023472176,-0.089286886,-0.13896182,0.050016657,-0.1367731,0.02674793,-0.167731,-0.09585246,-0.5654367,0.023066921,-0.11458121,0.057396874,-0.0029344875,-0.052375704,-0.10665671,0.029348476,0.113023184,0.016676143,-0.057179745,0.011319336,0.11031556,-0.094471775,0.15334064,-0.008981968,-0.22562926,0.057507608,0.06567763,-0.112766385,0.1577957,0.07880723,0.06178326,0.1374444,0.040114056,-0.13185017,-0.06346621,0.08680576,0.08538065,-0.18977723,-0.17043602,0.062345818,-0.10117896,-0.1256793,-0.05460075,0.023244869,-0.0024577405,0.0013154487,0.07106993,0.06927883,-0.09096519,-0.10629352,-0.124149695,-0.0041787154,-0.2727529,-0.13043503,-0.07567807,0.06556102,-0.29453105,-0.19768442,-0.27497938,0.006344662,-0.26807898,-0.16427109,-0.05077986,-0.108538166,0.0338083,-0.039804637,0.011596493,-0.2353008,-0.08056114,0.13652255,0.10131926,-0.024583014,0.08590513,-0.028177273,-0.116404906,-0.056125976,-0.112606056,-0.36812764,0.05772647,0.038492892,0.16470994,0.077769175,-0.045218483,-0.23176996,0.036088835,0.03532773,-0.19903426,0.013010127,0.031958256,0.108704366,0.14925027,0.15889846,-0.037975065,0.037599754,-0.02051928,0.115838476,0.074887946,0.0551193,-0.063882865,0.05435109,-0.026010165,-0.057347618,0.0025423032,0.11012975,-0.20459972,-0.26356807,-0.14596497,0.015623922,-0.26539043,-0.14424913,-0.1354642,-0.38235956,-0.091810256,-0.09912292,0.039169695
-0.048800528,0.08346929,-0.0650026,-0.084238306,0.07065866,0.04029547,0.028297866,0.020139515,-0.09795068,-0.06884386,-0.050620962,0.004245897,0.010596816,-0.16742465,-0.032511055,0.07022412,0.013138676,0.027491575,0.033682607,0.00627643,0.047964238,-0.0431249,-0.011551789,0.10478315,-0.030372996,-0.031204667,0.03735912,-0.01877648,-0.024742378,-0.026572684,0.08099246,-0.013578062,0.009581344,-0.014270777,-0.010172086,-0.026006855,-0.07448499,0.0369268,-0.057485886,0.027017664,-0.075971805,0.012043922,0.07172113,0.019969853,0.026454797,0.013051175,-0.049493212,0.015970448,0.11630912,-0.07820646,-0.03398152,0.060254227,0.0550971,-0.08041241,-0.07638884,-0.070383795,-0.052043587,0.00516279,0.07812237,-0.08733293,0.092639245,0.007688797,-0.025136756,-0.00561103,0.08147768,0.102592096,0.11295206,-0.04683517,-0.06661826,-0.060142815,-0.08210387,0.07341153,0.034441452,0.030969212,-0.10565487,0.017288798,-0.045504607,-0.08356424,-0.027698692,-0.12178848,-0.0489502,-0.07206868,0.037911735,0.05354443,-0.03404263,-0.060178164,-0.006476645,-0.07780938,-0.034637876,0.056803435,-0.013862002,0.06311963,-0.008769219,0.041020047,0.02146047,0.160379,0.048952363,0.07635923,-0.02921502,-0.013184784,-0.06851705,0.08362218,0.009039751,0.07526247,0.047970623,-0.14751542,0.06778008,0.0002848492,-0.004547218,-0.02060056,0.0017944205,0.014882482,-0.07147427,0.104102746,0.011833344,0.06625526,-0.01602599,0.07884625,-0.04223921,-0.017745953,-0.06564968,-0.06534432,-0.0011210786,0.027346995,-0.07015553,0.093633845,0.0101273395,-0.059102304,0.07884932,-0.039539143,0.010620292,0.13268203,-0.033202443,-0.04152022,0.0631267,-0.10896141,-0.021350563,-0.08870563,-0.07484012,0.055518255,0.016754173,0.13186951,-0.030175986,0.016330719,0.20464325,0.02517302,-0.07765816,-0.03615144,0.01991716,0.038027458,0.027058497,-0.034100298,0.005116323,0.03896552,0.046260335,0.09301509,-0.0932863,0.015202321,0.026714168,0.082273915,0.112139806,0.0399416,-0.0035307365,-0.10977103,0.121455036,-0.09485244,-0.16092859,-0.02567069,0.04610852,-0.017185615,-0.016810225,-0.021751018,-0.030757708,-0.08393982,0.15999359,-0.003916549,0.06189476,-0.12889017,0.13117386,0.13426496,0.06562814,-0.019192303,-0.037147816,-0.030512441,-0.026230715,0.08488065,-0.0041423594,0.091840476,0.041312892,-0.08178692,0.054130696,0.012157615,0.048296783,-0.03770762,0.04395751,0.025007976,-0.06296314,-0.015281668,-0.018340372,0.052869245,-0.14178161,-0.02692422,0.053401828,0.120282024,0.08252132,0.13618448,-0.13097624,0.021239685,-0.05772176,-0.05980712,0.09100584,0.077059634,0.07163347,-0.10469597,0.10236395,0.09262831,0.14752005,-0.005078859,0.015585765,-0.021798722,0.049149353,0.15112773,0.04991614,0.062136278,-0.044475775,-0.03200766,0.011602285,-0.0055972696,0.0015153078,0.06527458,-0.06582229,0.0005275821,-0.11385234,-0.06234382,0.024158971,-0.0202234,0.16779651,-0.083880685,0.03717699,0.03330179,0.117969684,0.011175133,0.019713052,-0.0020663515,0.052405756,-0.014561191,-0.073695414,0.010219745,0.06782939,0.009842235,0.008502226,-0.08879282,0.02467023,-0.079491526,-0.04945539,-0.0062021506
-0.17517127,-0.0070414864,0.044553235,0.040433876,0.062909804,-0.042395268,0.10397921,0.11913365,-0.03822871,0.24134131,0.0008144232,-0.0013016543,-0.40246022,0.19914193,-0.29863197,-0.14467706,-0.09250944,-0.07643777,0.042566802,-0.06804196,0.052055255,0.10701328,-0.17519653,-0.060385298,-0.24856868,0.062938035,-0.029828032,-0.055792063,0.16196544,0.224132,0.09094703,0.109299034,-0.058596846,-0.00480301,0.10711332,0.03137113,0.04580438,0.10579027,-0.09295775,0.10298095,0.10053354,-0.26745778,-0.01170123,-0.0010670179,-0.012051429,-0.17259306,-0.041068837,-0.26317814,0.119786575,-0.010050687,-0.04384859,0.008440874,-0.17781782,0.011759275,0.28999528,0.013340642,0.08915323,0.13121046,-0.16572523,-0.31662822,-0.19922362,-0.053364635,-0.09595609,-0.28497708,-0.058860045,0.11376006,0.2651421,-0.15806903,0.016205173,0.09622133,-0.33201942,0.114628255,-0.18902686,0.031494115,-0.35764477,0.05215636,-0.09129071,0.15745947,-0.03640152,-0.29410395,0.1301307,-0.20426549,-0.029527718,0.18666188,-0.056859758,-0.13766545,-0.07738342,0.025807837,0.018809902,-0.17573297,0.033980545,0.13353819,-0.5206221,-0.1418251,0.04575077,-0.005143757,0.15905988,-0.43397382,-0.07151469,-0.07260116,0.20316216,0.0717949,-0.370886,-0.24516505,-0.009005789,0.19639458,0.15397835,-0.09185967,0.12579823,0.009302027,0.1228502,-0.06368898,0.06651366,-0.13421993,-0.040488,-0.12808989,0.036280975,-0.085998274,0.0861937,-0.1307386,0.16611116,0.21027876,-0.048232116,-0.20228475,-0.10660035,0.007868461,0.087029055,-0.26859525,-0.2135455,-0.16587417,0.11732819,-0.117516644,-0.29604408,-0.041067794,0.10142858,0.097873345,-0.4489016,-0.045734357,-0.2523698,0.13675617,0.0047420408,0.12350377,-0.049067866,-0.2181794,0.06793457,-0.013687346,-0.093190335,-0.11374968,-0.0648761,-0.04048832,-0.25429597,-0.2773044,-0.0255982,-0.12153844,0.27542797,-0.32469156,-0.109666616,-0.0065828827,0.0397345,-0.014719923,0.046537314,-0.08381883,0.015910625,-0.37663382,-0.31210968,0.022447143,0.040591363,0.16791987,0.06259892,0.11142871,0.010071065,0.004089114,0.015234311,0.017458199,0.14939027,-0.42837712,-0.20400888,-0.011778895,0.14323454,0.15384315,-0.23311852,-0.3088608,-0.124687,-0.04026256,0.03711426,0.20459895,0.012911492,0.03184034,-0.23426482,-0.056379266,-0.026473038,0.1263473,-0.0072809183,0.009656484,0.054547478,0.13782735,0.08076418,-0.008181718,-0.032004874,-0.11329086,0.051372815,-0.48165306,0.1046476,-0.054207385,0.013603745,-0.014404911,-0.12125118,-0.019285934,-0.029329443,0.020263348,-0.030094737,-0.10163533,0.029090855,-0.26993775,0.10466409,0.019571042,0.07149348,0.11719302,-0.3150549,-0.056354754,0.009105796,-0.34156123,0.015971001,-0.011457253,0.028067699,-0.18592641,0.011550361,0.023481349,-0.15117963,-0.1034795,0.03502295,-0.18448363,-0.13317811,0.06586048,0.22815117,0.045408715,-0.19100937,0.11944209,-0.061351024,0.011145973,-0.06298424,-0.015627641,-0.042734843,0.060413044,0.13870014,-0.045193363,-0.29114404,-0.08659403,-0.024555003,-0.1271013,-0.004660849,-0.4391633,-0.24983062,-0.099609554,-0.057676293,0.076088004
0.052869577,-0.07883416,-0.116707385,0.05086181,0.025760455,-0.031077193,0.053242326,0.06980737,0.11903747,0.03923536,-0.046600327,-0.025594981,-0.04284586,-0.06543675,0.089790605,0.0056032506,0.056205504,0.049061965,0.064227894,-0.037809826,-0.049674533,0.08670481,0.011605134,-0.013448743,0.033602007,0.08635545,0.04406777,0.1119463,0.058569983,0.029648758,0.0013538931,0.06252179,0.08403026,0.007098985,0.07389778,-0.07578757,-0.016010555,-0.09905986,-0.07286938,-0.04889477,0.09006755,0.0012887552,0.07589776,0.0057788873,0.065738514,0.009366125,-0.05625272,0.022465972,0.047674242,0.09440533,-0.00092443975,-0.00034986436,-0.04022272,-0.091026574,0.04127134,0.10269404,0.03234096,-0.07110702,-0.039084278,-0.049030036,0.0576085,0.08067641,0.081602514,-0.014652072,0.012115892,0.0019783673,0.06610055,-0.0048525603,-0.076779395,0.0031651407,-0.08426752,-0.074164815,0.03248788,-0.032543056,0.0021643643,-0.04117003,0.05316497,-0.04592428,0.07307543,0.037409026,0.050164748,-0.08149281,0.0022347474,0.0067529096,-0.09631678,0.07895374,0.04923293,0.06867128,-0.0027863774,0.06095216,-0.002701675,0.07143036,0.0075748963,0.023464277,-0.09346809,0.052474268,0.013196098,-0.05788515,0.06963719,0.04304395,0.053939085,-0.13830301,-0.03664365,-0.023893332,-0.054794125,0.0003157226,0.082287,0.03747584,-0.09032326,0.076106526,0.071238436,0.028991135,0.012032381,-0.073684976,0.116763346,-0.04518122,-0.098161854,0.036756586,-0.014925404,0.0037113607,-0.06558344,-0.029643727,0.07324996,-0.01172337,0.067086436,-0.07051469,-0.01697545,0.056588516,0.01425738,-0.020360725,0.05878413,0.034232944,-0.048745073,-0.02888175,0.032081727,-0.034093346,0.0011047935,-0.07371242,-0.06439863,-0.02399405,-0.006867431,0.032331135,-0.002287364,0.013732618,0.025153372,-0.028431684,-0.03859167,0.076848835,-0.07089008,-0.030760748,-0.02884795,0.03748574,-0.06065804,0.02889528,-0.06177284,-0.056965128,-0.051810626,-0.10603513,-0.05628589,-0.001929714,0.0122173345,-0.080768324,0.025614895,0.030089261,-0.043930683,0.02166866,0.013960506,-0.03787611,0.09006296,0.06195382,-0.010878586,-0.0675225,0.055840973,0.0012300494,0.035737853,-0.053387593,-0.057214968,0.04174264,-0.08169294,-0.02215875,0.021080343,-0.0108855255,0.06556272,-0.01033935,-0.003236001,-0.063691355,-0.068146944,-0.044609662,1.6713695e-05,0.08812114,-0.021048887,0.08400362,-0.03682869,0.03420034,0.051476333,-0.03024342,0.03728131,-0.1179977,-0.020024262,-0.000120566634,0.0028759788,-0.056613352,0.040852617,-0.07552973,-0.013862726,-0.08690516,-0.083982304,0.07097336,0.05547122,-0.034229852,-0.07210729,-0.058710158,-0.102729335,0.042227235,-0.073110566,0.072850466,-0.013304154,-0.101072036,-0.08640854,0.07602713,-0.0766856,-0.06267528,0.03021681,0.051505294,0.012998966,0.034309603,0.056255743,0.068584405,-0.01134184,0.022102939,-0.04831529,0.07402324,0.11037996,0.0019782211,-0.0026963844,-0.032168053,0.058750622,-0.01506256,0.014416864,0.04594978,0.00026547155,0.00084795634,0.014532423,0.09080797,-0.026222765,0.06622936,0.079243116,-0.03587496,-0.050155245,0.06784008,0.09000863,0.057565834,0.04659879,0.021113418,-0.045427863,0.0039924392
-0.01369444,-0.08920247,0.052279457,0.008314694,-0.07617094,-0.056285467,-0.06857449,0.075264834,-0.06011542,0.07950979,0.0605721,-0.0014662892,-0.037453007,-0.044622876,-0.028687738,-0.028492413,0.045379195,-0.07057606,0.04310345,0.014935402,0.04271264,0.07632744,-0.04610237,-0.10010981,-0.0809814,-0.007247127,-0.03926296,-0.011998495,-0.014291341,0.09250793,-0.08520328,0.0047720806,0.025401838,0.09313154,0.059284415,0.01845843,0.07213871,-0.06879955,0.012180255,0.06228012,0.10376904,-0.04155433,0.028762108,-0.07816284,-0.0776175,0.069069244,0.016008593,-0.043688454,-0.048104964,0.054187924,0.040452704,0.06420794,0.067132354,0.032257352,0.07150915,-0.06219691,-0.017184919,-0.036683373,0.047893014,-0.04480299,-0.085666664,0.012702462,0.05164496,-0.019120181,-0.016141804,0.07249394,-0.07691645,0.07667162,0.028108176,-0.09251793,-0.018983206,0.06024473,0.004235363,-0.046818826,0.017577497,0.059009604,0.05637397,-0.0073579806,-0.042533483,-0.010014091,-0.068506554,-0.039720986,0.04241347,0.038604084,-0.039497092,0.008752292,0.0069808695,-0.055313576,0.039192438,0.020836234,0.033116158,-0.0635946,-0.02146308,0.016897399,-0.06765362,-0.07974159,0.05939037,0.023456583,-0.012698643,-0.023001261,0.04773044,-0.024874706,0.025880355,-0.06964582,-0.0010607337,-0.00014916997,0.019486768,0.08774276,0.07576382,-0.021721743,-0.04064629,0.05570535,-0.07072438,-0.02078951,0.016287247,0.015930356,-0.06544864,-0.090830825,0.07659067,-0.048512626,-0.05808625,-0.08304681,0.00512265,-0.016510166,-0.03831898,-0.0739834,-0.017401163,-0.05835338,0.03222366,-0.0842911,0.09593548,-0.07089192,0.036080077,-0.040923595,0.061538674,0.031333946,-0.039288357,0.033691667,0.08336003,-0.05497197,-0.020265304,-0.045581825,0.054323394,0.08663727,-0.07744823,-0.07624097,-0.035726584,-0.03057578,-0.06472027,-0.03844386,-0.010417783,0.022599228,0.06296253,-0.0140683865,0.076236956,0.020616982,0.07762908,0.016350746,-0.07723678,-0.029424356,-0.06312281,-0.052815154,-0.09296596,-0.0073869554,-0.086230196,-0.05390306,0.026899802,0.009970737,-0.011571087,0.036242574,-0.025757797,-0.02328482,0.07710775,0.031205354,0.014211853,0.076408535,-0.06330788,0.015926888,-0.0064352974,0.009852223,0.06665057,0.026737263,0.060019024,0.054878946,0.030285444,0.024833085,-0.08418027,-0.008028333,0.0264631,0.07617407,0.069336675,-0.05810459,-0.08983446,0.07310009,-0.08648575,-0.08105289,-0.0538993,0.049882155,-0.03578694,0.061468363,0.03283755,-0.0017123547,-0.0514246,-0.016002484,-0.048563305,-0.05460029,-0.07573064,0.027852438,-0.021882787,-0.07625446,0.049619213,0.04400808,-0.035146534,0.04224916,0.04543371,0.0038899402,-0.008249136,-0.05980859,0.077611975,-0.06878323,-0.056444444,0.0573787,-0.032467682,0.027918607,-0.0003706161,0.06873633,0.06883558,0.017910078,0.019241929,-0.017810855,-0.055078875,-0.018870197,0.019889453,0.0739061,0.009839904,-0.0083956625,-0.010334015,-0.096257746,0.029033773,0.03588826,-0.080731,-0.041584544,0.024723664,0.031925514,0.03494489,-0.021198127,0.0077666235,-0.01533262,-0.07169147,-0.016191598,-0.0895726,0.080924414,-0.004730329,0.048923723,0.084785014,-0.05664741
0.24017434,0.031690754,0.012840039,-0.16929683,-0.117480785,-0.24472566,-0.18966943,0.18319692,0.18568458,0.0797267,-0.09064877,0.022013023,-0.17095363,0.13007751,-0.034993917,-0.050779812,0.023815095,0.009322678,-0.11383733,0.0991876,0.10823399,-0.04540119,0.12086751,-0.06871683,0.17900196,0.10101318,-0.00640754,0.014104442,-0.1999951,0.032891016,0.23411605,-0.22571656,0.008487486,-0.06934493,-0.11823211,0.06536703,0.19875391,-0.17680249,-0.523014,0.009055929,-0.09712756,-0.08686963,0.13941643,0.053854454,0.015175457,-0.043332234,0.008715932,0.0020320732,0.12044697,0.21241868,0.20364672,-0.105511285,-0.047051486,-0.34764555,-0.015626626,0.12789403,0.018980114,-0.062481306,-0.0020045051,-0.012409298,-0.4212787,0.05457286,0.08250897,-0.18452004,-0.031021379,0.015715975,0.14220057,-0.11047549,-0.0782259,-0.51700807,-0.15631591,0.024958903,-0.02414277,0.38190958,-0.48850107,0.1814454,-0.11508589,0.21928057,0.25813165,-0.11427354,-0.010329813,0.1454698,0.2020885,0.19555928,-0.09414466,0.38120815,0.060038846,-0.048528697,-0.09691228,-0.1580851,0.098142475,0.19334027,0.2961331,-0.14801788,-0.015541418,-0.16792944,0.061222885,0.042852197,0.07179702,-0.08194852,-0.25337252,-0.23711939,-0.04239829,-0.18867224,0.052489363,0.03808902,0.21122634,0.044923816,0.049872708,0.11608667,-0.05823685,0.10761011,0.05833713,0.33535272,-0.26521555,0.032229256,0.010505848,-0.36268735,0.0613343,0.15155385,0.031657435,0.03448645,-0.1015612,-0.11447927,0.21936435,-0.50415915,-0.12414405,-0.4542214,-0.07998059,0.16035917,0.37168413,0.38845363,0.10854253,0.029103572,0.13072881,0.16316807,-0.29220906,0.057433642,0.19623497,0.42153773,-0.09835917,-0.2999327,0.039294068,-0.12330143,-0.06715421,-0.21280067,-0.19485274,0.12763962,0.21987306,-0.051183388,-0.05528437,-0.21727826,0.30360785,-0.10310201,0.29569265,-0.076342605,0.23254888,0.10806773,0.02606126,-0.21394648,0.32689697,-0.077293485,0.42553228,0.0654914,0.014549032,0.23032127,-0.15302978,-0.010680311,0.20297633,0.056887984,0.012203627,0.41560942,-0.068051785,0.09553481,0.111399405,-0.055478975,-0.007612481,-0.07219772,0.14213443,-0.49083543,-0.11504884,-0.23595068,0.061571915,-0.14890486,0.29873672,0.12675318,-0.07284169,0.07862293,0.37047985,0.22354627,0.008054671,0.26866895,0.18885057,-0.04522288,-0.29064167,0.025996186,0.04350026,0.09172166,-0.12968753,0.04123276,0.17939605,0.16092737,-0.14472012,-0.040076237,0.16244745,0.14240225,-0.1807086,-0.15135439,-0.46996534,0.062015343,-0.034886613,0.037770122,-0.23334935,-0.17698832,-0.13211298,0.10494183,0.047080856,-0.22858627,-0.29014045,0.037213273,0.032478537,0.086788625,0.1517567,-0.055242218,-0.2376239,0.3769466,-0.07766021,0.24765487,-0.2968066,-0.11518754,0.17970985,0.112798326,-0.13328913,0.11879713,0.08868042,0.30593684,0.3385057,0.13010421,-0.32191584,-0.0722091,0.01174693,0.12685202,0.03457254,0.15647538,0.16445123,-0.021498315,-0.052943923,0.1509361,0.26627666,0.11915043,-0.16866802,-0.087789916,0.07262956,-0.04928626,0.12212581,0.12961446
-0.24337812,0.12379647,0.1252989,-0.09404497,-0.05108458,-0.020228324,-0.07395185,0.1290395,-0.15921491,0.028816946,-0.11451916,-0.03374301,-0.5092118,0.19015104,0.03707225,0.188517,-0.16945378,0.07583512,0.031715978,-0.05314526,-0.75784194,-0.18672805,-0.040668793,-0.056285925,0.008247922,0.157776,-0.20012514,0.13194342,-0.21258858,0.09692328,-0.16195066,0.12614472,-0.0011974603,-0.069270745,-0.15172629,-0.17358695,-0.16425397,0.09298646,0.015777113,-0.22466506,-0.31473854,-0.014150645,-0.31921774,0.16361247,-0.09585296,0.05013358,0.0075255376,-0.0811055,-0.25673264,0.0721785,-0.05773987,0.17756249,0.09862578,0.057955213,-0.077241905,-0.001399749,0.11769701,0.17286825,-0.085988656,0.17646828,-0.055246584,-0.40575302,-0.0017126997,-0.05722834,0.15621954,0.04656832,-0.1703014,-0.13798518,0.13408723,-0.21630296,-0.10320348,0.012012804,-0.31974542,-0.15418732,-0.03177201,0.23489393,-0.23582795,-0.2976584,0.085766,-0.12276126,-0.24144179,-0.30034268,-0.008956559,-0.09026455,-0.049004693,0.1454648,0.08920212,0.2862118,0.062582605,0.28892207,0.013199192,0.080257215,-0.21499844,0.31635973,0.15986705,0.12992693,-0.15410143,-0.01919712,-0.011054669,-0.047688723,-0.2537449,0.14348485,-0.7888939,-0.25744268,-0.25453955,-0.1414433,0.07781974,-0.14322297,0.016011456,-0.18810315,0.0843333,-0.018109465,-0.09172621,-0.1482742,-0.03927014,-0.14126848,0.09452779,-0.27672672,-0.3694725,-0.09358338,-0.074461296,0.01808655,-0.1135226,0.13294259,-0.004872415,0.08965086,-0.12245796,0.010668755,0.046915203,0.28231028,-0.30470732,-0.29794395,0.1612576,-0.1222476,-0.34829426,-0.05821954,-0.21559347,-0.16850476,0.09104473,-0.0684235,0.05235207,0.017130079,-0.019050054,0.0057312204,-0.16214909,0.16942401,-0.07677472,-0.26581967,-0.6163651,0.4154821,0.042900663,-0.04637727,-0.0066830963,0.032383773,0.025866969,0.17100944,-0.058520924,-0.07870575,0.0015923562,-0.053472906,-0.090974875,0.1246649,-0.1601252,-0.060728516,0.072947465,-0.08570641,0.11892259,0.10290779,-0.09799807,-0.02039438,-0.09474182,-0.0042050974,-0.03569765,-0.052138783,0.040112447,-0.08686606,0.33530146,-0.08999022,-0.049365226,-0.13695444,-0.09694656,0.103478156,-0.12632844,0.016884172,0.0055265995,-0.12166105,0.020590508,-0.0315508,-0.2835176,-0.23781614,-0.08941221,-0.19520302,0.18778643,0.092014916,0.08807601,0.011662297,-0.12837462,0.05832054,-0.11721191,-0.08966069,-0.12872714,0.29771048,0.037446562,-0.33963194,-0.14181596,-0.2019538,-0.009452089,0.0429158,-0.15467852,-0.09390757,-0.11202434,0.17645405,0.18376584,-0.19635247,-0.1551865,0.007758336,0.0043119993,0.121531166,-0.049513623,-0.022140734,0.16257825,0.15193006,-0.2561897,0.10529348,0.212324,-0.11683804,-0.0072441725,-0.08207171,0.036526464,-0.04414284,-0.0479865,-0.15898411,-0.16592823,-0.16806944,0.02479191,-0.07839571,-0.18046558,-0.36377683,-0.18361467,-0.08029904,-0.21644408,-0.36293837,-0.035195995,0.006541266,-0.14337738,-0.2885202,0.039937597,-0.091720216,-0.17474234,-0.07666849,0.0184806,0.1392839,0.11696268,-0.0067654834,-0.022390135,-0.16430824
