0.24323052,-0.15870367,-0.38581938,-0.54565525,-0.059209306,0.01658559,0.27850088,-0.18320844,0.38610825,0.037334293,-0.43617567,-0.23392625,-0.36497396,0.083881736,-0.26285493,-0.2910353,0.0013088505,0.038423035,0.0011436702,-0.071156636,-0.38375103,-0.18830627,0.15937313,-0.4432917,-0.15092804,-0.31827158,-0.16343321,-0.19040816,-0.07363753,0.1445921,-0.28637314,0.3889529,-0.06770895,-0.1382718,-0.2727666,0.34405372,-0.25172853,-0.0346527,0.007836176,-0.28303546,-0.20452745,-0.009972484,-0.20367712,-0.10136782,-0.5189102,-0.6048046,-0.44059247,-0.02924772,0.092478745,-0.06551628,-0.07811422,-0.07274931,-0.24224731,-0.16271694,0.034459576,-0.08420746,-0.5696938,-0.07538565,-0.075143605,-0.60097307,0.044549014,0.064663626
-0.11157552,-0.14342697,-0.15361482,-0.099864624,-0.14166312,-0.26641592,-0.27122277,0.01251108,0.07327197,-0.04386663,-0.01674874,0.11741975,-0.090209454,0.046575513,-0.14982669,-0.19827452,-0.1893257,0.087517396,-0.19434178,-0.20735352,-0.11500776,-0.22666557,0.056795456,0.049705725,0.05452237,-0.026225124,-0.050556555,-0.029676694,0.060027614,-0.095412716,0.15295437,0.21861039,0.2582166,-0.059682567,0.1870949,-0.039320987,0.04533825,0.2530633,0.069485605,0.025700323,0.03142225,-0.16070345,-0.0180887,0.07963216,-0.20611139,-0.2528662,-0.08910704,-0.08882948,0.002639152,0.059463546,0.035103668,-0.10801703,0.073497616,-0.036554266,0.0399474,0.045223746,0.12867244,0.17133868,0.26081827,-0.014525136,0.1389668,0.13123249
0.14254385,-0.0060995203,0.0006451107,0.05603497,0.05870072,-0.027661748,-0.057230618,0.10586673,0.099618725,0.1587983,-0.058108624,-0.10648329,0.0252391,0.16350979,-0.24374792,0.12601408,-0.00801192,-0.013448654,0.029826459,0.21201634,0.06163625,-0.07297206,0.024466084,-0.109579645,0.14396621,0.07485555,0.086170524,-0.08612366,0.012604602,0.008975864,0.12657368,0.102221064,-0.30360463,-0.11359744,0.07920891,-0.048670445,-0.336438,-0.3610108,-0.15393828,-0.045702968,0.019866858,0.1824679,0.10038619,-0.10702936,-0.36933145,-0.021234086,-0.0997045,-0.14504752,-0.14113887,-0.39671552,-0.060080715,-0.0031363822,0.11498134,-0.02172632,-0.084581085,-0.030076612,-0.11294907,0.13032389,-0.2877421,-0.56616807,0.12076879,-0.16989197
-0.14614187,-0.1990709,-0.27842087,-0.36655182,-0.73055553,-0.12529637,0.019350449,-0.058939997,-0.12425993,-0.095768355,-0.12890106,-0.50332314,-0.3167953,-0.10438443,0.025402322,-0.27098912,-0.55672544,0.047693674,-0.358688,-0.048551507,-0.44078293,-0.31601048,-0.21314363,-0.28305465,-0.027332405,0.070038624,-0.13625571,-0.083762154,-0.36869594,0.19237734,-0.29812756,0.09983712,0.08537507,-0.3667287,-0.28714007,-0.109254755,-0.37858632,-0.1385325,-0.050807886,-0.27745,-0.32719335,-0.27489242,0.046283342,-0.34382325,0.1991578,0.06638037,-0.35559037,-0.022779534,-0.11166464,-0.059398975,-0.027132621,0.07105473,0.38632408,-0.063016824,-0.3009271,-0.30900615,-0.22263435,-0.0011312987,0.0857596,-0.3480488,0.29970652,-0.31108215
-0.13327734,-0.13568485,-0.16732156,-0.11758826,-0.094355255,-0.06986186,-0.053016618,-0.114365906,-0.04323976,-0.09310816,-0.15380119,-0.18299417,-0.14174624,-0.16874987,-0.066188745,-0.17945881,-0.024979712,-0.16888364,-0.12644844,-0.10292604,-0.26254767,-0.021815417,-0.09363324,-0.10502239,0.010463113,-0.19603087,0.019749343,-0.01545213,-0.12343203,-0.03294911,0.07246022,-0.046170533,0.08132565,-0.22818886,-0.08158035,0.056828104,-0.12155591,-0.05197791,-0.14566974,-0.06425016,-0.08861271,-0.083237715,0.0876334,-0.06386323,-0.050381724,0.0030674636,-0.055666395,-0.08537075,0.042588223,-0.049529564,-0.031602688,0.008204718,-0.017289205,-0.099318095,-0.056537922,-0.05458547,0.03613459,-0.047685515,0.048673246,0.037271235,0.022244167,-0.11453769
-0.14550109,-0.19297516,-0.10957473,-0.10926848,-0.06747902,-0.16149394,-0.22015516,-0.1694658,-0.016437657,-0.052730616,0.018420218,0.11906791,0.18779215,0.15174477,0.15919475,-0.037862036,-0.073014244,0.12197477,-0.1605381,0.101516575,0.089141496,0.10243922,0.06683999,0.07043883,0.036406506,-0.0033897867,0.12472183,-0.04326482,0.08864976,-0.098826416,0.14160521,0.11655759,0.11072371,0.12804791,0.006704771,0.081472285,-0.28190774,-0.030032026,-0.15631342,0.015099552,-0.35730615,-0.2737069,-0.33729488,0.030105624,-0.22951497,0.07617848,0.069906905,-0.2522128,0.024471968,0.0140337385,-0.16494769,-0.1972658,-0.24524489,-0.22853836,-0.3552768,-0.094909556,0.03277077,0.096173875,0.12108167,0.14585352,0.10466996,0.0043420442
0.09672303,-0.3798011,0.2590652,-0.60953104,-0.110503964,-0.31889108,-0.3268755,0.05483505,0.08525301,0.16291593,0.0892707,-0.37863553,-0.611233,-0.2958755,0.10257266,-0.14543116,-0.43496975,-0.34858707,-0.09972944,-0.47873738,-0.5844749,-0.057977695,-0.25162426,-0.42031813,-0.7205489,-0.20940706,-0.28683057,-0.024014914,-0.2554016,-0.2066625,-0.30445352,-0.22182894,-0.33110893,-0.178726,0.0055094934,0.06510752,-0.61251193,0.024555989,-0.18430614,-0.585916,0.13625994,-0.08472502,-0.4074297,0.16009554,0.22314738,-0.43441296,0.41030085,0.05729971,-0.31341466,0.028386286,-0.39833796,-0.3225853,-0.102056496,0.011246789,0.11981869,-0.008054174,-0.06106566,0.07998287,-0.35650462,0.0635806,-0.17609996,0.003003953
-0.04649247,0.07948818,0.15447135,0.1543007,0.0971814,0.17327006,0.10866517,0.13555789,0.13404869,0.15587959,-0.14175591,-0.13656409,-0.45964637,-0.15031724,-0.46162796,-0.10998499,-0.0020806652,-0.16482152,-0.0933882,-0.08450259,-0.058844835,-0.16532333,-0.17398173,0.011496651,-0.103516236,-0.32542866,-0.18105312,-0.101083934,-0.1459857,0.05290511,-0.0029626451,-0.04059573,-0.102534205,0.011116311,0.071915455,-0.026376786,0.04916856,0.23480938,-0.22747102,0.1312423,-0.15286765,0.044550184,-0.12740973,0.037876144,-0.10350215,-0.13003232,-0.009296974,-0.10313769,-0.037500482,0.15747507,0.03081859,0.118142016,0.05013989,0.02523395,0.082867354,-0.034474544,0.19396265,-0.055888716,0.15908447,0.0040728287,0.12080789,0.052982807
0.03056555,-0.28055006,-0.04345658,-0.24442443,-0.12986007,-0.02981953,-0.014713926,-0.040031854,0.02430031,0.13967292,0.084972925,-0.0074468777,-0.07355786,-0.032495104,-0.11747879,0.06762284,0.015773749,0.043436937,-0.14509349,0.021019677,-0.17939857,-0.19603923,-0.1592686,-0.048890848,0.022664774,0.16862932,0.045541327,0.10203138,-0.09740221,-0.21504585,0.13629915,0.087309115,-0.057908226,-0.052572206,0.002962704,-0.03630216,-0.0027829672,-0.028183691,-0.16655692,0.011010142,-0.057522822,-0.12546021,0.03766512,0.010098532,-0.21557401,-0.12792294,-0.2995328,-0.09203018,-0.20394649,0.016256886,0.028099164,0.23635107,-0.030959627,-0.24153039,-0.10988203,-0.33938023,0.107407235,0.11213832,-0.0104517415,-0.45619532,0.07772696,-0.6490011
-0.086549595,-0.3248803,-0.36992416,-0.46427828,-0.13101561,-0.041781038,-0.7146658,-0.43922967,-0.15568422,-0.020541806,-0.10900769,-0.10683117,-0.28758577,-0.12933174,0.012585828,-0.02270288,-0.5550313,-0.08698398,-0.18722512,-0.3489462,-0.061743267,-0.14801611,0.17338401,0.05435316,-0.43598917,-0.22812124,0.019336462,-0.09893664,-0.17982946,0.1615022,-0.39654198,0.031205922,0.14975774,5.650561e-05,-0.23803651,-0.3087674,0.019392319,-0.36081037,-0.71479905,-0.008925857,-0.059546813,-0.009970129,-0.11328703,-0.17303169,-0.4339983,-0.5462405,-0.2791899,-0.39011595,-0.020631472,-0.46039736,-0.2386879,-0.2941946,0.106131546,-0.15991466,-0.8527678,-0.090435356,-0.21357268,-0.21036437,0.06641027,-0.57840455,-0.081318885,-0.78527683
-0.026795464,-0.22755548,-0.06643102,-0.1033233,-0.03606441,0.1281915,0.08360119,-0.05461111,-0.1999566,-0.21357533,-0.08942055,0.0268595,-0.1013656,-0.09134309,0.049168088,-0.091633864,0.108029366,-0.12841669,-0.28477323,-0.01615584,-0.24402666,-0.068435855,-0.09267016,-0.07781647,-0.08273799,-0.011491358,-0.11836073,-0.09465727,0.046573255,-0.046723466,-0.034904655,0.076799564,0.057876,-0.18811099,-0.12536965,-0.09878314,-0.10824842,-0.25471035,-0.016197123,0.020067854,-0.25795773,-0.013586983,-0.05961073,-0.16531155,-0.17291732,-0.047739383,-0.25234765,-0.13645698,-0.18979421,-0.03737582,-0.18460551,-0.24401641,-0.16225462,-0.1514043,-0.17056352,-0.19481371,-0.15157323,-0.18049082,-0.11958526,-0.06482322,-0.09019418,-0.026502857
0.056423046,0.13866895,0.0022352012,0.013212319,-0.08459401,-0.09002526,0.037125815,-0.0031612746,0.10687239,0.06065484,0.08463119,-0.052967157,-0.12528422,0.04351532,0.011128213,-0.08839211,0.11235962,-0.06336322,0.10264844,-0.09030871,-0.124755785,0.05400479,0.088409126,-0.06980055,-0.103419445,0.10080133,-0.040289674,0.03030979,0.009873549,-0.121885434,0.08033192,0.06584717,-0.011626215,-0.025445294,-0.04699734,-0.029022304,0.020233944,-0.015748736,0.057713524,-0.10200696,-0.0992477,-0.11947974,-0.05677355,-0.13455562,0.03367399,-0.05888923,0.022186572,-0.06801514,0.01949304,-0.011583663,0.044054043,-0.037889067,-0.114567555,-0.039160352,-0.083266966,-0.12418673,-0.019548075,0.0077475305,-0.025395535,0.06522413,-0.03418536,-0.11036745
0.13358499,0.040787905,0.0036499463,-0.39100367,-0.19638902,-0.76077485,0.13907391,-0.036930475,-0.28445488,-0.49381182,-0.29933485,-0.28951672,-0.28874233,-0.058055323,-0.014305628,-0.23310813,-0.40872225,0.048480917,0.054305643,-0.40271455,-0.41269174,-0.02035872,-0.5235884,-0.20796339,-0.073709816,-0.02837401,-0.019059055,-0.13031979,-0.7013245,-0.5442278,0.2430291,-0.19838835,-0.15696,-0.3587253,-0.06406761,-0.06051819,-0.11999359,-0.29449457,-0.1823746,0.15922593,-0.16782713,-0.40530214,-0.21660972,0.006997077,-0.034823198,-0.10804038,-0.38849044,-0.061008055,-0.27992904,0.2258739,-0.2343144,-0.26606798,0.08663953,0.1187771,-0.08836764,-0.5133602,-0.046650752,-0.051695466,-0.3963106,-0.5413376,0.11965735,0.037423838
0.04013834,0.071579136,-0.18037137,0.102575384,0.08261505,0.23581381,-0.22636768,-0.22893102,0.026537022,-0.021861287,0.111905254,-0.13793953,-0.13938925,-0.12800999,-0.27662015,-0.34307158,-0.17531045,0.11654279,-0.067728885,-0.2546627,0.037917618,0.15125404,0.25990885,0.17772833,-0.077258475,-0.22028704,0.12005113,-0.060571283,-0.009665243,-0.054149155,0.094595805,0.0034538298,0.22475888,-0.0021966286,-0.1098552,-0.500423,0.11911006,-0.054097902,-0.15401758,-0.09515498,-0.17480439,-0.08631985,0.028410753,0.16529746,-0.2583768,0.023144,0.17110296,0.09045357,0.14116749,0.10955298,-0.06891791,-0.30796796,0.037049584,0.03541559,0.075404264,-0.075527705,-0.12736437,-0.31686613,0.008117556,-0.001039807,-0.035059467,-0.11485456
0.051927477,-0.58676845,-0.0101344595,0.19032559,-0.766412,-0.27411038,-0.92015576,0.10510973,-0.33444595,-0.17260958,-0.24029951,-0.09313661,-0.11305415,-0.0066827065,-0.20311119,0.058885623,0.008011441,-0.38218302,0.08704635,-0.015699837,-0.2626154,0.061230253,-0.05182715,-0.24620026,-0.22316194,0.1345724,-0.48824567,0.023839599,-0.21845354,0.21654077,-0.45047462,-0.14301114,0.054466125,-0.40182537,-0.100736216,-0.16810066,0.20584776,-0.027402189,-0.48833653,-0.32653925,-0.03220278,0.10743001,-0.24042007,-0.09370138,-0.42534932,0.07226039,-0.3697252,0.0082202265,0.24370669,0.17664404,-0.5878596,-0.14368877,-0.052756645,-0.15807627,-0.57620955,-0.1128878,-0.24163336,-0.4400739,-0.18798144,-0.15956303,-0.4335999,-0.23815095
-0.15542653,-0.025660237,-0.17665862,-0.21170442,0.089775495,0.054442942,0.11612671,0.050503008,0.13517208,0.065630555,0.16150887,0.014685021,0.06396242,0.034713212,0.12851939,0.21267657,0.0070912903,-0.14878264,0.024186473,-0.052475087,0.12906937,-0.06042621,0.01116917,0.009032764,-0.08338084,0.064560466,0.032567196,0.1377037,0.18469317,0.08632228,-0.23022468,-0.104924,-0.25889212,-0.06317165,-0.36375266,-0.22512056,0.15929389,0.116604395,-0.0019818908,-0.014643144,-0.25667173,0.11043343,-0.035588045,0.111000665,0.11580075,0.08214214,-0.052849878,0.05569513,-0.37298602,0.21204458,-0.0050797355,0.14310025,-0.1340373,0.19082579,0.1498337,0.090794705,0.22483566,-0.049520932,-0.51587206,-0.06685947,-0.057558153,-0.44362205
0.07802006,-0.4307753,0.0238406,-0.3717023,-0.078025386,-0.369055,-0.14274773,0.211353,-0.054760307,-0.062738545,0.13739184,0.06360755,0.10408394,0.12393526,-0.034863457,-0.038195275,0.005268019,0.12494436,-0.14071788,-0.0827343,0.011692025,-0.21835825,-0.005330184,-0.09137677,0.05681138,0.07942264,0.04696514,0.10419733,-0.1781759,0.108180806,-0.10732028,-0.25830907,0.14114484,-0.16374949,-0.31156057,0.12677008,0.005976933,-0.060149644,0.018470507,0.058984317,-0.0046643354,-0.0027599318,-0.00027585324,-0.15984651,0.12897593,-0.014770078,-0.14184839,-0.10405218,0.021506375,0.0648597,0.067910634,0.16181953,-0.027881721,0.1351647,-0.077219814,0.056174196,-0.0016833233,0.0052596047,0.13987912,-0.0896856,0.039416965,0.17257027
-0.1116479,0.10591059,0.22011653,-0.088822976,0.21293399,-0.04269015,0.0040779803,-0.0699182,-0.054222554,-0.2103156,-0.16128674,-0.061220497,0.07953488,0.08123185,-0.08520979,-0.17092255,0.08757393,-0.1874403,-0.0028057317,-0.33009797,-0.05137401,0.08599436,-0.25171444,-0.20645918,-0.24517812,-0.070095606,0.117344335,0.13789734,-0.3402886,0.048472397,-0.09016883,-0.07455544,-0.087880574,-0.018872432,-0.23862293,0.2395629,0.071341656,-0.112191916,0.10894534,0.09485224,0.10533756,-0.06492296,0.1272021,0.060919635,0.14449322,-0.3015955,0.25721228,0.15841557,0.064232275,0.10359028,-0.1596983,-0.23043922,0.12397335,0.013626054,0.058221653,-0.22131331,0.13678275,0.027497172,-0.01400997,0.2378662,-0.35462943,0.10798933
-0.051151183,-0.08196807,-0.33490545,-0.11933214,0.1366433,-0.16453193,-0.18666482,-0.12339282,-0.20078431,-0.4747314,-0.46103114,-0.0037178898,-0.47971058,-0.2690245,-0.56180006,0.0137348445,-0.23537076,-0.22411665,0.029690351,0.15048002,0.032968767,0.008569645,0.10796044,0.1549884,0.25624716,-0.211401,-0.10974579,-0.24423677,-0.37780786,-0.24173789,-0.26287192,-0.11177901,0.23177807,-0.33920482,-0.42756474,-0.37009853,-0.09218755,-0.042428497,-0.117566094,-0.04098757,-0.10163013,-0.23698966,-0.1677898,-0.25489512,0.02665562,0.13781597,-0.41706744,-0.32880062,-0.10317265,0.08841304,0.06558021,0.28180203,0.08896452,-0.36699784,-0.102194756,-0.23334469,-0.02145671,-0.045414787,-0.30721495,-0.4931871,-0.39865246,0.23207419
0.019251067,0.07362946,-0.16711393,-0.066664755,0.010464042,-0.27024874,0.027953722,-0.048361436,-0.17050724,-0.40676823,-0.07192504,0.109790936,-0.25848788,0.14175329,0.15259181,0.12092941,-0.13367169,0.10227388,0.031881828,-0.070247926,-0.02665073,0.0038443701,0.008384912,0.012276442,-0.15745784,0.026648857,-0.21409419,0.07566247,-0.60088986,0.20263869,0.15857041,0.11792144,0.004093772,-0.15775295,0.12469641,-0.28000873,-0.3236194,0.18608072,0.08819395,0.12519005,0.13107331,-0.046859212,-0.50619656,0.12318846,0.034284424,-0.048174128,0.1199021,0.03488103,0.002643856,0.031286594,-0.05638262,0.020534024,-0.17768176,0.048713323,-0.2894675,0.09228053,0.16107866,0.13592291,0.05498136,-0.10357323,0.08179674,-0.2571431
0.09163386,0.029460039,-0.20617844,-0.027732447,0.11671353,-0.15749718,-0.11991305,-0.18705824,-0.35826582,-0.08806627,0.29699135,0.072721824,-0.15913153,-0.0518152,-0.17630675,-0.33572185,-0.0317407,0.022325471,0.025448628,0.03935092,0.06648515,-0.08249647,-0.057553772,0.015182328,0.18644068,-0.19829969,0.21009111,0.2609044,-0.13245532,0.030943345,-0.0471863,-0.40836218,0.18530299,0.04891609,0.044153072,0.08696422,-0.13942811,0.013760691,-0.24187571,-0.11843407,0.0664425,0.009063573,-0.25003937,0.10282255,0.14338909,-0.00896724,0.18411659,0.15993425,0.2786533,0.090584055,0.039679147,-0.20374684,0.20424248,0.24888588,-0.31274813,0.09235969,-0.15094438,-0.54723877,0.08556807,-0.13475288,-0.36741585,-0.29939836
-0.051317267,-0.17469189,-0.41526648,0.054708675,-0.73190147,-0.55812925,-0.67171615,-0.12726855,-0.017286412,-0.18777663,-0.1509324,-0.11465117,-0.043575715,0.096416906,-0.10306468,-0.09640751,-0.3550738,-0.26729536,0.032860704,-0.15249799,-0.39449564,-0.2980696,-0.5151243,-0.5590137,-0.39050424,0.18846233,-0.5600889,-0.14450113,0.05404536,0.06410131,-0.08363788,-0.6072424,-0.2892332,0.11074797,-0.16073753,-0.15876189,-0.1913028,-0.14287871,-0.003800333,-0.19391195,-0.13403223,-0.23414193,-0.4396387,-0.25501344,-0.27332026,-0.085650355,-0.25693244,-0.07900544,-0.41530764,0.27197763,-0.41882107,-0.27401343,-0.23411994,0.23112746,-0.28702015,0.06896967,-0.520902,-0.46635786,-0.04769574,-0.17871332,-0.49853405,-0.04738254
-0.14240514,0.16120577,-0.095464684,-0.017421432,-0.033629905,-0.012110349,-0.12744035,-0.17923982,-0.13017182,-0.20351781,-0.19083183,-0.06587905,0.14100842,-0.32642215,-0.16112222,-0.1174337,0.14550887,-0.12032945,-0.25939927,0.19538578,-0.28528732,-0.24592102,-0.3734055,-0.18554285,-0.1566482,-0.24642558,0.03129564,-0.07706344,-0.1252592,-0.15528381,-0.2305323,-0.21004327,-0.1648615,-0.15289897,-0.122143,-0.102234565,-0.27381694,-0.4375276,-0.1264475,-0.3375901,-0.015820494,-0.15480624,0.08956208,-0.29157162,-0.108632855,-0.049704134,-0.072395004,-0.21445869,-0.19921394,-0.07188151,-0.15097,-0.15709816,0.10726517,-0.090848766,-0.07508652,-0.0736527,-0.10997999,-0.21995248,-0.383614,-0.18587631,0.05172395,0.045558125
-0.039934784,-0.009300195,-0.22540975,-0.06101454,-0.1754813,-0.0035124018,0.07916041,-0.04541529,-0.18012306,0.17000552,0.0071907914,0.02409367,0.07536966,-0.16554092,-0.088771716,-0.05146451,0.19703318,-0.27655762,0.11682838,-0.28462994,-0.24008392,-0.07337842,-0.20537932,-0.21178639,0.073027514,-0.09575598,0.0048751747,-0.2356221,-0.1053123,0.13650598,-0.030481264,-0.10600283,-0.16467313,-0.15132993,0.09833195,0.08452985,-0.13414232,0.064128436,0.110445164,0.08082619,0.24790469,0.11816522,0.020682422,0.043282904,0.085548304,0.050316367,0.11204315,0.18076465,0.008371262,-0.038353838,0.06060736,-0.02676574,0.16346048,0.0761759,-0.23071787,0.32933703,-0.2206672,-0.15794075,-0.25734285,-0.38208106,-0.10808344,-0.28958222
0.16843477,0.047209825,0.17636247,0.19835423,0.29184082,0.22150695,0.12726709,0.10123451,0.17543146,0.067216694,0.12358883,-0.22120269,0.27282494,-0.2687143,0.015357508,-0.0915975,0.006247899,-0.14741942,0.12086788,-0.15465009,-0.033118624,-0.29638734,-0.046387073,0.087309614,0.13943277,0.23622273,0.051458173,-0.09192073,0.3649841,-0.0036711746,-0.024577165,-0.09519155,0.09074909,-0.029624969,-0.050609715,0.09201143,-0.14667445,-0.22052373,-0.07760696,-0.33649454,0.051540803,-0.051543713,-0.0382564,0.18959777,0.0061061163,-0.15820035,-0.09541953,0.27783632,-0.29124364,0.09001466,-0.039108347,-0.0070153507,0.021780431,-0.22355293,-0.25152218,-0.12006125,-0.09443188,0.2067653,0.036353976,-0.20987737,-0.027512569,0.07497472
0.018767288,-0.032894023,-0.009224175,-0.032404058,0.08916806,0.015186455,0.029428212,0.0350809,0.091508664,0.07381184,-0.0019867097,0.0009638762,0.0082958955,0.07116289,0.094799556,0.15167777,0.090649895,0.12979376,0.073791355,0.06871449,0.13616076,0.015179454,0.021461014,0.17325407,-0.02577827,0.055662442,0.13649578,0.030862728,0.103230394,0.045525894,0.007767365,0.11143713,0.010379976,0.12277904,0.10292736,0.025267843,-0.397034,0.040945407,-0.20625186,-0.015018985,-0.13334885,0.10061848,0.08148265,-0.10770553,-0.011742771,-0.16423804,-0.1153895,0.025511174,0.022145994,-0.1279431,-0.23167259,-0.118533134,-0.24253847,-0.030234924,0.048156608,-0.09209843,-0.20912375,0.005312357,0.013538503,0.048620876,-0.10512489,-0.21090941
0.12382457,0.08888266,0.18604842,-0.031898808,0.17723572,-0.15055099,-0.046290107,0.1020415,0.07954813,0.12845112,-0.0320824,-0.05228409,-0.043309845,0.13132678,-0.18088154,0.015117058,-0.20401315,-0.106253594,0.036574364,-0.029448632,-0.1783966,-0.15503354,-0.08471342,0.16332962,0.0106046125,0.09294074,0.11666751,-0.08200951,-0.14479098,0.03989907,0.07706434,0.16038953,0.11887321,-0.07481179,-0.051189203,0.105836906,0.061272588,-0.15476377,0.12151823,0.06001023,0.11150761,0.1553029,0.18883878,-0.12799686,0.08886216,0.0100077605,-0.68190354,0.032706495,-0.18442799,0.08000428,0.12600432,0.0594341,0.104267344,-0.019393357,-0.048734,-0.0438442,0.055249877,0.17636111,0.098555036,-0.3058566,0.095074,0.1211749
0.11054037,-0.23727192,0.17214392,0.00041543567,-0.20217285,0.15660065,-0.03989395,0.27102682,-0.045864515,0.019849401,-0.3141583,-0.043032665,-0.121116444,-0.22423226,0.17123708,-0.065291435,-0.04206298,-0.099146575,-0.19716692,-0.3905319,-0.03698206,-0.18620376,0.10144265,-0.04022437,-0.074653484,0.01377048,0.046623882,-0.016593436,-0.26538378,0.049325503,0.122000575,-0.1637704,-0.07575097,-0.23177691,0.036313385,-0.014883857,0.02202487,-0.110780664,0.1211642,-0.21129248,0.17078175,-0.1339343,0.17288052,-0.09722922,0.052711762,0.0026478816,-0.03046449,-0.02509601,0.0030090166,0.034079485,0.06964569,0.09152329,0.12649852,-0.03236982,-0.13838363,-0.017975567,0.061643288,-0.03251153,0.0676776,-0.19597106,0.16895293,0.12953351
-0.38682288,0.11578393,-0.06449485,0.023791553,-0.06675423,-0.13290766,-0.16573915,-0.044409655,0.22031578,-0.4305349,-0.16191812,0.014512453,-0.015398677,-0.21617797,0.004467122,-0.09349449,-0.17415579,0.023943463,0.087323,0.08051833,0.15820548,0.027044427,0.06361663,0.028873635,-0.35267308,-0.25205883,-0.38644144,-0.28619868,0.032788113,0.101227574,0.11394045,0.10379702,0.043323137,0.14326453,0.11889088,0.07589176,-0.015081491,0.11113574,-0.01127783,-0.052379522,0.017282998,-0.1609574,-0.004921008,0.1772621,-0.08211927,-0.0622752,0.030457389,0.116679475,0.13849415,0.040830646,-0.07679418,0.08359621,-0.021537956,0.13380355,-0.09119644,0.1327357,0.07142814,0.03974154,0.072561234,0.1760438,0.16986313,0.05724802
-0.042881817,0.07264149,-0.07284446,-0.14687553,-0.012879899,0.15739198,-0.033242162,-0.10597695,0.019826956,0.11330245,0.07942151,0.33614525,-0.26768348,0.117787935,0.15734388,0.058619007,-0.08280774,0.23717342,0.10527264,-0.038159307,-0.14075655,0.124901675,0.18586978,0.20337574,-0.16551624,0.14340766,-0.19486094,0.14802285,0.068428576,-0.09541657,0.10191821,-0.2951534,-0.08604638,-0.25645193,-0.34118974,-0.3217779,0.064403445,0.10338387,-0.17662537,-0.0026484884,-0.09173738,-0.0060059964,0.04367493,0.18925111,-0.09607072,-0.12321193,-0.04359755,0.07634679,0.19194682,0.16583042,0.02830518,-0.030744744,-0.085206375,-0.023309512,0.06610875,0.029757757,0.16849817,-0.10381328,-0.11400852,-0.28840482,0.093103856,-0.39262933
-0.13494508,-0.194547,0.017257402,-0.14395045,0.17334144,-0.0766474,-0.04110361,-0.054632045,0.044536006,-0.05628609,0.18415928,0.09821342,-0.2387086,0.23273581,-0.026832579,0.015426803,0.0055287294,-0.1283936,0.3774524,0.23712784,-0.11328705,0.2795298,-0.08882132,-0.20017369,0.030817473,0.019785171,0.13817038,0.086412646,0.048568707,0.007109321,-0.05398815,-0.42034566,-0.16017976,-0.0566139,-0.1768781,0.18144417,-0.15052137,-0.3061271,-0.14615683,-0.020378929,0.11033172,-0.23745883,-0.11057625,0.024808427,-0.25745007,-0.06346284,0.16053493,0.01870451,0.118708275,-0.35802776,-0.3510691,-0.16337925,0.05542675,0.035651255,-0.028896349,-0.07443629,-0.37275842,-0.11599117,-0.024129255,0.015998477,-0.22766651,0.16711947
-0.18799604,0.07283852,-0.28241402,-0.1146464,0.107458375,-0.34669018,-0.08445552,-0.054791648,0.044066623,0.17733918,-0.54332834,-0.1279918,0.0067311195,-0.16723455,0.021698376,-0.24659972,-0.23252241,0.08979971,0.0578348,0.06716557,-0.19262047,-0.13480043,-0.44099733,-0.28219858,-0.35949826,0.15675615,-0.023963662,-0.38111055,0.10971453,-0.16537818,-0.163755,-0.26044655,-0.17904352,0.11827942,0.031427503,0.1291651,0.2523817,-0.15951623,0.07108549,0.17409539,-0.18586457,-0.4369856,-0.08951597,-0.14925225,-0.3565125,0.1786954,-0.4760813,-0.3189255,0.13363121,-0.16178863,0.016432323,0.21282177,-0.32153702,0.22942913,0.01503473,-0.72620004,0.11968153,0.40806422,0.07647547,0.1193575,0.0702522,-0.05477467
-0.6287184,0.14137779,-0.35916933,-0.3074344,-0.19117732,-0.18149601,-0.04789367,-0.08784154,-0.6404545,-0.47860307,-0.4712206,-0.51497763,-0.12714109,-0.53744465,-0.37822014,-0.081228435,-0.19684626,-0.1651686,-0.16368367,-0.050984718,-0.5787926,-0.15945643,-0.30033156,-0.3753676,-0.60410386,-0.47198427,-0.4349106,-0.4168109,-0.5311067,-0.24366528,-0.43464625,0.23834814,-0.32420698,-0.70267075,-0.24012737,-0.4749584,0.13331139,-0.41465914,0.016270522,-0.24583744,-0.11953552,-0.18794766,0.08827327,-0.33414313,-0.068591535,-0.18393941,-0.5934631,-0.42806268,-0.43363008,-0.16284217,-0.004401676,-0.08702334,0.08100659,-0.15363216,-0.16094281,-0.22536209,0.013934763,-0.05682652,-0.052987542,-0.31295097,0.0027951063,-0.1561682
-0.10141698,-0.12978907,0.021663016,-0.04401012,0.090319365,-0.058269385,0.106184185,0.065873526,-0.025914367,0.017012108,-0.10851423,0.004618396,-0.00805509,-0.08718723,-0.051976033,0.115541264,-0.042271733,-0.11442599,0.118425764,0.01913275,0.107127294,0.046438765,-0.045273352,0.063879095,-0.10521682,-0.02847231,-0.10707319,0.0012662931,0.079128094,-0.048697807,0.03244032,0.01951928,0.05219427,0.04529976,-0.005504446,-0.024210773,-0.021625625,-0.006301782,0.039096683,0.0005970364,0.12680858,0.004841727,0.07050689,-0.09847898,-0.121461496,0.100921325,0.06324098,-0.025606858,0.05020228,-0.043307252,0.1116921,-0.04556983,-0.069967784,0.13906391,-0.122290924,0.045798767,-0.0981402,0.090007424,-0.07703968,0.044042535,0.10053729,0.1138861
-0.049318213,0.07503527,0.16517214,-0.016703533,-0.1118409,-0.08166081,0.08213888,0.068435036,-0.010991928,-0.29895926,-0.15477358,-0.0671048,0.062385738,-0.04785779,-0.18271372,-0.019670116,0.046192806,-0.069916405,0.041772507,-0.11227967,0.02500549,-0.2198572,0.1166068,0.030123495,0.095299505,-0.07086987,-0.35400915,0.18028328,-0.13216648,-0.21676974,-0.1766482,-0.0524495,0.046822842,0.029039925,-0.06272797,-0.04336327,0.14939372,-0.03215558,-0.1737105,-0.12550741,0.20773113,0.056514766,-0.106625475,0.053990904,0.17869003,-0.036577515,0.17816184,0.11294462,0.19420159,0.16377944,0.04133669,0.11408247,-0.36120602,0.07987036,-0.12786588,-0.11811092,-0.04893012,-0.050773896,0.08993399,0.111261174,-0.017826352,-0.05811914
0.10792893,-0.09543631,0.08388827,-0.16650517,-0.12006387,0.13793217,0.17004661,-0.06278219,0.16534619,0.08603295,-0.0538752,0.11214878,0.21556816,-0.048601635,0.17648873,0.047068972,0.11634185,0.04506298,0.01970676,-0.04261036,0.04711437,0.15761563,0.007078399,-0.005737305,0.14574237,-0.14463985,0.020446647,0.08127761,0.13860433,-0.00909974,0.23686077,-0.12837629,0.00848684,-0.109519474,-0.14835107,-0.07895848,-0.13584453,0.03273641,0.19853191,0.10605094,0.18908481,0.08698349,0.090227135,-0.09445892,-0.12201938,-0.37525705,-0.08285349,0.03239452,-0.13803697,-0.14928244,0.058902133,-0.12233024,-0.120893516,-0.26004258,0.11898175,0.16004893,-0.009112158,-0.38983458,-0.022321455,-0.12556835,-0.09917775,-0.27542132
0.060944494,-0.027406212,0.082309164,0.059332173,0.063472584,0.11189659,0.10105667,0.045552272,0.08892452,0.06737955,0.09573384,0.07743099,-0.04085256,0.07964278,0.015851816,0.041670296,0.011092048,0.026059002,0.02567653,0.16019398,0.05431991,0.065580875,0.062566884,-0.023936654,0.027325628,0.012147524,0.022994326,0.019749247,0.009848941,0.008324369,-0.13013823,-0.034207627,0.0404895,0.021217102,-0.035877604,-0.023434486,0.059017763,0.12283898,-0.18485509,-0.0034300182,-0.009269853,-0.15851265,0.015167903,-0.07362817,-0.39322406,-0.12990093,-0.17634869,-0.30978864,-0.35095215,-0.23017232,0.02178336,-0.029483909,-0.15584986,-0.17105448,-0.07601092,-0.62725604,-0.062477533,-0.2142574,-0.4196337,-0.20841305,-0.023183094,-0.12237599
-0.10064003,-0.06425696,-0.13485922,-0.012256102,-0.0065126917,-0.024527164,-0.13988575,0.1106447,-0.17441143,0.04667678,-0.10785381,0.09199499,0.110839546,0.10432113,0.15866463,0.17709357,-0.05149112,0.011640192,0.111004084,0.0038862799,0.19136664,-0.011564511,0.044321667,0.07632634,0.107007265,0.067455664,0.12758464,0.103885554,0.07417273,0.08811828,-0.06924533,0.09236226,0.1675681,0.053550918,0.166043,0.06979241,-0.032717347,-0.29398587,-0.38142967,-0.42564395,0.05888185,0.14470346,-0.52847314,-0.060441796,0.03402255,-0.08933696,-0.10337832,0.083636604,0.06674732,-0.09809884,-0.35422415,0.025230924,-0.30214933,0.15294717,-0.33664915,-0.09196321,-0.090253346,0.001778082,0.16138916,-0.10057692,0.03455858,-0.06876193
0.03512108,-0.2200212,-0.18835974,-0.23499636,-0.021794442,-0.23584299,0.13242105,-0.05710714,0.24470715,0.073775835,-0.29481992,-0.25546435,0.1451248,-0.25440037,-0.08454578,0.21765493,-0.10460575,-0.3155805,-0.0016511877,-0.117584966,-0.15982907,-0.11654709,-0.03575135,0.17485003,-0.3383272,-0.11109765,0.18741226,0.052809544,-0.5521536,-0.22275098,0.11562942,-0.100402996,-0.16244522,-0.4323866,-0.24084578,-0.27573907,-0.40061373,-0.2968772,0.03360205,-0.22608663,0.26214787,-0.6014837,-0.0885394,-0.11967825,-0.3025697,-0.23845035,-0.18880013,-0.5107003,0.09736828,-0.18631087,0.0068794987,-0.11700301,-0.1775539,-0.23668121,0.04314975,-0.53763723,-0.27510592,-0.06385824,-0.04125267,-0.42036572,-0.23248574,-0.18288186
-0.10218841,-0.16052434,0.090169206,-0.19043872,-0.01559719,-0.22534664,-0.27340278,-0.3191159,-0.30116212,0.32182705,-0.15768342,0.38622552,-0.22797838,0.070979595,-0.28187323,-0.20657575,0.099678524,0.35232595,-0.45930427,0.20450273,-0.07714671,-0.3261215,-0.26943198,-0.03364023,-0.53745216,-0.052573126,0.073731996,0.2747102,-0.11046244,-0.32358316,0.0012307931,0.07886563,-0.44092855,0.035788305,0.041159697,0.030960115,0.19043201,0.042176265,-0.15705891,-0.15489222,-0.2785241,-0.05267102,0.120763615,-0.16738123,0.066847846,-0.42472613,0.181423,0.06445887,-0.24581894,-0.06437798,-0.074883886,0.13281667,-0.42635232,-0.03328103,0.20552209,-0.110479936,-0.121664785,-0.014422834,-0.5265081,-0.23136504,-0.42844665,-0.43144888
0.04381532,0.14923204,-0.0014579737,0.12204712,-0.03554157,-0.095481284,0.080822706,0.3055682,-0.0925352,-0.13235709,-0.16454883,-0.091575615,-0.23091838,0.24872875,0.07114044,-0.0558275,0.13691683,-0.17808934,-0.0024234375,0.1676756,0.100104585,-0.17433229,-0.3888687,0.18609546,-0.61638886,0.116342165,-0.02902759,0.04860183,-0.30648366,0.19432068,-0.12666759,-0.032846842,-0.007499101,-0.0056931837,0.1710811,0.17822342,-0.45706907,-0.11487875,-0.24257642,-0.12621187,-0.24045154,0.109835684,-0.44734892,-0.28357875,0.026381606,0.09373418,-0.16932108,-0.08128579,-0.5113782,-0.40351206,-0.4832671,0.08720074,-0.2345938,0.15558656,-0.14489436,0.027145227,-0.2505667,0.025256772,-0.43998614,0.18738155,0.072436966,0.14801665
-0.21836936,-0.115544416,-0.1508864,0.043606907,0.23424718,0.15471053,0.010226204,-0.19521946,0.08692296,-0.008750638,0.008490997,-0.25170043,-0.12813549,0.19115807,-0.24302231,-0.13652104,-0.4332312,0.0030914883,-0.17759001,0.0056901188,-0.11689522,-0.14898445,-0.012157967,-0.024074158,0.18502255,0.12867738,0.27008793,-0.097676836,-0.2786714,-0.9590113,-0.12315893,-0.5443576,0.19837263,-0.15023991,0.069681436,-0.35500786,-0.33118483,0.28721258,0.123902455,-0.15406297,-0.34136942,-0.15888563,0.21539848,0.37315542,-0.17175843,-0.048496388,-0.047508728,-0.21438804,0.32161486,0.20115897,0.1809998,0.10114355,-0.6317358,0.011463298,0.042248823,-0.47640237,-0.38139173,-0.07048568,-0.006837337,-0.015743937,-0.03478435,-0.13484162
0.0041144486,-0.28333014,0.11889612,-0.045458023,-0.20135453,-0.18119968,0.03551566,-0.15919542,-0.057513848,0.16861594,-0.36313954,-0.42284074,-0.16068064,-0.03202588,-0.14115578,-0.040374406,-0.5720803,-0.14724803,-0.015885761,-0.04375095,-0.2122044,0.15479673,-0.17307518,-0.03387854,-0.3109308,-0.275135,-0.18784319,-0.40534115,0.00785081,-0.17646296,-0.14275376,0.13398135,0.324509,-0.16077001,0.0077176215,-0.27661654,0.21006939,0.056944225,-0.15336688,0.29795757,-0.2871851,0.17088649,-0.3578772,0.28481048,0.2049561,-0.43414715,0.16376275,0.11896675,-0.046075508,0.19890606,0.027147613,-0.14079633,-0.017768199,-0.39636806,-0.41923127,-0.28487355,0.35940573,-0.010406844,0.1596241,0.2021596,-0.22216214,-0.37117144
0.0015401777,-0.0019431922,0.15995939,0.049308248,-0.14368176,-0.16858411,-0.0021719646,-0.12953171,0.07598997,-0.39136034,-0.03654903,0.024126362,0.087118946,-0.026048297,-0.0027291616,-0.2645102,-0.030388016,-0.4717181,-0.013884181,-0.2597601,0.02265129,0.07934289,-0.2563817,-0.20282926,0.015200914,-0.26916876,-0.08831135,-0.08183261,0.053872485,0.032217,-0.12542844,-0.1657834,-0.17922792,0.062499337,-0.36141294,0.22527625,0.010198201,-0.08671167,0.052638847,-0.082461275,0.017913323,-0.18424225,-0.15801343,-0.41517517,0.17109817,-0.17968555,0.19125457,0.014924434,-0.01221755,-0.054538045,0.015157353,-0.026839599,0.037014633,-0.021527316,0.11252229,0.08984057,0.084775954,-0.02794188,-0.046990696,0.11612244,-0.02994727,0.2052694
-0.3039385,0.015953662,-0.15689704,-0.624879,-0.104707085,-0.17446156,-0.025696194,-0.35313645,-0.18008952,-0.26669827,-0.5368696,-0.09986473,-0.41541028,-0.2213363,-0.5718076,-0.31386572,-0.44898558,-0.4593381,-0.27690145,-0.3019039,-0.30561548,-0.11114668,-0.10808177,-0.122495696,-0.32490805,-0.03231693,-0.14495414,-0.43127263,0.085163936,0.04658983,-0.28455648,-0.34856805,-0.1674887,-0.6777379,0.15486312,-0.20515768,-0.084735736,-0.35194287,0.0023548868,-0.33062714,-0.13926215,-0.094355114,-0.4523933,-0.31323358,-0.12902853,-0.28879383,-0.5176281,-0.09554305,-0.6009036,-0.37834013,-0.47917536,-0.35529977,-0.69896287,0.21661438,-0.17662744,0.13144074,-0.30158633,-0.01575726,-0.32868296,-0.20060487,-0.10589919,-0.09321134
-0.1561844,-0.14421661,-0.14260243,-0.1473001,0.07965441,0.09560252,-0.2260536,-0.04463584,-0.14558236,0.0056875185,-0.25819555,-0.17822637,-0.07061359,-0.18582496,-0.09648593,-0.14586146,-0.18002652,-0.094193086,0.008048442,-0.2880103,0.028660994,-0.06322796,-0.18798572,-0.07808799,-0.043138817,-0.117195636,-0.023592882,-0.13754937,-0.057806432,-0.1150304,-0.027656626,-0.032555893,-0.100251205,-0.16928338,0.09091831,-0.14405634,-0.21577276,-0.28466684,-0.3137379,-0.16245928,-0.25059944,-0.2479331,-0.11192509,-0.17755854,-0.04464167,-0.099472865,-0.003682702,-0.21055594,-0.2836685,-0.3002807,-0.16410078,-0.16935728,-0.2297682,-0.046922006,-0.1320844,-0.07081673,-0.32925496,-0.32326415,-0.21476631,-0.12030382,-0.19248539,-0.10905503
-0.13797207,-0.06550562,-0.10983255,-0.03225956,-0.19192487,0.10021747,-0.20913315,-0.08289081,0.056245822,-0.083307125,-0.1632841,-0.19328935,-0.13635288,-0.19171737,-0.008143305,-0.10562382,-0.0026473145,-0.059838608,-0.12625566,-0.08001125,-0.066341594,-0.038126122,-0.05906832,-0.1325571,-0.20714915,-0.116168454,-0.100301124,-0.11464476,-0.0806769,0.08814796,-0.014887907,-0.05979538,0.06541377,-0.088352785,-0.107476406,-0.19974266,0.04210038,0.066311575,-0.15410255,-0.018624559,0.0831748,-0.10720918,-0.027400745,-0.059756406,-0.19640473,0.096396685,-0.079754084,-0.09072529,-0.10853537,-0.1339012,0.053403966,0.039176326,-0.13176504,0.05340877,-0.025772197,-0.019889101,-0.10181299,0.08667629,0.09641397,-0.0031588338,0.04283541,-0.0047777826
-0.29570252,-0.022081852,-0.06373165,-0.8546126,0.009944621,-0.28380492,-0.4567281,0.010038622,-0.3300741,-0.17507617,-0.13900353,-0.026143063,0.124204636,0.07158608,0.091724396,-0.05211186,-0.036045805,0.01687685,-0.11011396,-0.013182571,0.1353888,0.14015886,0.14421283,0.1629594,0.02460364,0.061139915,-0.17424162,0.11871983,-0.07606134,0.14075425,-0.07361401,-0.09685594,-0.12830551,0.04267007,0.011849785,0.2116718,-0.054293796,-0.14889018,0.12795831,-0.050915025,0.057564102,-0.35531992,0.08429615,0.0073745805,0.07765792,0.09139062,0.23612942,-0.025440352,0.18019553,0.043770343,-0.110030115,-0.05097786,-0.18686377,-0.06381139,-0.18184881,-0.09630565,-0.10642219,-0.28283438,-0.06125781,0.05331326,-0.27317607,0.22470163
0.1598249,-0.2977975,-0.17244172,-0.17133391,-0.15632987,0.10944266,0.06873173,-0.29155928,0.103969745,0.037299927,0.108388364,0.22872345,-0.0491496,0.084922016,0.0076491395,0.031043373,0.026515638,-0.13109127,0.01045764,-0.3705074,-0.24090064,-0.062459517,-0.11003458,0.03793214,0.099675044,0.13018447,0.08770671,0.05862108,-0.17678851,-0.09874746,-0.10990432,0.08118181,-0.16803251,-0.33661634,-0.08667707,-0.24729574,0.12284268,0.06747389,0.027256478,0.059536364,0.15493165,0.12989289,0.065889075,-0.23995706,-0.023838222,0.0140822325,-0.13961439,-0.034992762,-0.07415615,0.026013797,0.16703807,0.13089429,0.078774124,0.20265408,-0.03401216,0.13743366,-0.21151477,0.061094537,-0.2046444,-0.30261585,-0.11549993,-0.40272206
-0.18914989,0.13935016,0.038340356,0.14409898,0.18580611,0.098793894,-0.06875182,0.014675652,-0.05901681,-0.18931869,0.0873885,-0.24189967,-0.059125625,0.04539887,-0.116552584,-0.0399589,-0.1813249,0.015199859,0.12867457,-0.024079753,-0.06816102,0.08694831,-0.03640122,0.011970384,-0.03092542,0.06946752,-0.049624845,-0.07226374,-0.09472637,0.15199679,0.10168989,0.21930912,-0.0013965442,0.020835206,-0.107400276,0.04359033,-0.06393109,-0.06189646,-0.10283329,0.2779037,-0.06220262,0.15942559,-0.32135707,-0.12594205,0.1850683,0.022194587,0.027766248,0.11066197,-0.028557051,-0.22902043,-0.27940047,0.03647945,-0.021288684,0.030957364,0.21362916,0.19593975,-0.0855627,0.13617851,0.062039696,0.083368406,-0.11661877,-0.0441328
-0.031872604,0.019063469,-0.0059157605,0.12114224,-0.12127523,0.09299595,-0.079836845,-0.0059863487,0.004969788,0.034768693,0.05137661,0.11051411,0.03579821,0.10340715,0.09338331,0.04629561,0.08572396,-0.0059473356,0.004889853,0.04248981,0.053267412,0.040247146,0.14258699,-0.022295335,0.044731457,0.08617135,-0.045796152,0.044468593,0.11590503,0.10621034,0.110489205,-0.025879003,-0.0080166515,0.015895335,0.09147911,0.102761894,-0.1561555,-0.33056477,-0.26482564,-0.23934008,-0.11052171,-0.16108008,0.061456304,-0.35786435,-0.4767347,-0.359884,-0.42287135,-0.051995203,0.1203196,-0.0969435,-0.5547331,-0.07313459,-0.041629504,-0.14837162,0.021056963,-0.09447544,-0.33243716,-0.028109664,0.09286229,0.03933125,-0.091015585,0.012104722
-0.81744736,-0.25803456,-0.27084044,-0.5518784,-0.13522257,-0.58537626,-0.008153374,-0.28333256,-0.19592942,-0.30153993,-0.22371969,-0.19494072,-0.44663128,-0.48838654,-0.07021881,0.015943078,-0.4798834,-0.6129059,-0.29920682,-0.071133465,-0.1541991,-0.1648423,-0.5597346,-0.51723605,-0.50241077,-0.25401273,-0.41382372,-0.12533739,-0.5948701,-0.16715375,-0.7752373,-0.58417,-0.61010146,-0.3873407,0.037563104,-0.32910544,0.08422267,-0.16151664,-0.10574861,-0.38783914,-0.12852472,-0.42310002,0.07948715,-0.20611961,0.026611222,0.077551596,0.08070408,0.053820137,-0.043010324,0.096931845,0.016124409,-0.12632287,-0.19336605,0.005918718,-0.68436486,-0.22921357,-0.2245438,0.11043605,0.01583556,-0.22184412,-0.07876568,-0.28481352
-0.08567927,-0.21405397,-0.40510085,-0.024730155,-0.113403425,-0.07929746,0.17344211,-0.22319973,-0.12621897,-0.09064877,-0.37466976,-0.21902697,-0.08023742,-0.33977988,-0.18387598,-0.32989568,-0.21052708,-0.4893985,-0.16271715,-0.04031796,-0.2870518,-0.31440297,-0.28472295,-0.27775583,-0.2812785,-0.111677766,-0.38639933,-0.1878064,-0.3924255,0.048545185,-0.1689365,-0.6267252,-0.49119198,-0.30851594,-0.30074894,-0.24619238,-0.012432522,-0.034391873,-0.17179276,0.26364443,-0.18400037,-0.3240396,0.019381968,0.02959493,0.056861848,-0.20060663,-0.25706172,-0.025731212,-0.3092154,-0.09145696,0.012201971,0.1666831,0.14082822,-0.22702482,0.17437522,-0.14555529,0.01779304,-0.2164277,-0.30345595,-0.15206498,-0.24783029,-0.16073476
-0.22990309,0.07272402,0.018872408,-0.083298326,-0.12603755,-0.07818248,-0.13582754,-0.15557417,-0.09073742,-0.14874321,0.11225572,0.11873408,0.011797736,0.07274969,0.043326117,0.05215384,-0.012368975,0.11038547,0.14259541,0.07839153,0.1179185,0.13218799,0.05741048,0.012421914,0.04628627,0.062597916,0.0020495001,0.09025753,0.07098265,0.018458134,-0.079819545,0.012688458,0.10889458,0.047286253,0.07284749,-0.045941275,0.11905825,-0.06817489,0.09164656,0.08145062,0.04492131,0.08056582,-0.23382017,0.011963965,0.05336561,-0.002131626,-0.19665423,0.104340516,0.00022012698,0.116664805,0.09293178,0.12940365,-0.22540541,0.11162307,-0.10610427,0.064342335,0.21053536,-0.12588985,0.013610232,0.009215677,-0.38194662,-0.035135802
-0.18098697,0.13258998,-0.055484124,-0.14568247,-0.13901678,0.058157492,0.056494325,-0.23958771,-0.18156643,-0.13111624,0.1266459,-0.09528196,0.065791555,-0.11524754,0.0358432,0.21151845,-0.01971381,0.11160365,0.032449957,0.09822688,-0.025841728,0.1666788,-0.04988075,-0.21767133,-0.092602745,0.01089985,-0.118512884,0.043354876,0.104806885,0.0920183,0.09912226,-0.058189612,0.020256447,-0.19330962,-0.28184548,-0.22632553,0.104190215,-0.5514256,0.13600045,0.33927798,-0.09508756,0.27226,0.2944538,0.35572943,-0.033678062,0.15542236,-0.4405012,-0.083220206,0.28450096,-0.24218865,-0.223545,-0.17131062,0.19122414,-0.23581655,0.0038861549,0.41204724,-0.0384429,-0.23944004,-0.0757114,-0.094681434,0.21637426,0.028652592
0.039554134,0.113868825,-0.16181935,-0.3065406,-0.1474906,-0.18508594,-0.2917516,-0.33163607,-0.007583185,-0.179825,0.0077278167,0.06921487,-0.15952678,0.11809164,-0.008564556,-0.004853751,0.009414835,0.036027104,0.08087795,-0.007619553,0.14478286,-0.018190676,0.13909695,0.07703936,0.029817946,0.037485328,-0.1823268,-0.022078885,-0.16957712,0.09224097,0.074211635,0.075257935,0.011504539,-0.05976875,-0.10408515,-0.18649095,-0.030715419,0.11787442,0.16093038,-0.2468709,0.16351096,-0.07541234,-0.04520211,0.11364174,0.04350722,-0.008249121,0.13310254,0.12065185,0.1498465,0.20615289,0.008755163,0.07742323,-0.25256667,0.020071134,0.0773409,-0.09676036,0.12763512,0.109537035,0.016972225,0.057871114,0.09924569,-0.014749186
0.046787366,0.11345611,0.20022765,0.23438387,-0.04422191,-0.15031871,-0.21485247,0.18624024,0.15856402,0.16318022,-0.21629201,0.17889024,0.12240604,0.036095913,0.12037993,-0.002668706,0.055147815,-0.17343093,-0.019397533,-0.038537968,-0.037626565,-0.051754907,-0.18186265,-0.010486078,0.06397004,0.08879722,0.06548065,0.20726185,0.17800422,-0.026463859,0.006617503,0.056356333,-0.2315158,-0.079912014,-0.20133887,0.13338369,0.09758149,-0.09961192,0.019474939,-0.05280353,-0.16552316,-0.16169374,0.18979304,-0.22040199,0.19603851,0.21934387,-0.15178241,0.0708761,-0.4458998,-0.61036134,-0.045606498,-0.032923076,-0.00093272794,-0.40146393,-0.05081047,-0.1278943,-0.25411043,-0.016089894,-0.38557747,-0.235755,0.036292497,0.10786285
-0.2932719,-0.52721953,-0.46790832,-0.48262826,-0.32834846,-0.7963164,-0.49326727,-0.23291335,-0.43752685,-0.5778489,-0.20865639,-0.0180767,-0.06584379,-0.37706512,0.3263289,-0.2839034,-0.059017055,0.0020123567,-0.22167082,-0.31014526,-0.15153837,0.029795503,-0.0038764232,0.04308105,0.21576026,-0.41274363,0.09690317,-0.21881498,-0.6671155,-0.5675903,0.049090322,-0.18366715,-0.41742975,-0.41258085,-0.33777368,-0.25787044,0.04779377,-0.12632914,-0.04434322,-0.27996704,-0.23769447,-0.35887405,-0.7062743,-0.63279873,-0.34528717,-0.2687411,-0.43967396,-0.49307206,-0.3960172,-0.5032232,-0.116156235,-0.65447843,-0.3063811,-0.14443512,-0.68317777,-0.32471704,-0.51789457,-0.18758294,-0.3783126,-0.47353455,-0.91903865,-1.0049993
-0.0680011,0.0073518674,0.1005081,0.09386484,-0.06870714,0.074834175,0.1572807,-0.071406655,0.046385854,0.11484849,-0.18014361,-0.042333655,0.03686314,-0.1183655,0.062469427,-0.03708488,-0.07648052,-0.09718768,0.122511245,0.03589954,-0.040616103,-0.059458356,-0.04527296,-0.13811937,-0.14930227,0.023502849,-0.16486566,-0.11872397,0.011679891,0.0741388,0.026470294,-0.047992676,0.044002406,-0.026972212,0.07932358,-0.13933241,-0.06381698,-0.14227584,-0.09328909,-0.073624164,-0.14134479,-0.007004655,-0.085863814,-0.07380148,-0.10457197,-0.13881595,-0.06313441,-0.11222926,0.063539594,0.15551627,0.0644117,-0.062022258,0.06804772,-0.036043853,0.03664085,-0.029467532,-0.04241639,-0.02902008,-0.08863997,-0.035943188,-0.026017498,0.0059476774
-0.27438214,0.060274128,0.16284327,-0.19911636,-0.33143628,-0.074151434,-0.115958385,-0.067691535,-0.20237692,-0.18830544,0.013349528,0.11840713,0.017250262,0.08188567,0.09584037,0.059581563,-0.054677866,-0.016525162,0.023397252,0.023099389,0.14853667,0.07495397,-0.16310401,-0.121390216,-0.09681195,0.11089081,-0.0038306506,0.122064896,-0.047135204,-0.01463396,-0.10441791,-0.065467,0.019987457,0.11687326,-0.16346046,0.09687854,-0.16663897,-0.08154227,0.093514584,-0.2519283,0.16000086,-0.1425092,0.11822261,0.03482874,0.04791997,-0.094487935,0.14991906,0.009963046,0.036237855,-0.039400585,-0.2023779,0.057700638,-0.33412567,0.21742278,0.06769473,-0.22298366,-0.28076896,-0.11679926,-0.021892471,0.15003388,-0.3622023,0.065202035
0.12906818,-0.06283575,0.16363403,-0.20811407,-0.29245666,-0.076223016,0.14218439,0.0852443,-0.043554552,-0.1473102,0.12226792,0.060312226,-0.12838925,0.046365704,0.17234874,-0.016193533,-0.18396655,0.0300014,0.060122814,-0.11731143,0.051805172,0.061198078,0.11713286,0.034531705,-0.13192077,-0.051273488,0.015905203,0.057995427,0.008505604,-0.02685991,-0.046329353,-0.03960308,-0.04387675,-0.05838624,-0.20412977,0.22664116,-0.15264119,0.021500027,0.019555127,0.030296294,0.16783206,-0.09046697,-0.20003764,-0.004609374,0.17132907,-0.065058835,0.082699694,0.06292503,0.10274866,0.13729686,0.07033819,-0.36799252,-0.28579032,0.12666273,-0.22708112,0.045926612,0.066144794,0.063280754,-0.011127948,-0.07309877,-0.233975,0.21737929
-0.10101717,-0.035905927,-0.3050522,-0.51949674,-0.007804149,-0.29498616,0.122877255,-0.27066612,-0.055108994,-0.051646173,-0.07752522,0.27224988,-0.012155203,-0.20566727,-0.06590407,-0.011761179,-0.44057557,-0.04173573,-0.37840745,-0.2128308,-0.2322155,-0.27488744,0.13744244,0.11081035,-0.1948092,0.15984833,0.10312642,0.06354291,-0.17155689,-0.3359782,-0.14841403,0.30041003,0.19891375,-0.012328085,0.11027264,-0.23256104,-0.5212733,-0.38555995,-0.20006089,0.15397525,-0.32536677,-0.009190693,-0.3921131,0.19215749,-0.2147771,-0.052256115,-0.07853714,-0.10672696,0.19153531,-0.20636332,0.24979202,-0.25095296,0.036849637,-0.104296446,-0.23386398,-0.08590885,-0.38273776,0.33138674,0.108094655,-0.04766657,0.07806799,-0.31875005
-0.057421472,-0.13115422,-0.3197466,0.05997142,0.13000782,0.010518525,0.21624944,-0.43867186,0.18228662,-0.078304216,0.07428421,0.14693913,-0.31627932,-0.29923415,-0.01926161,-0.04576986,-0.082730725,0.17730597,-0.0654342,-0.3477791,0.16845106,0.04623152,-0.23837572,0.016218103,-0.05238449,-0.022362847,-0.25849897,0.05500643,0.13258754,-0.09541469,0.1064471,-0.06752344,0.2117886,0.15732695,0.043847438,-0.13636388,0.05908978,0.13005106,-0.04254857,0.075346395,-0.03728167,-0.30726576,-0.03237238,0.1245473,0.15541293,-0.09089178,0.20764756,-0.049976807,-0.47903645,0.07855388,0.15933464,0.013601886,-0.2611727,-0.058760166,0.1692809,-0.10103698,0.07251387,-0.08668903,0.17438167,0.16001932,-0.047643453,-0.1331659
-0.14760883,-0.11409825,-0.49599206,-0.6053442,0.2614885,0.18850523,-0.44495198,-0.20251739,0.12818155,0.052279823,0.08556232,0.051817615,-0.24324393,-0.23603453,-0.5760295,-0.10675121,0.10202943,-0.010160895,0.10726982,-0.4485462,-0.13837868,-0.4691809,0.005417043,-0.10808854,-0.42363384,-0.20659795,-0.017701197,0.0999311,-0.5148342,0.049215265,-0.08171578,-0.2982061,0.084642515,-0.14156188,-0.30481508,-0.34332266,-0.30176562,0.3305134,-0.5898002,0.084551565,-0.23404767,-0.08554652,0.33335945,0.03647627,-0.52058357,-0.19141687,0.095595226,-0.1758786,0.17888647,0.13025868,-0.08314635,-0.12988925,-0.31916082,-0.21917774,-0.42327586,-0.43884736,0.16278818,-0.37235534,-0.30264208,-0.4205786,-0.0689841,-0.19053704
-0.2116542,-0.084443346,-0.15568073,-0.03471145,0.08879332,0.016267737,-0.22312513,-0.2049461,0.034586858,-0.010615092,0.13283902,-0.03063342,-0.32322368,-0.051512092,-0.11053538,-0.14487791,-0.21892667,0.18655817,0.14512365,-0.075157024,0.080073476,-0.15166743,-0.04419091,0.16956818,-0.089854546,-0.13682844,0.111325376,0.21232152,0.040381253,-0.007365965,-0.04448772,-0.06133505,0.032080915,0.13101037,-0.026493238,-0.13938487,0.15136395,-0.022164157,-0.30678847,-0.12392189,-0.49051428,0.14697261,0.011185145,0.25053638,0.14956957,0.072045445,0.031748198,0.0888878,-0.002021532,0.15118366,-0.15894488,-0.15492271,0.08325748,0.09218724,-0.16504982,-0.01933766,-0.13772888,-0.18510585,-0.032093737,0.07780614,-0.08873243,-0.4196691
-0.090867445,-0.05007876,0.11813485,0.08411144,0.061411694,-0.10988631,-0.28965572,0.036972303,-0.12856066,0.077374354,-0.021734277,-0.17577355,0.09314241,-0.13140756,-0.24036992,0.172457,-0.33732057,-0.15007432,-0.027852345,0.092729434,-0.12232589,-0.30702072,-0.02765396,-0.17772846,-0.020859595,-0.12193616,-0.12002907,-0.2665234,0.10242061,0.105111346,-0.1169821,-0.018189033,-0.07153734,0.25881493,0.17651731,0.10279163,0.06804574,0.023474433,0.16713181,-0.11999783,0.04477574,0.17328383,0.09998418,0.07232544,-0.16837126,-0.42920795,-0.13986216,-0.7260361,0.040252205,-0.038808186,0.13139631,-0.13485241,0.065864764,-0.04708233,0.05505747,0.092116304,0.011360088,0.03313194,-0.11878062,0.21120259,0.0025792755,0.13545264
-0.15052652,-0.25352004,-0.10031196,-0.2446291,-0.030576702,-0.23337252,0.07980482,-0.059026208,-0.03455496,-0.22126846,-0.08377673,0.0625873,-0.34960696,0.050781205,-0.032854054,0.0426182,0.027879179,0.15565512,-0.21163996,-0.0639074,0.17457251,-0.104123235,0.02813933,-0.2078555,-0.23041198,-0.016410394,0.05009294,0.17448401,-0.57311916,-0.017999185,0.06471327,0.087848514,0.16432548,-0.038290285,0.152262,0.07285398,0.06768387,0.030156123,-0.22770137,-0.26353875,-0.1420319,0.13365296,0.054048326,-0.045949295,0.022617966,-0.016222103,0.20001096,-0.2510015,-0.15793893,-0.071084835,-0.010781881,0.04349734,0.09483942,-0.05376455,-0.14118844,-0.08346148,0.16223489,0.0593183,0.259677,-0.03730705,0.08624577,0.041453164
-0.13606642,-0.08081345,-0.35123682,0.012334987,0.057641227,-0.19524692,0.0260452,-0.25355527,-0.13838497,0.12825643,-0.14733222,-0.057912953,-0.12027553,-0.28440034,0.036256246,-0.08488289,0.022781832,-0.23546965,-0.065772764,0.08931158,-0.20317556,-0.39085045,-0.023558013,-0.14858994,0.30341774,-0.03235107,-0.24484855,-0.09061966,0.0018485343,0.04200806,-0.07567996,-0.11452776,-0.3843042,-0.29167238,-0.17940775,-0.12950851,0.028072333,-0.29102874,-0.27705938,-0.306124,0.10211366,-0.3225553,-0.33235475,0.235726,-0.46438113,-0.116375305,0.008184306,-0.3743101,-0.18093057,-0.31627005,-0.11237443,0.2755731,0.12409266,-0.2951394,-0.28281176,-0.018497124,0.09525007,0.0036915739,0.3154226,0.15112802,0.23097138,0.060013656
-0.27109256,-0.16989575,-0.3390768,-0.009329584,-0.1707359,-0.156769,-0.08495294,-0.38142166,-0.19371553,0.17055729,-0.17807712,-0.07711914,0.028837787,-0.19308521,0.048385907,-0.24692668,-0.033660218,0.021738378,-0.1869592,-0.17229308,-0.04092431,-0.12818706,-0.24666284,0.008442577,-0.09151815,-0.36678123,-0.13379239,0.025363153,-0.11344653,-0.049709484,-0.08762465,-0.1876839,-0.13298489,0.08306897,-0.28469267,-0.07008667,-0.266053,-0.14235938,-0.020986335,-0.10670915,0.039464153,-0.1692484,0.13178313,-0.119965464,-0.046729013,-0.20527694,-0.08912446,-0.2104669,0.009064752,0.034478683,0.017160611,-0.06194551,0.15598491,-0.10493705,-0.093037575,-0.085966654,0.07793929,-0.10174561,0.15559208,-0.012705231,0.016833315,-0.052540507
-0.36541495,-0.27179554,0.008415931,-0.17051327,-0.17716478,-0.20432179,0.3094797,-0.24923906,0.018229969,-0.48176926,-0.090087526,0.11273082,-0.07306873,0.00711155,-0.14063527,0.095929176,0.16610663,-0.3454436,-0.016533151,-0.22081383,-0.2332309,-0.1421083,0.0028038216,-0.23416471,-0.2295055,-0.251695,0.116344646,0.17700031,-0.08153465,0.18717024,-0.35863155,0.0914332,-0.16183338,-0.15872832,-0.18536378,-0.08323826,-0.26177827,-0.09440966,-0.22781922,-0.42051628,-0.17315045,-0.2093887,-0.17420377,0.18832509,0.18451366,0.078343526,-0.4061745,-0.20663044,-0.20996991,-0.2640225,-0.11482319,0.20312217,-0.3523953,-0.1710376,-0.26808926,-0.4836273,0.085607514,-0.52463746,0.03559716,-0.009823111,-0.35628432,-0.58472
-0.021917637,-0.031026615,-0.31509164,-0.6010415,-0.5087191,-0.03448954,-0.19652206,-0.8951888,-0.4034812,-0.25418407,-0.3487485,-0.14942726,0.06757975,-0.18050738,0.0736773,0.16102941,-0.54159397,0.25728458,-0.287827,-0.044985663,-0.2618001,-0.22946456,-0.18992135,0.122857735,-0.06292452,0.090197004,0.16200696,0.04264206,-0.16068192,-0.26172617,-0.23310424,-0.4198855,-0.6024908,-0.2950606,-0.43747434,-0.55591005,-0.27407318,0.035076797,-0.1118338,-1.0259153,0.07089237,-0.38126513,-0.26329935,0.2665389,-0.057572346,-0.014519661,-0.026319424,0.11213529,-0.33462533,-0.29828826,-0.07606275,0.08120387,-0.24542683,-0.116323024,0.22289401,-0.06079095,-0.31045267,-0.38941512,-0.09623644,-0.5825736,-0.111206025,-0.33423448
0.018332783,-0.010222414,-0.24184813,-0.30807304,-0.0969645,-0.23136486,-0.22751595,-0.1752248,-0.2832099,0.03554799,-0.10087348,-0.4168291,-0.13044687,-0.1556657,-0.022837857,-0.2302515,-0.032190416,0.23547524,-0.24130033,-0.3515642,-0.20766015,-0.28720048,-0.10067637,-0.104210995,-0.22094132,-0.15878938,-0.33301106,0.06259862,-0.14478499,-0.040521026,-0.08156508,-0.19760154,-0.0631178,-0.16092192,-0.07981505,-0.17851813,-0.121708274,-0.31806964,0.08295482,-0.37867847,-0.23891419,-0.15749381,-0.08490034,-0.13164824,-0.1572223,-0.21963124,-0.04669485,-0.23658839,-0.10344444,-0.4695831,-0.21927747,-0.11192485,-0.47442588,0.013242803,0.21714917,0.035705663,-0.06413433,0.28528312,-0.04158886,-0.13842012,0.107468225,-0.10853221
0.05621968,0.12586033,0.093679115,0.069366395,0.054008402,0.048816703,-0.037936803,0.18381685,0.016277337,0.1935769,-0.35641405,-0.07059754,-0.16300255,-0.039035995,-0.07936055,0.020875497,-0.25016633,-0.35556626,-0.07416662,-0.17660123,-0.32688376,-0.09134743,0.06943589,-0.12005278,0.124363355,0.0534724,0.025768172,0.07642217,0.2103187,-0.06565186,-0.16257049,-0.09631335,-0.1330622,-0.030041348,-0.13468926,0.19888411,-0.22286573,-0.29639372,0.04831552,-0.26762745,0.053738993,-0.043779936,-0.002866163,-0.35523868,0.047184344,0.17362542,-0.3261559,-0.39078644,0.14362675,-0.17459954,0.016762478,-0.21141663,-0.021016354,-0.025438024,0.18473388,0.045510672,-0.13969707,-0.104885705,0.15365016,-0.2950435,-0.06175787,0.12174397
-0.17180377,0.11363551,-0.10802776,-0.058470666,-0.27790096,-0.25517413,-0.3601952,0.20205666,0.30080897,0.25195688,-0.21926104,-0.23115198,0.17795633,0.10269528,-0.17022793,0.4003154,0.2388052,0.18541254,-0.22873716,0.1977971,-0.25554904,0.30200276,-0.15813944,-0.2674494,0.07539655,0.23392469,0.0129582,-0.02377078,0.12050136,0.06931524,-0.1079757,0.01615165,-0.052815244,-0.04184952,0.13828953,-0.010577095,-0.059939735,-0.26058745,-0.32183108,-0.17715338,0.022433491,-0.18855473,-0.47277412,-0.008137177,-0.21253851,-0.5405037,-0.014891337,0.07925634,-0.26135767,0.0035031447,-0.39502203,-0.14232251,0.15829012,-0.12852219,0.034799952,-0.25223148,-0.10580392,0.08615058,-0.24258614,0.015458057,0.085215576,-0.54958713
0.16546738,-0.1763003,0.18985789,-0.03093167,-0.06685269,-0.050508387,-0.0038623738,-0.0910873,0.21391046,-0.031820238,0.08777745,0.15964812,0.08252253,0.39262602,-0.04075626,-0.19288939,-0.14641407,0.06612977,-0.13970275,-0.08248757,-0.2131678,-0.018073093,-0.0026951095,0.14141752,0.1791157,0.24704404,0.06596766,-0.09447776,-0.023380596,-0.050809536,0.08924641,0.06873675,-0.11860797,-0.13178585,-0.10385709,-0.048584618,0.106675185,0.21536174,-0.03191111,0.12611382,0.09671418,0.16345806,-0.27529937,0.28636497,-0.45666724,-0.22027805,-0.121431015,-0.18987966,-0.12868929,0.09312061,-0.08337122,0.15766403,-0.08881972,0.24028331,-0.53225696,-0.083493344,-0.22927995,-0.08139256,-0.18165247,-0.4419478,0.114381924,0.24084654
0.053604577,0.023442345,0.09712371,0.09155573,0.04315194,0.11313327,0.019410389,0.04868589,-0.1727965,-0.06545527,-0.24519297,0.05158415,-0.41976032,-0.12181153,-0.17815289,-0.13477892,-0.22879629,0.03129864,0.003559712,-0.16293299,-0.11409443,0.0020197756,0.08098914,0.19007775,-0.25527218,-0.22528324,-0.22774729,-0.31132373,-0.16489519,0.004744422,0.03242065,0.11744152,0.06210945,0.022832252,0.17401332,0.07279764,0.041596953,0.034581766,-0.0622755,-0.22211473,-0.23606078,-0.21773578,-0.04085676,0.05828667,-0.09679278,-0.02653459,-0.09622677,-0.1643692,0.097926095,0.12222245,-0.041688517,0.092585385,-0.015417316,-0.02066921,-0.10985491,-0.058939498,0.11944424,0.15421596,0.021607012,0.04897569,0.16593128,0.040402766
0.033791598,0.016541807,-0.12701528,-0.021197863,0.24139974,0.06300173,0.0038668376,0.080145605,0.11059035,0.22441389,-0.120230876,0.18630487,-0.056587774,0.04799935,0.05643453,0.044116914,0.08438585,0.09949993,0.08865663,0.18063289,-0.17219938,0.0280275,-0.01893205,0.071463495,0.012099369,0.00026094503,0.1405862,-0.053425435,0.13939449,0.07056931,-0.058288086,-0.3238322,-0.15883407,-0.12409702,-0.056325026,0.054001346,-0.21144055,0.06312842,-0.11474978,-0.09072328,0.037636224,0.20078024,-0.05265794,0.15690865,0.15960199,0.2537107,0.017986983,0.02919928,-0.09611142,-0.14335209,0.0053024725,0.07499863,0.066818036,0.009188772,-0.077650025,0.15742308,-0.18310498,-0.3298711,-0.39301974,-0.12538885,-0.10972153,0.062950574
0.070794344,0.086961865,0.25107878,-0.053695925,0.1997746,-0.28103626,0.08976664,-0.17164429,0.08556194,0.07242224,-0.026097659,-0.17492291,-0.18372147,0.057816792,0.04136413,-0.2000562,-0.14516853,0.044724666,0.061366525,-0.04342555,0.008527239,-0.10108049,-0.15121183,-0.07599498,-0.03275437,0.014376658,-0.024056358,0.07014593,0.027421687,0.15833609,-0.05180764,-0.088215165,-0.082337976,0.00472065,0.08309606,0.093854785,0.07221633,-0.095338054,0.09222467,0.25833872,-0.21516685,-0.2713786,-0.013548697,0.059184626,-0.2842537,-0.15013838,-0.019391067,-0.064887464,0.09693676,0.044740867,0.13883862,-0.17646915,-0.057123896,-0.27328467,0.075839885,-0.28500196,0.01626749,-0.013648076,-0.027209247,0.06777966,-0.3620948,0.22905444
0.035653733,-0.40669334,0.007016942,0.020238683,-0.25898823,-0.13676961,0.045585044,-0.6581986,0.12331975,-0.25554928,0.0644988,0.09216156,-0.05934691,-0.059874095,-0.114930384,0.0133012235,0.18784787,-0.022982031,-0.1909826,-0.083317295,0.096724875,0.0074255904,-0.07347042,0.03321508,-0.13875312,0.13853344,-0.020554917,0.07181339,0.13520823,0.108422376,-0.101671815,-0.09891472,0.21233387,0.0842812,-0.28623182,-0.11286595,0.10872844,0.026519459,0.1426294,0.093908384,0.101010986,-0.017715788,0.01075164,0.028945638,0.0821397,0.0006304275,0.16200843,-0.012533349,0.006467537,0.026114665,0.065169245,0.12512502,-0.22455889,0.05931486,0.015264897,-0.0068831793,0.11246967,0.11989514,0.0939314,0.14715962,-0.06222613,0.016207684
0.06432235,-0.091853805,-0.0077099567,-0.21183188,0.057281356,-0.09944746,0.026613608,-0.17891616,-0.27062252,-0.028886557,-0.038903598,-0.18244737,-0.09168992,-0.0055754352,-0.121840686,-0.033549182,-0.08280554,0.08976771,-0.09685155,0.17050149,0.008631528,0.08378767,0.07256207,0.14367568,0.11390039,0.09631775,0.09919346,0.0060401834,0.017432708,-0.04321584,0.114930496,-0.0039913356,0.14719325,-0.14295799,-0.13735776,-0.20478514,0.12643851,0.17910422,0.24274363,0.11708848,0.073220916,-0.16307026,-0.053457886,0.10147376,-0.009481817,-0.0041805655,0.07266718,0.009675655,0.18517454,0.092947476,0.14535607,-0.06570473,-0.08435274,0.035208978,0.09924686,0.009256794,0.086042196,0.034405988,0.16624627,-0.14372183,-0.21333319,-0.013939295
-0.10267701,0.15596536,-0.1005938,-0.1749026,0.15056606,-0.12507036,0.043175727,-0.36311725,0.009082948,-0.3822259,0.029989192,-0.047324277,-0.14870349,-0.05250203,-0.042442482,-0.20391104,-0.24546637,-0.25165135,0.102400795,-0.04351791,-0.025824536,0.19900875,0.14621343,-0.34560916,0.04418321,-0.2958369,0.015678981,0.1072153,-0.08378625,-0.29110357,-0.37618583,-0.07552756,0.3370251,-0.39164865,-0.44269946,0.039875295,-0.020274624,0.29530638,-0.08479075,0.25816026,-0.0510452,0.26788864,-0.112996474,0.2495561,0.17291357,0.064736344,0.33504632,0.15834959,0.13044658,-0.3995374,-0.13412224,-0.15065742,-0.012386859,-0.2884299,-0.029470501,0.20990714,0.073676445,-0.48982725,0.44602945,-0.283567,-0.35569936,-0.023226647
0.12826045,-0.17346644,0.14492771,0.12998703,-0.061485305,-0.13208911,-0.00037723812,-0.088889994,0.019260261,0.047541395,-0.23824367,-0.17180996,-0.045677528,-0.005011616,-0.15782027,-0.37177888,-0.1298884,-0.17455892,-0.08406987,0.19039495,-0.022438487,0.2353113,-0.03273403,-0.011705395,-0.012939397,-0.19020022,0.11852449,0.014883915,0.10839875,-0.07561778,-0.020240914,-0.19760777,0.068713866,-0.20749237,0.0124171935,-0.17224021,0.18481557,0.030617453,0.16171294,0.13211614,0.0670823,0.013599547,-0.09496939,-0.07355519,0.017240796,0.044013,-0.31428057,-0.12267223,0.07461905,0.13855563,-0.0044147875,0.11195259,0.084955044,-0.05254268,0.101800874,-0.13722867,0.18205869,-0.030565526,0.10890577,0.017719278,-0.08407383,-0.11497055
0.076688506,0.0029626472,0.16056877,0.09096202,0.08408251,0.14353846,0.15158689,-0.07889444,0.11944107,-0.022770545,0.027374545,0.11780502,0.017972909,-0.025684798,0.08327718,0.09534534,0.10567073,-0.0051035816,-0.049758747,0.13163543,0.10308307,0.036759842,0.08335518,-0.00061315106,0.066549905,0.04417137,0.009647015,-0.066445604,0.1667385,0.03441706,0.0098767225,-0.0960226,-0.03764509,-0.039924085,-0.05664251,-0.008398219,0.041445434,-0.007906776,0.037789073,-0.008632299,-0.15646558,-0.22175694,0.069136076,-0.06838017,0.12924479,-0.033182144,0.068594076,0.09098328,-0.42556262,-0.36166725,0.11728305,-0.5089566,-0.054186404,-0.46418348,0.0789217,-0.18637638,0.052190166,-0.18267916,-0.15708704,-0.026417464,-0.37477934,-0.08219909
0.0057254396,-0.5597396,-0.22571625,-0.12975803,-0.43924588,-0.082566105,0.06739883,-0.42229906,0.09502612,0.07878525,0.041858416,0.1500948,-0.033171903,0.17068379,-0.08255559,-0.10314541,-0.11929141,0.10143248,-0.02147707,-0.024626356,-0.16154741,-0.15217423,0.073511496,0.088274024,0.05660061,0.002922615,-0.11522604,-0.009041873,0.027642373,0.072699964,0.1044872,-0.18711525,0.06906967,-0.20726095,0.078431465,-0.19528441,0.16124462,0.12817259,-0.12129141,0.07989265,0.13984741,-0.017790167,0.01871151,-0.12126877,-0.20189592,-0.0409532,-0.2724323,-0.083365306,0.1388956,-0.00535933,0.0012649733,0.20220317,-0.2743822,-0.11837688,-0.057109155,-0.036823846,0.11258184,-0.0017602963,0.09912277,-0.24027947,0.060942423,-0.14948316
-0.4285775,-0.081799224,-0.46107975,-0.018398967,0.36072502,-0.26949763,-0.11968853,-0.16673602,-0.5686338,-0.012404189,0.1374821,0.004349235,-0.49068785,-0.34607068,-0.39336303,0.1579961,-0.25981995,-0.3290955,-0.24778509,-0.11580831,-0.1315629,0.039911546,-0.21725361,-0.0734694,-0.86423934,-0.13691229,-0.77274746,-0.1351889,0.026320316,0.044969663,-0.40427816,0.33927178,-0.21080993,-0.3875811,0.11630825,-0.3716118,-0.021954369,-0.36931267,-0.25328773,-0.24787654,0.05314509,0.22709052,-0.35764697,-0.1734128,-0.24538006,-0.3789882,0.047968663,-0.55626065,-0.32430407,0.26935932,-0.23148541,0.07797015,-0.032953594,-0.3910747,-0.50189376,0.13641621,-0.046334486,-0.23360111,0.117899224,-0.11502753,-0.5934863,-0.25335872
0.1160846,-0.0644548,-0.15020862,-0.12245322,0.10490844,0.08401865,0.15297027,-0.16740486,0.06495636,-0.056034703,-0.112381995,-0.03547969,0.16833483,-0.010701751,0.10994942,-0.07549104,0.15416704,-0.1576421,0.004534524,-0.17134474,-0.101195745,0.09846677,-0.09321988,0.0037442776,0.08645292,-0.19284156,0.124374844,-0.30378503,0.074231625,-0.18247516,-0.0075007505,0.07455546,-0.030138958,0.1340805,-0.03909374,-0.20360751,-0.007963725,-0.0040095155,0.11961618,0.037767317,-0.03591857,0.05118574,0.011081323,-0.1692777,-0.043616734,-0.26988143,-0.12806067,0.06357222,-0.34615803,-0.27782995,0.040284775,-0.1341279,0.08219595,-0.1583163,0.06663774,0.08626888,0.05332207,0.092092276,-0.068801016,-0.10627929,-0.23448707,-0.2445639
-0.11563316,-0.04940623,-0.07835736,-0.06652895,-0.25123525,-0.033025,0.07670954,-0.15317105,-0.17510308,-0.3066171,0.10053656,-0.003980776,0.03653794,-0.24763615,0.0931865,0.16231464,0.14710061,-0.024920464,-0.019785298,-0.16155867,0.11602564,0.079046495,-0.16830614,0.09642465,0.041522887,-0.14773229,0.093821056,-0.09938573,-0.115670934,-0.2645224,0.11189302,-0.054836474,0.15618658,-0.085025765,-0.34721762,-0.20455311,0.098869234,-0.06738631,0.05853631,-0.14400665,0.1580955,0.15929458,0.15844743,-0.119692415,0.06574544,0.20527554,0.08336766,-0.029759966,0.024436604,0.11049808,0.085214,0.07116109,-0.07033913,-0.019195769,0.13006814,0.09215645,0.17006928,0.09289928,0.124415755,0.022475343,0.11361839,0.0049671712
-0.23520741,-0.054127134,-0.1391018,0.2465425,0.0042845113,0.1240013,0.07324014,-0.051823206,0.09993921,-0.02799051,-0.09544701,-0.056224216,0.18544763,0.08704892,-0.029164067,-0.25265652,-0.10660948,-0.1509255,-0.22101551,-0.20346995,-0.18436958,0.2618092,0.015305883,0.1270845,-0.14802277,-0.051903255,-0.41741648,-0.33309013,0.043463018,-0.2549748,-0.047024265,0.035706475,0.12798917,-0.032626685,0.037349913,-0.18124531,-0.086966075,0.34535423,-0.22866859,0.20727046,-0.3091241,0.21071279,-0.2726727,0.14670736,-0.026522238,0.077362366,-0.08186881,0.14683865,-0.16395648,-0.25633004,-0.117286064,0.16403955,-0.27605197,-0.2362335,0.032641605,-0.26315677,-0.013562286,0.036381267,0.27903494,-0.050768632,0.10813587,0.032493185
-0.17334034,-0.22510405,-0.24597038,-0.07256933,-0.0038765161,-0.04598143,-0.043973763,-0.39530504,-0.31640184,-0.12455919,-0.32041666,-0.18905182,0.09270945,-0.2623882,-0.16717295,-0.20883253,-0.05110972,0.094972454,-0.037182957,-0.4313223,0.1755904,0.15446751,-0.028011953,-0.24514233,0.21868956,-0.09028397,-0.37036777,-0.32531965,-0.08562061,-0.28447545,-0.2830612,-0.067545414,-0.11515626,-0.17345594,-0.25832552,-0.18250807,-0.43098214,-0.18329091,0.009440499,-0.33866864,-0.42407748,-0.33888298,-0.5239557,-0.22386643,0.035065867,0.007393192,-0.3240874,0.023525005,-0.32005322,-0.33755514,-0.31631365,-0.26461437,-0.12792648,0.039237145,0.2714265,-0.34248766,-0.28611758,-0.16226867,-0.34593895,-0.2989354,-0.38218686,-0.32036713
-0.1899104,0.111114785,0.008907644,-0.116117015,-0.17792962,-0.051331155,-0.25240406,-0.26586077,-0.17733127,-0.09717993,-0.018765723,-0.075575225,0.07006479,-0.25921518,-0.088859424,-0.11256994,0.12604854,0.0902347,0.007945662,0.004532959,0.094463505,-0.016547661,0.18186072,0.045326516,-0.07787973,-0.13601655,-0.037957955,-0.03628381,0.19075347,0.13099343,0.06628161,0.021285567,0.10477116,0.13001658,0.1501836,-0.1302455,-0.17391093,-0.1756567,0.07939606,0.0732468,-0.020805929,-0.1966353,0.103963226,-0.18965349,-0.028218701,0.0649033,-0.1176701,-0.07455327,-0.07232927,0.05167093,-0.2761685,0.12314331,0.091769725,0.05898508,0.12166945,-0.029637974,0.067410275,0.012398009,0.04568583,0.12898764,0.085594125,-0.06252598
0.0074097198,-0.07762255,-0.11189304,-0.10493133,0.05450064,-0.07086009,0.1493997,-0.29176414,0.14301029,-0.05794386,0.031198885,0.09904401,-0.118314184,0.0038148463,0.045277603,-0.2165633,-0.055351067,0.05363719,-0.37359002,-0.28861502,0.12232505,-0.082787946,0.16285387,0.115089476,0.04139975,-0.21577385,-0.14882585,0.079127274,-0.021217767,-0.37237558,0.015139076,-0.03185382,0.15513194,0.005166054,-0.11218129,0.05423217,0.020697,0.14671728,-0.43277514,0.04020303,-0.09214947,-0.068639226,-0.20654778,0.23161648,-0.293468,-0.49716124,0.09632989,-0.28111237,0.14180593,0.20871133,-0.06042351,-0.113366984,-0.0959811,-0.0035173562,0.21515618,-0.29727283,0.034640566,-0.058387283,-0.016810486,-0.074506745,-0.07737473,-0.2697399
-0.18035296,-0.06378004,-0.08190517,-0.099682346,-0.03474484,-0.13448346,-0.41831344,-0.247309,0.004629109,-0.16700523,0.06057934,0.1951537,-0.22540495,0.038707625,-0.020747708,0.05381933,-0.3993949,0.10973962,0.020683035,-0.14091307,-0.27191305,-0.092734955,-0.24056065,-0.16260798,-0.106161915,0.042760167,-0.08080934,-0.027755577,-0.56864285,-0.25900736,-0.1777577,0.024093047,-0.43362677,0.12470352,0.051571988,0.3010787,0.06473426,-0.12976092,0.25605592,-0.016429082,-0.11821537,-0.23143217,0.031558465,0.07013413,0.072197765,-0.018411268,-0.23452497,0.22017519,0.04929726,-0.17889623,-0.013707298,-0.14037864,0.15157369,-0.06373026,-0.8226483,-0.3225231,-0.23165713,0.011310404,-0.20514238,-0.28909546,0.1286414,-0.4920785
0.03585471,-0.032821476,-0.07120924,-0.31797963,-0.27719173,0.011460332,-0.021573743,0.08880347,-0.10416126,-0.3170803,-0.27050656,-0.051190287,-0.028126935,-0.01113847,0.16090068,0.10819162,-0.2059714,-0.26125148,-0.025215033,-0.1932334,-0.1522842,-0.05700402,-0.06773471,-0.2652918,0.11716216,0.06961728,-0.12541497,-0.15364069,-0.17776471,0.18791522,-0.28352615,-0.010876698,-0.021265969,-0.3024033,-0.14642073,0.067915685,0.012773631,0.040539633,0.13892259,-0.053264312,0.09899866,0.049616694,-0.12798692,0.068087436,0.11176617,0.012473306,-0.08614068,-0.013069684,0.19760548,0.032599546,0.091436654,0.09481271,-0.026225204,0.20193455,-0.0594044,0.18536782,-0.117717534,0.064986065,-0.0679628,0.088291585,-0.020695915,0.12252728
-0.16430756,0.149624,-0.25060397,-0.3087849,-0.10342485,-0.13894676,-0.099258564,0.103147335,-0.09809035,-0.12543505,-0.041648816,0.0897537,0.04039489,0.069712125,0.09706751,0.13867362,-0.03250115,0.23737124,0.101540744,0.018987931,0.30700535,0.04267768,0.14260964,0.31433743,0.020846924,0.10797091,-0.16847976,0.17314798,-0.07507846,0.14469226,0.1499272,0.01347817,0.027057897,0.058650628,-0.05677586,-0.049270947,-0.3282474,-0.2813715,-0.2772558,-0.089940146,-0.4000586,0.1254803,-0.31019998,0.11396134,0.010818204,0.022973612,0.13274825,0.07930187,-0.066470146,0.07721032,-0.29644644,-0.48600477,0.012094575,-0.018038865,-0.530732,0.07272073,-0.14204228,-0.26276687,-0.10907426,-0.2040663,0.029750254,-0.47549915
-0.10669099,0.00742056,0.047686804,-0.07421752,0.04374814,-0.13129073,-0.33080193,-0.039943866,0.046334855,-0.13356563,0.19667701,0.09004881,-0.086402714,-0.2770811,-0.20392887,-0.030600337,0.03391797,0.13586444,-0.12592535,-0.1568826,0.11812151,0.0056075705,0.17359011,0.12745051,-0.25096804,-0.005227173,-0.12567227,0.11198473,-0.03780682,-0.1955393,0.08440796,0.12709646,0.002802166,0.09660659,0.1564585,-0.08667962,0.046394292,-0.23688638,-0.046486545,-0.11338968,-0.11758676,0.029342879,-0.20657773,0.0722859,0.11926711,-0.10679186,0.1410538,-0.080443434,-0.020331945,-0.017166313,-0.031160355,-0.25189897,0.1587494,-0.089657985,0.0048179426,0.028448883,-0.016473133,-0.1399485,0.14835045,-0.009281305,-0.28543228,-0.11187754
0.10790774,-0.21621807,-0.36565134,0.070554204,-0.16663843,0.20697716,0.060523007,-0.21598722,-0.20983085,0.060220037,0.062104978,0.07133083,-0.14571938,-0.07090787,0.09511467,-0.012764881,-0.0033124902,-0.032266393,0.006038618,0.041875593,-0.1190833,0.04694411,-0.0019566307,-0.03434227,0.033962943,0.14159162,-0.06246855,0.1923609,0.18184222,-0.043416396,-0.17117679,-0.0716742,0.1711613,-0.050024915,-0.020327203,0.11868575,-0.011012992,0.057475183,0.14197582,-0.069412604,-0.18837446,0.069991924,0.001557001,-0.09811318,-0.06064314,-0.040844515,0.24726957,-0.20884296,-0.2246046,-0.06760342,0.13514373,0.22993593,-0.14230503,0.10174218,0.20161846,-0.0265633,-0.041219052,-0.0955599,-0.3057048,-0.16349997,0.09983935,0.1991903
0.1092187,-0.008591599,0.06029825,-0.16321406,0.00018507274,-0.20927769,0.0042293705,-0.13687241,-0.09395263,-0.25284904,-0.16962875,-0.29780635,0.12790442,0.13739742,0.11737256,-0.025615681,-0.2037688,-0.071535565,-0.056456793,-0.010624046,0.12482121,0.20043518,-0.25659114,-0.008273718,-0.024803841,-0.18546227,0.017010652,0.11751008,-0.30157608,-0.14381894,0.17893441,0.017239045,0.13370407,0.032278627,-0.08028667,0.015280356,-0.029318914,-0.015162646,0.11804489,0.06845558,-0.04884625,-0.017996116,0.04026825,0.072115496,0.094578974,-0.07064679,0.03620502,0.1318059,-0.3042645,-0.046800375,-0.112163216,-0.17249806,-0.013071079,-0.026866034,0.036454897,0.11599472,-0.1111134,-0.28652748,-0.12410993,-0.018480701,-0.07943361,-0.02169938
-0.2676656,-0.27589658,0.047049273,-0.020325996,-0.3998167,0.16181177,0.07862967,-0.38997048,-0.07106645,-0.333713,-0.10479607,-0.18891652,-0.2576773,-0.3609628,0.04659044,0.110339746,-0.014806102,-0.47857338,-0.1270227,-0.2221798,-0.035489306,0.1129936,-0.01126928,-0.42409658,-0.5564874,0.01632579,-0.110046096,0.14860205,0.055692695,-0.2998239,0.081958376,-0.027806703,-0.19012474,-0.16679332,-0.0800818,-0.42455468,-0.33562094,-0.106065765,-0.063121125,0.0940606,-0.4297899,0.03340043,-0.12581165,-0.24141766,-0.20254888,-0.37032625,0.24640772,0.21380089,-0.5121869,0.031820007,-0.12294806,0.14381851,0.049136207,-0.21037595,-0.04967371,-0.021616453,0.26054835,0.11441773,-0.036556996,0.02593172,0.09435321,-0.12686302
-0.13665633,-0.04037833,-0.060340147,0.12374152,-0.10248623,-0.21063994,-0.09812598,-0.15712643,-0.017809521,0.0071178884,0.036685407,-0.17409772,-0.11368258,-0.032933127,-0.04209873,-0.006319019,-0.0053458023,-0.05757981,-0.19879629,-0.1390446,-0.114537455,-0.18759574,0.074242994,-0.070516646,-0.10430349,-0.1735725,0.01920822,-0.004749312,0.013460064,-0.21843062,0.025397368,-0.17292769,0.008625141,-0.111073956,0.0647935,-0.14650242,-0.056248672,-0.1456107,-0.17409623,-0.13505203,0.0027261009,0.017452193,0.010643844,-0.10617469,-0.052848507,-0.09483885,-0.013922714,-0.018279195,-0.030126244,-0.18238461,-0.025125258,0.014798343,0.00243673,0.054841906,-0.03126402,0.042170495,0.02390417,0.03416021,-0.045022678,-0.18019295,0.0009998009,0.06506053
-0.18405786,-0.025650518,0.009752226,-0.043304782,-0.05622396,-0.010784074,-0.14291011,-0.06075403,-0.14228803,0.03635987,-0.06957977,0.024882458,-0.12599428,0.024557518,-0.061191585,0.029991565,-0.10395079,0.0390772,-0.07357797,-0.116643906,-0.08769381,-0.07530988,-0.108833306,0.03177903,-0.08751371,-0.11217537,-0.11153677,0.049984865,-0.115381405,-0.15618482,-0.08767287,0.054128863,-0.09871091,0.051369462,0.07492088,-0.038116023,-0.031181004,0.0985304,-0.13912012,0.124696806,0.04965078,0.109678574,-0.0030952264,0.08784591,-0.06397312,0.066808306,0.011610783,-0.19922243,0.077575624,0.09677423,0.07430461,0.13652095,-0.096940845,-0.14016154,0.06766096,0.06170744,-0.13327271,0.039046526,-0.061965797,-0.14370066,-0.10809768,-0.08621627
0.072932616,-0.30177194,-0.25078464,0.03395816,-0.055496406,-0.33483917,0.028461637,0.02744059,-0.05021046,0.24634783,-0.46227586,0.04547246,0.18967985,0.052278735,0.04619518,-0.2854819,0.038975276,-0.5185468,-0.42505017,0.2594757,-0.06759028,-0.22577587,-0.22289126,-0.2399472,0.20019062,0.09780276,0.23668815,0.03883173,-0.36524194,-0.11084061,-0.09260322,-0.18369083,-0.08426927,-0.046009284,-0.21599665,0.06802186,-0.067705296,-0.11075093,-0.022435164,0.084532715,-0.012634277,-0.07729278,-0.6563063,0.0032931538,0.051107477,-0.07305374,-0.2506634,-0.06243032,-0.21677776,-0.34405428,0.060965072,-0.030413069,-0.39194036,0.065347776,0.045874484,-0.09785343,-0.020660022,0.001745787,0.008469007,-0.3053113,-0.07871625,-0.31822225
0.088714786,0.1000695,-0.100219704,-0.06132238,-0.33817825,0.024359556,-0.31846136,0.038821053,0.018208353,-0.069331616,-0.2843951,0.008010199,0.12145057,0.13659714,-0.096820444,-0.15299994,0.09137021,-0.025822286,-0.06469924,-0.26696378,-0.093662664,-0.06619334,0.08653303,0.19639316,0.08191989,-0.10949614,0.0925243,0.004559558,0.06450884,-0.14267871,-0.14742225,0.2363995,-0.034328315,-0.20240033,-0.027022608,-0.3646967,0.14655736,0.17402306,0.09008839,0.29885206,-0.2370286,0.0049722763,-0.16632904,0.1991503,0.058176357,0.04762442,0.11118816,-0.12708777,0.08334974,0.16241817,0.04404539,0.013118313,0.020533415,0.08866313,0.16567945,-0.07921827,0.0039328784,0.11576772,-0.037323065,0.14373069,0.12308335,-0.047368668
0.20558885,-0.23490618,-0.4590831,-0.06504101,-0.17742653,-0.1677652,-0.17506327,0.064593874,-0.06752111,0.008262285,0.028413126,-0.2813733,0.08944351,-0.18469822,-0.25539315,0.052311324,-0.17949688,-0.34624085,0.17169362,-0.28104246,0.0599365,-0.35746035,-0.33290237,-0.17369547,0.07640549,-0.025902823,-0.036454808,-0.034156222,0.25486326,0.060797404,0.05842133,0.17536545,-0.40621853,0.047388278,-0.030140549,0.11105464,0.1075376,-0.00919914,0.17232233,-0.009397817,-0.0024646274,-0.11183913,-0.047841042,0.010389738,0.13397662,-0.17931446,-0.15413392,-0.20553476,-0.46496317,0.008014214,-0.010797532,0.23353156,0.04048222,0.17703697,0.26844406,-0.008962642,-0.09862217,0.1839171,-0.42123917,0.08163371,-0.0033659928,0.14903168
-0.0766514,-0.479497,-0.31234083,0.19184335,-0.04295561,0.16783895,0.040567975,0.080183804,-0.009217949,-0.39616525,-0.45377022,0.1282105,0.08384396,-0.031637605,0.048730962,-0.038721636,-0.08741944,-0.0080906255,0.021331573,0.13734859,0.112793,-0.06291847,0.13609947,-0.07326524,-0.050392255,0.056906767,0.011719916,-0.17117967,-0.023177827,0.15260471,0.0017548362,0.10339993,0.18300097,-0.008683612,0.012774239,0.113482565,-0.05141328,0.24704246,0.102090925,0.11353583,-0.05244788,-0.2701872,0.18114486,0.06595023,-0.18259276,-0.36896595,0.0901541,-0.08952052,-0.052574795,0.09243437,-0.1035377,-0.006654821,-0.0006278194,0.24391094,0.104269415,0.1592758,0.12024425,0.0016143827,0.09431232,-0.060071383,-0.12441213,0.13768993
0.17676619,0.10660743,0.051331878,-0.06608978,0.04359324,-0.17835255,-0.33609664,-0.16889746,0.021899523,-0.88005644,0.22524512,0.034482535,-0.5841683,-0.24335092,0.068771824,-0.19707379,0.05722421,0.14474967,0.012786584,0.062707536,-0.03327612,-0.012432099,-0.123416804,-0.1464105,0.14538787,-0.4146178,0.17126502,-0.13148285,-0.008921863,-0.090307385,-0.19416277,0.12106943,-0.573585,-0.026817074,-0.525577,-0.09320627,0.22202598,0.3080114,-0.09921323,0.3131099,-0.012174846,-0.34359246,-0.30657685,-0.150105,0.03390758,-0.13727626,-0.16596523,0.095990226,0.05326336,-0.120358214,0.18530722,-0.037851933,-0.16065097,-0.2643717,0.205671,-0.2589412,0.098523825,-0.044612177,-0.14594884,0.0061900723,-0.31574503,-0.25678807
0.023808118,0.09383857,0.028529832,0.14843427,0.06723794,-0.032159835,-0.21401316,0.08790104,0.082420155,-0.01115101,-0.007318774,0.04471449,0.07253516,-0.10399891,0.102423854,0.046349093,-0.07725019,-0.05896802,0.18732549,0.15762776,0.15189292,0.07399965,0.17284238,-0.17173755,0.024105312,-0.040669195,-0.07688087,-0.08169392,-0.02446258,0.040546853,0.080741115,0.042440258,-0.012194646,0.09734823,0.03805896,0.04175639,0.059298664,-0.63034046,-0.19694708,0.075569645,0.35887313,-0.0029246097,0.0003298862,0.05594251,0.081830196,0.31419474,-0.5676231,-0.22814257,0.055615794,-0.5668491,0.008556531,-0.3336346,-0.11289263,-0.06318561,-0.46108732,-0.057442572,0.010066338,0.09335039,-0.012538279,-0.2994737,-0.18665971,-0.33745044
0.10198105,-0.19456723,-0.0030321928,0.084634066,-0.05863975,0.40627825,0.110222764,-0.062165007,-0.047459844,0.03764969,-0.1874055,-0.2848548,0.0047366964,0.05092135,-0.21104658,-0.18090592,0.07576417,-0.21948673,0.14616662,0.21367092,-0.12569444,-0.030619504,-0.11935296,-0.32372886,0.09148867,-0.00084852916,0.0919601,0.056242604,0.2071695,-0.13679008,0.10303476,-0.0011992899,-0.13895133,-0.07756751,0.0017767772,-0.1164455,0.050589018,0.0962091,-0.21552458,0.08046294,0.04241186,-0.02362323,-0.11145613,-0.18268742,0.062721595,0.25710922,-0.18120985,-0.14460668,-0.23328197,-0.06368122,0.21847783,0.1134766,-0.073647484,0.18928066,0.16812325,-0.18065788,0.088361084,0.17508054,0.15072781,-0.0352912,0.012590215,-0.21561989
0.13872395,-0.08334392,-0.210551,0.115049705,0.1556533,-0.04383037,-0.034449067,-0.019092623,0.0055969013,0.09715387,0.12835525,-0.11517014,0.2596981,0.2158078,-0.28274474,-0.12333319,0.25742117,0.16014364,0.06741253,0.14533399,-0.09538322,0.16272931,0.06613768,-0.21272655,0.045019407,-0.05556581,-0.17213881,-0.0762395,-0.12181395,-0.0010649922,0.16543107,0.0638029,0.2421639,-0.16930687,0.123557486,0.056944285,-0.048737086,-0.06187322,0.03548888,-0.11848092,0.16619235,-0.3923858,0.001480433,0.013355628,-0.019280067,-0.121052146,-0.22740097,0.03235805,0.30907655,0.058025748,0.14823112,0.17930652,0.14392768,0.07483516,-0.10209895,-0.3308468,-0.20224564,-0.09849521,0.0800073,-0.17310077,-0.19569764,-0.15512763
0.006586419,0.11998075,0.10284306,-0.116582215,0.001632018,0.020467022,-0.0026907495,-0.05642209,-0.025128216,0.11355944,-0.04911819,-0.08365807,0.008969047,0.08511075,0.01963191,-0.0015858045,-0.14257261,0.014576738,0.07947289,0.03600006,0.026489858,0.12130905,0.06321775,-0.028651243,0.014842615,0.0013949028,-0.038877193,0.011431681,0.065876864,-0.060655292,0.105521895,0.017367706,-0.0032346973,-0.02364275,0.006496953,-0.047735155,-0.2962927,-0.15332691,-0.42565283,-0.5465641,-0.1750768,-0.35864964,-0.13224593,-0.20233503,0.020943405,0.14484708,0.21094714,0.055262804,-0.7199096,-0.06658263,-0.24428639,-0.13120331,-0.04738764,-0.10941237,-0.04165578,-0.19711675,0.08128438,-0.027252829,-0.28771544,0.048644476,0.0982837,-0.08272037
-0.0838393,0.17041409,0.1588273,0.086190544,-0.003079867,0.1621715,-0.10905743,0.06816862,-0.0068461224,0.024650352,-0.1845923,-0.087169945,-0.11609347,0.014090157,-0.20002136,-0.010748722,0.22790317,-0.05291887,0.016398938,0.067311786,-0.3252579,-0.04145428,0.070427224,0.058320936,-0.018094918,0.11365289,-0.22114453,-0.11648419,0.15746757,0.12815984,-0.20924282,-0.07877832,-0.09733209,-0.019372424,0.07894424,0.059891693,-0.0773622,-0.0022131247,-0.12078856,0.13934018,-0.38400498,0.045846604,0.04983806,0.12616618,-0.021960756,-0.040425733,0.16773078,-0.0019477146,-0.20943788,0.07178525,-0.03385463,0.2124012,-0.04225392,-0.3191164,-0.08036132,-0.0065675643,-0.05763633,-0.061365474,-0.21950728,-0.044702232,0.016218903,-0.052978307
0.027674679,0.13534696,-0.081616916,-0.14996879,-0.10335411,-0.36546195,0.017276542,0.00067191664,-0.08212189,-0.07451169,0.02615312,-0.010168768,0.06387418,-0.01600986,0.0824012,0.07703956,-0.018924834,0.062777765,0.06630573,0.043191094,-0.07323269,0.13821939,-0.46419218,-0.073392496,0.05678091,0.049803093,0.14897083,0.037434645,0.19563751,-0.021767871,0.09773288,-0.162772,-0.107744195,-0.20948377,-0.33840296,-0.25941512,0.20733829,0.015396584,0.086297095,-0.26488674,0.06267226,0.07036296,-0.12433099,0.010556014,0.109300494,-0.11176466,0.06517624,0.08204515,-0.08776389,-0.051928226,0.071109556,-0.025379721,-0.026793333,0.1075826,-0.16533057,0.17064005,0.12427899,0.05803762,0.14826502,-0.11660138,0.02187359,-0.030377602
-0.051772393,0.009804248,-0.06248383,0.12018242,-0.084239855,-0.07360401,-0.09267206,-0.11209007,0.09453161,0.09010278,-0.08458852,-0.016279109,0.099711336,0.082569726,-0.0983372,-0.07681926,-0.026354706,-0.06806536,0.01596534,0.031313814,-0.1276158,-0.110435486,-0.07200753,0.010511684,-0.015534383,0.03655215,-0.041199632,0.0030455536,0.07713216,0.03311473,-0.014290454,-0.09208042,-0.064331315,-0.022300512,0.017934656,0.049395364,0.098436505,-0.0028777278,-0.07114171,-0.069282904,-0.043644227,-0.0085287765,0.039745152,-0.080177605,0.07831854,-0.09155556,0.12947819,-0.12376276,-0.12301399,-0.033956096,-0.022208918,-0.1291345,0.12022444,0.07861302,0.07644216,0.008605914,-0.087874845,0.05121509,0.06718524,0.09561168,0.093731195,0.06111299
0.016837554,-0.06123353,-0.29855555,-0.10571964,0.0891115,-0.0010789387,-0.012439292,-0.02957172,-0.060475204,0.063053876,-0.0548102,-0.26595488,-0.16084264,0.109058745,-0.033143535,-0.1393373,-0.04271675,-0.2481219,-0.04139436,-0.29143405,-0.35430333,-0.03801125,-0.1289648,-0.067133605,0.053412955,-0.45478407,0.008000543,-0.18867266,-0.15502061,0.06050289,0.012136489,-0.00051471795,-0.3311073,-0.22898465,-0.036651175,-0.22813885,0.07484449,-0.008881765,0.1657556,-0.038926385,0.03216944,-0.037387125,0.10526029,0.14041494,0.075704604,-0.049999934,-0.0006457193,-0.05855873,0.0762857,0.17360927,0.104732856,0.06488054,0.11058158,0.07872368,-0.043334454,0.12462905,0.232185,0.11611181,0.1657379,0.069066785,0.11764616,-0.08195738
-0.13711482,-0.18680304,0.07868188,0.16514227,-0.19359781,0.1557511,0.2356095,0.07397374,0.13199918,-0.14535582,-0.032654814,0.22880706,0.037150517,0.0892118,0.08905205,0.14173387,-0.16449925,-0.04517915,-0.18641417,-0.22994041,0.19434473,-0.11886208,-0.0014124783,0.12057167,-0.062481474,-0.044667743,-0.21393082,0.027168449,0.022992985,-0.07528074,-0.07796767,-0.16682865,-0.02684236,0.10224513,0.0566225,0.12648375,-0.08410655,0.054567512,-0.11622051,-0.03201128,0.07012081,0.04894344,-0.05253531,0.059857253,-0.23794433,-0.0906658,0.123697996,-0.12291371,-0.27048174,0.15400356,-0.18808082,-0.21283503,-0.27598387,-0.10038206,-0.038088538,-0.0003082235,-0.35837168,-0.33996177,0.034650713,-0.110981576,0.12899621,0.13963419
0.10817912,0.07644094,0.018903846,-0.059842106,-0.24217083,0.11044649,-0.09888046,-0.035954934,0.031947628,0.014369728,-0.11973958,0.06517415,-0.15894645,0.2061692,0.10104641,0.12626114,-0.2502027,-0.290356,-0.060385484,-0.06771134,-0.20879707,-0.06890604,0.090255834,0.09840104,0.093321905,0.14248553,-0.026819207,-0.022827387,-0.06777837,0.09556222,-0.20875895,0.059591632,-0.037588455,-0.016985929,-0.33560002,0.053342503,0.040882885,-0.16456775,-0.2220917,0.21844447,-0.124214984,0.19121173,-0.0062727095,0.012149043,-0.12643333,0.007343007,0.13750724,-0.17405331,0.15934825,0.19868214,0.02955045,0.24054907,0.010870759,-0.037853673,-0.07860565,0.11297721,-0.05355607,-0.08616597,0.15001982,0.23533243,-0.096888214,0.017160451
0.13649121,-0.3622906,-0.35985458,0.07416929,0.048511088,0.118587025,0.031535577,0.03180556,-0.095148854,-0.03881288,0.014542094,-0.1011106,0.14175792,0.211593,-0.2306808,-0.005651772,0.13018538,-0.22163782,-0.28024808,-0.30832124,-0.023144173,-0.14294632,0.13776438,-0.19072813,0.14338365,0.09838024,0.0025335716,-0.17221436,-0.14390177,-0.11352434,-0.12712182,-0.066281974,-0.07297288,0.13948557,0.02726757,-0.10293857,0.0022816337,0.1441103,0.13256902,-0.055306986,-0.17868885,-0.4739706,-0.021224426,0.23311958,0.009971567,0.17788877,-0.19604993,-0.10235386,-0.21531254,0.034562767,0.1424026,0.18832676,-0.019919869,-0.6026442,-0.2519881,-0.076294415,-0.19686829,0.13235904,0.031177083,0.028909745,-0.06355981,-0.3958832
0.07758534,0.108881615,0.041978285,0.13427421,-0.01790465,0.05036982,0.14583206,0.027981544,0.0135685,0.055278156,0.13716027,0.025811143,0.019801615,0.04439622,0.05017964,-0.011798455,-0.04685382,0.122631595,0.095999904,0.03832776,0.077189505,0.0318057,0.010108559,-0.13423936,0.06143799,0.07716352,0.046619855,0.07714421,0.014047651,0.12402554,0.069545306,0.12781326,0.09583685,0.092009455,0.09713521,0.053446967,-0.15341446,-0.12150781,-0.009401589,-0.14812504,-0.047541846,-0.15257776,0.055501025,-0.31137967,-0.14304721,-0.10647156,-0.30200678,-0.040961646,-0.118868805,-0.22145757,0.09050863,-0.19936086,-0.15356225,-0.275417,-0.3970377,-0.105221756,-0.24024703,0.015141583,-0.017437914,-0.35990095,-0.13474777,-0.71521807
-0.31435812,0.05809296,0.054460622,-0.0030017688,-0.22938254,-0.11390681,-0.34288466,0.13167028,-0.17077988,-0.16432257,0.11749262,-0.04454893,-0.021183422,0.068742,0.049939774,0.0484481,0.07101101,0.042938046,0.10305969,0.16107138,0.12366831,0.1440823,-0.0062474823,-0.098289505,0.019734181,0.056870054,-0.19943583,-0.089514546,-0.21649824,0.048539747,-0.11605927,0.06138461,-0.32706535,0.10769609,-0.027858475,0.12066951,-0.0013145871,0.1266766,-0.09856289,-0.12756558,-0.25188416,-0.016218655,0.16948451,-0.14832571,-0.013755719,0.10934016,-0.1376148,0.06191503,-0.4212453,-0.13270004,0.0077023376,0.024550172,0.2359318,0.11152061,0.046626464,-0.015624522,-0.0029827277,0.094580926,-0.19310963,0.106259264,0.19196954,0.13867381
0.17292528,-0.08950104,0.005284943,-0.18984497,-0.31163755,-0.13237046,0.12740707,-0.3535801,0.09636463,0.27462402,-0.09268041,0.0650344,-0.009327635,-0.19050163,-0.085574344,0.1349003,0.20654555,-0.1488258,0.08001793,-0.07961802,-0.19856958,-0.14218418,-0.44734472,-0.27101257,0.124013536,0.109782964,0.091711044,0.012323717,0.020729858,-0.38060558,0.00939042,0.0065362975,-0.27525952,-0.13139962,0.085043974,-0.37068233,-0.077566914,-0.07262526,-0.002941934,-0.046037715,0.071133696,0.15634418,0.078955516,-0.18821682,0.12372858,0.03784594,-0.065015756,0.072634354,-0.37324938,-0.3241689,0.09599936,0.06414046,0.1601475,-0.007660971,-0.008626598,-0.0818775,-0.06539898,0.09070656,-0.19068612,-0.07293332,0.14122745,-0.043562766
0.17449385,-0.01344918,0.18532659,0.10646294,-0.059899557,0.19959481,0.16795637,0.16414066,0.11850682,0.18988302,-0.08060062,-0.19695307,-0.23212951,-0.036154084,-0.21497011,-0.063412145,-0.3329019,-0.39655775,-0.05348534,0.036738247,-0.092742056,-0.21573813,-0.12513568,-0.13862891,-0.02508232,0.021005962,-0.035077315,-0.12547274,-0.34088257,-0.07954944,-0.30695125,-0.21239975,-0.03449959,-0.06628344,-0.13244258,-0.3714297,0.03951458,-0.038819958,0.06657968,0.10569842,0.20978245,-0.029548874,0.07476435,0.013969821,-0.11040682,-0.060451165,-0.05413763,-0.04205548,0.17218733,0.14073569,0.14820823,0.089406565,0.024446754,0.117976554,0.041977234,-0.01321999,-0.009065677,0.12403257,0.14074868,0.1152851,-0.016210431,-0.0031095524
-0.11477706,-0.03673046,-0.105949044,0.21210918,0.39884302,-0.18711479,-0.4493494,-0.1092322,-0.036951233,-0.31915423,-0.1729656,-0.29321384,-0.024440419,-0.17338234,-0.19478916,-0.30113485,-0.12816672,0.2113145,0.040449172,0.13208428,0.035379805,0.17643555,0.06588234,0.08936576,0.2624308,-0.4834191,0.09336095,-0.0150601715,0.17006664,-0.24414851,0.13810039,-0.30900422,-0.120207705,-0.09084258,0.2124329,-0.28227797,-0.08355096,-0.16007558,-0.3592399,-0.10216088,0.22427563,0.12663776,-0.17564182,0.104088664,-0.17553338,0.0651827,0.06062297,0.026078673,0.114668205,0.10704828,-0.012095998,-0.26592037,-0.03474475,0.003922089,-0.1479446,0.1790728,0.12420119,-0.17209962,0.002234682,-0.18232529,-0.11595502,-0.016575834
-0.020020258,-0.058337297,-0.16150455,0.1024542,0.07156524,-0.068979844,0.21435961,0.011198919,-0.118215285,-0.08611925,0.03567899,-0.008530274,0.34030318,-0.23143893,0.22707118,-0.02095442,0.09901229,-0.08161497,-0.05365201,0.021343736,-0.13666268,0.11077305,-0.1499881,-6.4745705e-05,-0.09823255,-0.23665611,-0.11771846,-0.2890887,0.1764303,-0.16382737,-0.24694856,-0.017580744,0.1415121,-0.2892145,-0.040017065,-0.0023412444,0.093648165,0.2194593,-0.20702903,0.28727427,-0.018501746,0.18638124,-0.06936335,-0.3862184,-0.20116894,-0.16202828,-0.4249634,0.03938915,0.21723834,-0.020636868,0.01574796,-0.104343995,-0.015629547,-0.34921178,-0.3489626,0.15677068,0.20346774,0.032966252,0.2571511,-0.3189319,-0.14665298,-0.2732076
-0.017783731,0.10130579,-0.036867265,0.026707219,0.21892807,-0.17154945,-0.37659383,-0.024824627,-0.007060904,0.2747981,0.051402178,-0.18188173,-0.19891948,0.19434729,-0.2831842,0.0032377557,-0.2731413,-0.09751538,0.09279136,0.16722192,-0.101817854,-0.19234686,-0.5041063,0.21006122,-0.08420001,-0.23380573,-0.30466738,-0.18240519,-0.28631267,0.24354011,-0.18651997,-0.17130934,-0.22204944,-0.19191867,-0.081901565,-0.2230587,0.04379615,-0.055202562,-0.062495675,0.21909946,-0.16875479,0.123967096,0.20976026,0.035285912,0.06579938,0.1318269,-0.16271897,0.07935379,-0.10236781,0.09151849,-0.26458228,-0.24484035,0.28937483,0.05497398,0.21704262,0.12178406,0.014617866,-0.086033545,-0.08926967,0.07078855,0.1852627,0.06144086
0.042582035,-0.09084122,-0.107717626,0.16485216,0.046433162,0.11769358,-0.0135242585,-0.0016678278,0.03387933,0.046318077,0.16069677,0.012650989,0.070322126,0.022182018,-0.07178045,0.03985662,0.06561678,-0.14216202,-0.10152799,0.07873462,-0.068079524,-0.0628875,0.13411467,-0.030486254,0.1345147,-0.106389835,0.11085929,-0.1535236,0.11163315,0.036880773,-0.022940667,-0.07961391,0.0124111045,-0.027058931,0.04932009,-0.01723977,0.0721463,-0.13672446,-0.057323318,0.02397375,-0.08218526,-0.29268867,-0.19482526,-0.23016746,0.008406842,0.00043663505,-0.52346927,-0.23706187,0.08626999,-0.09202411,0.11780242,-0.05867326,0.12209561,-0.0055433917,0.12799351,-0.3568213,0.005050333,-0.024508227,-0.0908235,0.020936847,0.023295406,-0.08956892
-0.026751813,-0.04220283,0.04729458,0.26727957,0.069551624,0.23359539,0.1795145,-0.054061063,0.19227664,0.11987965,-0.13817266,0.12505636,-0.005942205,0.09497422,0.19016027,-0.058667935,0.040840805,0.032523025,-0.1602121,-0.28948522,0.042182904,0.021971466,-0.07749567,-0.10987464,0.037170272,-0.29590008,0.08709148,-0.102131315,0.1398559,-0.111808665,-0.12918758,-0.11500203,-0.21678008,-0.086815715,-0.07053754,0.059700925,-0.15740247,-0.011833946,-0.02971932,-0.111049004,-0.10764757,0.07953983,0.072041236,-0.013585622,-0.12987949,0.0115329055,-0.08380074,-0.031855434,-0.22370042,-0.23823051,-0.10371853,-0.113101035,0.0070950324,-0.16159824,0.17963147,0.13351087,-0.36498132,-0.020587586,-0.30815816,-0.04797205,0.05271856,0.21253376
-0.14666994,0.031445187,-0.01729394,-0.10979785,0.06276613,-0.10375988,0.094302826,-0.1579011,-0.022080855,-0.18245515,0.1314537,0.0038978052,-0.11936115,0.10215699,0.13598576,-0.24961591,-0.099498115,0.22311813,-0.16573323,0.22682816,-0.09781674,0.058048587,-0.024577873,-0.17862034,-0.076898865,-0.04284355,-0.19275734,0.013878712,0.16134231,-0.3457348,-0.06512355,-0.0937244,-0.14852968,-0.028126879,-0.18252364,-0.037473597,0.20882799,-0.049165964,0.12535182,0.25268805,0.10594437,-0.124852814,0.04247457,-0.09354398,-0.09614061,-0.0721026,-0.0072275843,-0.09773195,-0.14680418,0.1879564,0.09948802,0.13444322,-0.06654918,-0.0049414188,0.1846561,-0.04100552,0.08231831,-0.23087364,-0.53620625,-0.03109038,-0.38027978,-0.00442559
0.05176027,0.13972297,-0.066364154,-0.14530845,-0.15328446,0.1978382,-0.046405554,-0.23061551,-0.2642356,-0.0050454536,-0.2479499,-0.0138198,-0.03725823,0.04460647,-0.27053663,-0.08185171,0.0548475,-0.2334705,0.11899968,0.17440417,-0.3926588,-0.013556376,-0.31535956,-0.18549758,0.11003542,-0.13984045,0.1349184,-0.4706978,0.06862006,0.027990336,-0.017295148,0.008056248,-0.022450117,0.058416672,-0.17715962,-0.13594176,-0.10181359,0.20278311,0.06979747,0.011098696,-0.025312692,0.19442046,0.123805,0.005940451,0.0015857641,-0.082182534,-0.12463154,0.07147893,-0.49530196,0.043044884,0.13408914,0.09563636,0.06640618,0.14960653,0.13061483,0.05152631,0.06654282,-0.038380872,-0.48814604,-0.012845302,0.038190637,-0.037369166
0.24660051,0.1474473,0.13931102,0.17744677,-0.05560153,0.14265518,0.02007954,0.27771822,0.10194078,-0.06493071,-0.1449138,-0.139211,0.1973062,-0.05806427,-0.21792203,-0.2770794,-0.46538723,-0.17504801,0.06315306,0.15557419,-0.25676182,-0.024206055,-0.03705125,-0.2399241,0.17784287,-0.11225237,0.018653959,-0.10582916,0.18413179,0.12309526,-0.14704245,-0.27690938,-0.11779433,-0.037642907,-0.23755734,0.0843181,-0.035105623,-0.20286472,-0.06899283,-0.12030451,-0.12167119,0.059767783,0.06688877,-0.14912327,0.17245378,0.22574188,-0.18940207,0.12755063,-0.0991639,-0.075732864,0.014353195,-0.092637256,0.17743991,0.23650032,-0.06791135,0.08926121,-0.3482168,-0.2342805,-0.14280577,-0.25060907,-0.25193998,0.16841336
0.0019895057,0.16228506,-0.20116304,-0.2607705,-0.0141205685,-0.015579548,0.21191327,0.2804364,0.107885346,-0.025690049,0.016547075,-0.034100205,0.160813,0.035252336,0.13899912,0.053802993,0.13205725,-0.025076937,0.033207152,0.039033853,-0.0037255639,0.12034303,-0.0028183851,-0.032687284,0.07504704,-0.04063868,-0.14175351,0.008039016,-0.10613605,0.041194767,-0.15814997,0.060696103,0.15183154,-0.008649103,0.022826716,0.17501773,-0.25667548,-0.047641,0.058859404,-0.31034443,-0.0043622525,0.018663568,-0.031677764,0.04777784,0.18576375,0.18378167,-0.04691839,0.057709664,-0.60056543,0.11780145,-0.13365549,-0.21529205,-0.3097753,0.11141387,-0.16975288,0.012223643,-0.44383907,-0.051139493,-0.5155233,0.07389419,-0.03370418,-0.0021370773
0.13430579,0.02692535,-0.050871417,-0.024275038,0.027026614,-0.086544104,-0.11047528,0.09703997,-0.25170422,-0.031408176,0.08744516,-0.043624356,0.1306125,0.07180145,-0.17320344,0.072926074,0.18680562,-0.1469327,0.084043905,-0.050640427,0.02035742,0.102909654,0.08108929,0.105700105,0.26392108,0.070615694,0.23510061,-0.13031393,0.0024263945,0.03770634,0.09682906,0.07887449,-0.12939207,0.107433945,0.08310703,0.11447015,0.07384417,-0.22250995,-0.1655959,-0.23851293,-0.21663809,0.040226124,-0.32715186,-0.057489693,-0.30594343,-0.51776487,-0.037556686,0.14074756,0.11240048,0.11781989,-0.06208488,0.09898922,0.059534665,0.090580985,0.041578703,-0.09220163,-0.0009710301,-0.05158956,-0.17126542,0.07590504,-0.046015024,0.0914213
0.09008124,-0.009463025,0.10843913,0.11963447,0.108960725,-0.18977737,0.040261272,0.12872341,-0.01779279,-0.060608793,-0.24073824,-0.38965052,-0.041409593,0.0433494,-0.15971307,-0.51394343,0.012797149,-0.09222789,0.032977052,-0.17057455,-0.28624842,0.1992183,0.025865154,-0.35039333,0.041085023,-0.497689,-0.017725505,-0.15179452,-0.5767526,-0.15395172,0.22334193,-0.06638081,-0.10823354,0.06524248,0.030192344,0.2710367,-0.11879616,-0.005555959,0.009198213,0.16448067,-0.15668146,0.010457941,0.087194145,-0.39054084,0.017109446,-0.15180129,-0.25728038,0.07353253,-0.021263232,-0.36165676,0.13148388,-0.11741478,0.021163901,-0.013996606,-0.30572113,0.20007849,0.15382361,-0.047899403,-0.22865231,0.056997497,-0.0924001,0.05135279
0.119772844,-0.08286311,-0.032951545,-0.0758505,-0.20412906,-0.009203864,0.21654496,0.027765075,0.20736077,-0.28782308,-0.07775838,0.14322978,0.1868393,0.039056547,0.059489783,-0.25285125,0.11753912,-0.08533797,-0.39924133,0.0028488825,-0.23116378,-0.04160337,-0.3604033,-0.14708294,0.135952,-0.23335291,0.040902745,-0.18379481,-0.07902869,-0.04599769,0.13292983,0.15213758,-0.25264752,-0.42356476,-0.032472253,-0.24346179,0.05119784,0.25281683,0.0785113,-0.112571254,0.10164174,0.058476057,0.17560557,0.16754031,-0.024646351,-0.09832916,-0.005847882,0.124348216,-0.16331694,0.022445742,0.11076154,-0.2784612,-0.027231814,-0.16260575,-0.0078023616,0.09417055,0.027782395,-0.31889802,-0.21141696,-0.30606288,-0.15513931,0.19215363
-0.359949,0.124477245,-0.080341235,-0.09068941,0.018676512,-0.03687791,-0.08170228,0.061871536,-0.06904092,-0.06655969,0.094200395,-0.1680952,-0.18094383,-0.22813791,-0.052928142,-0.16032077,-0.15057434,-0.3516613,0.15178938,-0.029547801,0.20608957,0.057591964,-0.029344251,0.00104072,-0.063024156,-0.09785255,-0.3140231,0.020818314,0.05972938,0.053871855,-0.19769835,-0.14722042,-0.053032633,-0.015798643,0.18497993,-0.15731508,0.17184338,-0.008636516,0.003911454,-0.24152614,0.088376015,0.15917027,0.030240256,-0.080853626,0.07921419,-0.030471092,0.07680021,0.10307825,0.041126583,0.03811116,0.08028867,0.057350475,-0.0030113638,0.10492095,0.12558167,0.17252083,-0.04958128,0.008059436,0.19655831,0.072784394,0.027500018,0.009295487
-0.08264239,-0.099613674,0.018642657,0.036256194,0.10600846,-0.17639099,-0.119311765,0.1008013,-0.043758377,0.016901173,0.14145121,-0.10407125,-0.39009154,-0.06119266,-0.12952402,-0.11864233,-0.116891906,0.18701214,-0.16947389,0.13941431,0.0125269685,-0.2018125,0.07502953,-0.028528659,-0.3620688,0.03619339,-0.060160596,-0.020010531,0.036802802,-0.006510266,-0.1998268,-0.028940583,-0.05184713,-0.060769707,0.06023527,-0.14504547,0.047569137,0.0930201,0.14258993,0.22438379,-0.040722907,0.04028789,0.08737888,-0.012169478,0.0032277824,0.10950961,0.14709528,-0.14286657,-0.09580989,0.039261915,-0.016711136,0.023403311,0.13220838,-0.0073047257,-0.01276754,-0.09628523,0.18228465,-0.024560709,0.042451605,0.17662825,-0.022868697,-0.012855394
0.013571509,-0.08156392,0.14370567,-0.24942683,-0.07016354,-0.13810283,-0.10568192,-0.29585418,-0.10450508,-0.32590547,-0.11044537,-0.12975498,0.19378844,-0.10366007,-0.027260313,0.13209687,0.12689433,-0.32226792,0.04669638,-0.07282919,0.104198396,0.056420386,-0.21933612,-0.23747714,0.08778128,-0.034618534,0.20840947,0.051464565,0.12817878,0.025956972,0.12766786,0.2139017,-0.0742056,-0.07012809,-0.0700684,0.05565019,0.13424964,-0.31165537,0.184604,0.10530933,0.14741394,0.107334875,0.052570026,-0.4678489,-0.15146129,-0.28709817,-0.19835643,0.057524778,-0.27782807,-0.002190048,0.074885294,-0.04738652,0.111984715,0.00936002,0.13173603,-0.18852052,0.08965832,0.17997321,0.013759723,0.0965946,-0.09651234,0.021184657
0.15317875,0.091524534,0.02440582,-0.10288651,-0.03302126,0.01260377,-0.10564935,0.019089691,-0.017003095,-0.021641387,0.16429585,-0.008258629,0.037551116,0.14237238,-0.12551714,-0.21722035,0.07266763,0.0037590417,0.11776163,0.1607926,0.023043957,0.010592697,-0.04671909,-0.0069040586,0.075608425,-0.07205824,0.19956751,0.14232095,-0.15677397,-0.0059181787,0.11248929,-0.19773288,-0.18919243,-0.30832946,-0.020224666,-0.12714657,-0.033308595,-0.049956657,-0.21504934,-0.071315244,-0.2258391,-0.3109775,-0.042824794,0.027278932,0.13754672,0.09948918,0.007890633,0.16393678,-0.08632539,0.07966106,-0.17781168,0.019997839,-0.034975287,-0.10361545,-0.1632583,-0.11903149,0.19140087,-0.025468117,-0.2382055,-0.2363951,-0.07175537,-0.18711448
